Label 0: -0.18745498120370144 1.703696500131351 1.0288017877329734 -1.26662267820204 -0.7412313862232249 1.974309225623925 -1.4237370131049107 0.654967277792028 -0.5909029435446047 -0.2536074638410815 -1.1411966634174335 1.2395693202136706 -0.5270379908708807 -0.11673979909665498 -1.208879341235689 0.048730030080283315 -0.2317562599937183 -0.9829431704568315 -0.5578476786073847 -0.0484904792084487 0.8430111253173488 0.1697413902474851 -0.8321640320792801 0.6525752280449102 0.4954728012702313 0.8360291127431738 0.34921375505288255 0.3248655741410738 -1.554838076667879 0.15033361836367967 0.24184590363923447 0.4891664142195663 -0.5200426251988314 1.8668488315351397 -0.8250561294095011 0.1492178114720153 -0.45033177247431394 -2.3487174659915486 -1.205511942762788 0.8226304272831725 -0.5993564913892462 -1.6979915144281534 -0.6666187049489293 0.11830691450224362 -1.143451186771902 1.3513034724142285 1.029931980792163 -0.4146748896519517 -0.8302340973659967 -1.7540568806849968 1.712519718980715 -2.8448092599808965 1.6536568064973354 -0.20773549990859183 2.5086710228348115 1.600322776973467 -0.026691641811250208 -1.6176690027170086 0.7357381871378704 -0.20815508208719927 -0.134009029916708 -0.4240767945227152 -0.06764931067324022 0.6654842680954454 1.262998916367508 0.03141683524007575 1.5930853124306814 -0.3018972884450492 -0.15711401136446734 1.121798995420086 -0.22368463370298342 -1.7399878604609202 0.11963967668215535 0.5548675445253548 0.14365496292871693 -1.5479544998056725 0.21979588017181673 -0.9090321047760391 -1.026341255997059 -0.32919253013442923 0.5466411782062279 0.22760222113859357 -0.6105784724851533 -2.0912192229251656 0.20118135779211377 0.7609130602682549 0.9719600583465832 1.1527162062800855 -0.4530108300329621 -1.6855036642441508 0.4501576034871189 -0.8234588598889984 -0.555195939224384 -0.5089300167578427 -0.5695433100924474 -0.50296078082206 -1.197964019514528 0.1585634220064069 -0.8990705225418985 1.518770430914192 -0.30822310994813784 0.8738351125607775 -1.362747001127577 -0.018251805166321702 -1.287504424452691 0.3087785993226254 -0.3345747229427071 1.4304051791345065 -0.3618033670141494 -0.08358706862890138 1.300766145660367 0.14065018202050336 -0.38661177173755673 1.2576596123226191 0.2656117102380783 0.6196481776816398 0.3912832041649541 1.418349079573151 0.8025794716730235 -0.4484522794152725 -0.3733569267789694 -1.2799187494582058 -1.0350396460853148 -0.5564005853457884 0.7096265172295104 0.12037605245580882 0.5893934639400973 -0.9823494059425862 0.5626957903033641 0.025290255829664803 0.07268076027483361 -0.5016685912834292 1.1948546077798838 -1.7700837490834052 -1.3069051362398403 0.1751355268891218 -0.2683700604180479 1.0682660257374297 1.965580374514928 0.6036460087950254 1.2566602892956544 0.5359129029882068 -0.34503678701750284 -0.031256577834040865 0.8555117082058601 -0.9781303656138722 1.113556625254785 -0.36406836311044777 2.062482740525052 -0.7418322897357609 -0.23482036399001172 -1.853063467927824 -0.40312979381769964 1.7371237560986459 1.0871203472498066 0.34747709755123624 0.25243900193544927 -0.6508696728235052 -0.1920998066224309 0.8244096208482449 -0.9329573840885675 1.5893061703267366 1.0674602632445274 0.6305327303580944 1.47030709084185 -0.2738291482496457 1.071437737664696 1.829931713008738 1.00929481353424 -0.6252090262143158 -0.46944838354859075 0.578434867118949 0.5114557723646621 -0.38353649356111386 1.0348398562236187 0.006921079054254153 0.16566251006828725 0.4263053765778898 -0.8911658874426547 0.6241860624300654 0.12999377157062894 -0.1334321131982702 -1.1557750319450601 0.7464945385725678 0.37375826087381564 1.6082141315587024 0.5839537588694925 0.8225599458979039 1.132717653070109 0.5249417632246852 0.764046545486039 -0.020010668952899546 0.884039862878971 0.4811022143425312 -0.06544679389967527 1.2178243617003035 0.810364662149003 -1.1532302455314374 -0.044189139176879486 0.5044092082196981 1.4218335872525079 -0.21071201383567126 -0.4918263957505754 -2.044185277865862 -0.19382982908938276 -0.31967933065620696 -0.041368011679458805 -0.3804531820457221 -1.0717027770364567 0.3944731253004158 0.8467308304660075 -1.1409500115662659 1.9691134765616232 -0.9561599699362108 0.9235463589611425 0.08218152654524596 0.5793942469777856 -0.07646852869815643 0.2199325952712452 -0.7769190322669806 0.8929032436210272 -0.37910855828675394 0.5463002300176192 -0.15335045205923187 -0.3227139089603914 0.4052372242013524 1.2747189935851189 0.08467123666570511 -0.6923421444419434 -1.187869385854758 0.9257916772786997 -0.7971593489983515 -0.5757474613279325 -0.30553677524704925 1.0715306644285454 1.797150755284684 -0.047820771981376464 1.1395017912422234 0.5860729786172582 0.4522643856071902 0.7786369017327205 -1.2543015975063652 0.618901123459064 1.2369717461522245 0.7869740921538875 -1.3614731904147839 -2.0461215284880185 0.8188777946015454 -1.3125150693795735 -0.7629222187095898 -0.1288447870837744 0.3400060005292039 -0.9618730818350377 0.5714407966713871 1.6099346767852054 -0.43430450250841074 0.3071285143785387 -0.7139772576289656 0.5033913286425806 -1.5187467168486166 -0.683141488129573 -0.7615885912258514 -0.08504162342646958 -1.8264967919577249 0.7354146441730618 1.1976781086162234 0.9650736174353307 1.4651427871251002 -0.48928754268066615 1.0284045873818692 0.15273237166507295 -0.10102841094990063 -0.5820793219502637 -0.38660980603825346 2.2083853002222025 2.6039048603541755 0.8947902424393891 -0.5531058048092399 0.1824020206872517 1.1275182870815246 0.12860338096273274 0.30553830873818716 -0.37770052719479447 0.40151546496645646 -2.3121988587639732 0.3145853826744708 -0.40023157067961346 1.1833481448906338 -0.22837022159413306 -0.9312729930230531 0.14901032061221187 -1.0699762834174087 -0.30530387137297715 0.22191172379307061 -0.9775047064362398 0.3772613038854409 -0.18767676599648003 -0.35150655185110147 1.326396165399686 0.3544584219899577 0.00191649377232345 0.14256159548928599 0.013430293639770441 -0.9493856499268541 -1.1550679262737567 0.7545152730889011 1.1296531558431102 0.34366960055318047 -0.8290938725790249 0.12562723462919806 0.49655420468582373 0.10411014110953382 1.111338763967362 -0.7275057850325259 0.6769068034288346 1.1968716052287989 -1.7033933256743308 2.1272964863306836 -1.2121524890111746 0.6800905105831746 1.343595056227656 -0.5581399408446621 -0.8883526018415544 0.9208693103679377 -1.2927036380686383 1.2319112298638581 0.19746904430436532 0.24271024318056217 0.04873891272734638 1.8822293160964048 0.06102973835504767 1.92762499302868 0.28246121306119765 1.0496122582079672 -1.180813847712598 2.0215883757249458 0.48802344149521865 0.10835543750710261 -0.0017934711519910094 0.67656649343841 -0.2646145517873249 0.39054685718640675 -0.17170353761823734 0.06857879633977279 -0.41688887376558764 -0.5910541896346455 1.4805220792021117 -0.3602374483184419 -0.36904567097580454 -2.182431785107631 0.9507891018169731 -0.5599798480792463 -0.680450154280311 -0.8971064147199936 -1.610059968131584 -1.377773018462206 -0.3723695020021291 2.2674160408896658 -0.0929227824476 -0.7043569151260398 1.8248870195140052 0.2256094934761092 1.2397736410491982 0.41286542098316115 -0.026783617656178708 1.230232899958904 0.558610831046777 -0.2738880804218793 -1.2202188670114396 -0.45592297573269125 1.4820752692387305 0.28579664332194044 -1.9558117144804699 0.17007513176332129 0.8993817721386749 0.006342210661531946 0.8049220144382229 -1.5327466594090084 -0.7607700709132679 -0.6445838214991367 -1.7903663277822472 1.5672068285346032 -0.304586412036965 0.6263466230045465 1.353702127661113 -0.9062286712681784 0.08420446564459781 0.28893502040451585 -1.2011145088203292 -1.604330574672888 -0.05408826367727004 0.10067509847532317 -0.149548701877385 0.2882586085465986 1.4131765988263303 -0.6629553604420952 0.16979021441291986 0.9001168161959355 2.72995289230036 1.1540206714357546 0.9963210895003256 0.5257118654329785 -0.04212117184509717 1.873693314435963 0.1625960226224154 0.2528229656153333 -3.1150305661312436 -2.199060359224026 -1.0175510310889653 0.32917530986224836 0.3564636294085656 -0.06911018271161626 -0.46309235239565893 -0.4946174519606356 0.2486850402248469 1.7108977968969006 1.4046078594109963 1.054835797089431 2.260602844210205 -0.07310861466005712 -1.5089124615374483 0.5182899972235743 0.7677710574763696 -2.3618987228407105 -0.5314683934577001 -1.1649244835657933 0.0601900072922156 1.4392860164248755 -1.3027647521404695 2.6422758341241956 -0.6984935792913969 0.5562564694352456 0.06652590225684693 1.4634801456460187 -3.0446807333222963 0.5719974731636449 -0.5718846223181548 -0.6146689550216842 -0.6040094554714557 -0.5675103788732285 -0.05821896398999726 1.0312170794676692 0.09690816254389054 0.11441414968744083 1.7748581557564154 -0.23484052674124942 0.0662568878321179 1.3084845883890626 -0.5605834742684727 -0.4099287351544193 0.27204221201548573 0.27075067289912147 -0.4458393079653938 1.9082028023105686 1.1659511841923045 1.271084174409655 0.12190639774045184 0.1840804826164313 -1.0895198256167695 0.1924638334060016 -1.2421334121441197 -1.1033343501229362 -0.24958789116858934 -2.304370830362105 -0.34085691959288705 -1.2358272916853839 -1.0516299571959413 0.7087886922456816 0.3480503523052038 -0.07572339086703332 -0.15248522908196827 -1.914972878090636 -0.743659835540789 -1.5243882325590044 0.3516536671537064 0.9375171221645994 0.2446537396274489 0.30918203418704987 0.3442498739664887 0.3589510089691851 0.5701539610024167 0.5497568205465633 -0.5729631862758724 0.15364348710959783 1.2113414247991146 0.752265926517822 0.6508984840099307 1.1805366283138217 -0.4438429126792672 -2.1070020474239355 -0.18099664779198807 0.5324089387131751 0.5160486068467565 0.26889390923439016 1.1762392037147962 -1.1395778244620527 0.19165154306946192 0.30684508115786 -0.017842724053144576 0.985710353755845 0.11598170787134465 -0.018406394560774496 1.0435998011010126 -1.5757727587865222 -1.775455573101791 -0.10471984651517154 0.11605917411079338 -0.9837382491538381 -0.42663086434664715 -1.3631997167928667 -1.0092877042892834 0.677382199407517 0.2151596309290545 -0.5684132944917083 0.5949656847358662 1.1784805090668977 -0.9121592350609362 -1.7591415904129597 0.37890066868480604 -0.9699918562720917 -0.9096414364096177 1.001224503894357 1.2519979239980408 0.9948244383122374 0.8307744756956416 0.9804281552872073 -0.06811763805972526 -1.3765727686789917 0.6990587337957002 -1.0425147488326902 -0.6994855375777536 -0.6508557221092619 -2.8394951501750354 0.0038529921228731483 -0.844950291620713 1.12369766446323 0.07777637912284002 1.6174143577146503 -0.5505732621144037 2.2886967368277285 0.1499906660184056 -0.17407984763126857 1.2490830066858147 0.9726210062542623 -0.37705300239838796 -0.25343575571456733 -0.798746680523719 -1.6038709470777357 -1.5252711583185956 -0.016241055488129458 -0.07515842305038173 0.8770766611793321 -0.44183477533978194 0.585980283870863 1.7686074331297452 -0.2266616951645739 -1.7348804878561177 -1.7162171669026074 0.3763269263538467 0.09278879607348302 -0.7868028285449594 -0.485732523319494 0.4337707169563738 0.6756102786476417 -1.0206464227935144 -0.06327625708642375 0.22531485265359852 -0.4043735919558358 1.5700879354703288 0.7963819503150578 1.4579782127893115 0.7072163322034215 1.6733764447796555 -0.40027208867413033 -1.2420445609644701 1.1227309359192224 0.47775818416001176 -0.6343409287890817 -1.5645343401510337 -1.229095628928164 -0.8334490515589884 0.7973080371554547 -0.3199145238054789 -1.82361467454934 -0.44696861663855153 -1.344868149777973 0.08977530531090482 1.2711859903199754 -0.9763478842343791 -0.5523140089899223 1.6318866740616413 1.3096569769956208 -0.07544603710443525 -0.5924973365511309 -0.18525180748131775 0.888588100476076 0.2367717679188716 0.739532140838936 -1.8900634051447933 -0.3392066535948346 -0.2153947648068294 -1.6270734315549968 -0.7254879625320428 0.31602719973691323 0.11545535601177809 -1.0226129585364039 -1.0046722961230028 -0.13230192884534467 -0.958135865738939 2.252647065231605 0.28473788146356394 -0.30959201743618814 -0.1151639981057945 1.2800687289240125 1.5726799571841144 -1.3033257744014648 0.19314082043030537 0.5170602302917254 -0.5364603344566821 0.824264166317848 -0.04821222484846252 0.04847810251235868 1.02084720402395 -0.13889347321191345 -0.07772458413467181 1.5101148429603244 -0.3835843855218383 2.6847631672767904 1.3808631864064738 0.001125068693757455 -0.38440131613655715 -0.4886433025448291 1.157729519362034 -0.9540446855954514 -0.23306070096893944 -0.10131262428796704 0.37361777922537115 -1.5134920800854252 0.6199832337088907 0.10514766834100914 2.5193323840466038 0.8382272554709508 -0.7248895233749888 -2.2306774483165226 0.2361053470332234 -0.9378937752477398 -1.1619821379773585 -0.0519921563297942 -0.27048835928820364 -1.8912841074423972 0.22662504602887473 1.0091066657675012 -0.4347399436046046 -0.11960216288214864 1.5467947494358163 0.7743905736643617 0.0910205423518439 0.8031608964805299 1.0553982125147958 -0.9532309595855722 -1.3673652291889355 -0.47543998580683156 -1.3678515928691162 0.13868419202918675 0.7353667446594219 -0.09489849363403881 1.4702654811206166 -0.5099729271029287 -0.7645571639854543 0.9221592059504614 -0.05840993890137822 0.7687403406735279 0.7996193796916502 0.37580941649862126 0.2671415465547979 0.5625765013929037 -0.5306208020412685 0.2064633080720376 -0.9748512904032518 1.7313518917825998 -1.5052661496843973 0.03283535095743584 -1.2280429216416413 -1.2065912519222037 1.8324129785974517 0.37207698717737797 -1.249253411323763 0.030540640592810683 1.177843055586191 0.09288909548691227 -0.7036671822298803 0.17102030704348709 -0.26945556810904336 -0.04388389578922821 -0.5535266890670179 -1.3603164565063797 -0.694402318245455 -0.7593744089578894 -0.017515409061503152 -0.21885221247248926 1.3179420663387562 -0.40048987395886126 -0.39719079193930334 0.44788642317845706 0.04641100458787401 0.06773948327170635 0.12887966173452153 0.11626849442565951 0.09062809533025248 -0.00856028436163199 -0.19818689647722024 1.0193348004131466 -0.7119870885084659 -0.42252594872446675 0.613360167882858 -0.4356960680225523 -0.46851306308886775 0.9909147780714403 -1.059816004627453 -0.016948963781477838 0.6219210962780816 -0.3615716587114346 -1.8951628079591065 0.03169507394382126 -0.634202119557265 1.408157942064578 0.1381280922903909 0.25611156852495964 0.8885922799540086 0.8209356539753778 -0.9458830537367744 1.5360213996078036 -1.476618779312769 0.07727509547658286 1.0276558207071487 0.19827635096446714 0.9111200150142403 -0.5581131069021001 0.5270685142437835 -1.794649896451307 0.10031661071869513 0.587567362936917 0.40798947535295965 0.44457727819092085 -0.08606048304804127 1.6625716159039368 1.2191235044109052 1.021803621804129 0.30178105985912607 0.06097990024538431 -0.07235417803496273 -0.8549697545168529 0.7319314418051148 -1.1154192502088476 0.8145231384379764 0.3273528895214753 1.1562188415349512 0.9978923995104467 0.5895329949777216 0.22200099415993615 -1.1118570218227644 -0.7217570084170286 0.4073939336076925 1.1703577068172912 0.3048640698115668 -1.0727428207968734 0.20009192306009457 -0.6613136854977945 0.9004428150668089 -0.3578486740120249 0.7630449586421831 0.06603746505018925 1.6785921963482056 -0.795790396147077 -0.7570404823436905 1.252613514382081 -1.0427096340502366 0.023679432819371835 1.3503245377248556 -1.2649724352267135 0.3955239160404826 -1.9616877662826098 1.0076571479207834 -0.47074019927276944 -1.218857031723919
Label 1: 1.3215961785078307 0.7066581906177773 -0.3385552361428874 -0.5933389693881137 1.156729542355848 0.24720232575987283 -1.0197617793560463 0.17279500996351788 0.421043761241859 2.412765122541679 -0.27523593042680683 -0.8464348933427368 1.9233897439379768 1.464716078000654 1.0344650742268662 -0.3476124552713432 0.8823580173967841 -0.44923104994738833 0.08441133811640643 0.0689435674797395 0.39774430490790447 0.8910215722902793 -1.3120385405791926 -0.2079025549814121 -0.220228253566488 1.0962728649771145 1.0088174357131403 -0.20534705071617348 -0.17069847697902824 1.0606678025634424 -0.46989108805841 0.9162596271402567 0.45484854795268376 1.5990282239859896 -0.1561647385006525 0.8964515159822376 -0.33540240008449074 0.2110148610303551 1.1992029574964178 -1.5719942746567808 2.3859663151734454 0.5701388988789343 -0.5555966692220066 -0.38933101016242677 0.5387606995976992 -0.7555049757110474 0.011764225292435478 -0.6789484261389513 2.433011891634337 1.6827916420122486 -0.1741633372473679 0.10632356524777926 -1.683638626186985 -0.5089098151964446 0.5800983786149051 1.0079961319301878 -0.05332650189552007 1.0461349636887822 -0.7452198564803599 -1.469995611017891 -0.9585065659058162 -0.9881697306354118 0.19121278254778679 -0.7783441845920415 0.500925297924179 -0.1105911488374602 0.9463299650045118 -0.4460930803602694 -0.8040313840847221 1.2973385198658374 -0.8247814278652489 -1.5607359295577339 0.5484246913551852 1.8574916088246196 0.030831891571304358 0.18853043229786254 0.3339731768926765 -0.9205363339674675 0.20795112357213583 0.5281943112856999 -1.8108162795983889 0.582824238089467 1.3778746361316656 -0.3049612044476707 0.04492992450702812 2.002668458772597 2.571053675276733 -0.07676511053971848 0.546618595656311 -0.8826834289626905 -0.05110888827040821 0.6397141758582797 0.29414296337397394 -0.4978117659892378 -0.5114696708330924 -0.19888274665710726 -0.6000281072476713 1.5402229249197874 0.47250748498075035 0.9755862067970471 -0.40135388477221823 0.22034129194788038 -0.06373931612267841 1.271118718690463 -0.8489572172200661 -0.6665157116293584 -1.7917279201958567 1.1630060890954157 -0.3537531409216152 1.5318593970170302 -1.4718471896978118 1.2626390076248168 0.5925275541419323 -0.6336561443715343 0.8003519469156888 -1.8023333431365878 -0.28124712574948707 -0.10639258351620089 -0.280022549386169 -0.2997457665360756 2.5425006885535315 -0.8330590609657985 1.0376513733108863 0.2632598152430296 0.7546723379849097 -1.804601245068861 -0.16372812409557075 1.6436341851110539 -0.2071871237276851 0.8751917632880932 0.5433753967138305 -0.5751090613679382 0.5922009658373447 1.4908739463497875 1.7598432656213499 1.3718573657838622 -0.5023740452004178 0.679496716159333 0.08396654473406565 -0.37920056957547493 -0.08634774806947458 0.40982057664519883 -2.2854942136844985 1.325060438591197 0.38822031027066556 0.3682218059972985 0.8384997162263992 0.6339916245397359 -0.026936712831086677 -0.9620784625909492 -0.04704811187985007 -2.4264689147837935 0.4504169783872177 0.7256134052570196 -0.5015486069368325 0.9631821314528104 -0.8904234132578374 -0.21234832983802465 0.9817298010799033 1.3650890076413762 -0.28984357467947286 -0.7176338013727092 0.6590129743014889 0.4009136857322532 1.0516673561029042 0.8836756023301799 -0.15577333439714072 0.18165000689634225 -0.6452433334758457 -1.1241068627067876 0.1578507727826583 -0.07154955935640814 -0.8058149017440561 1.1082364477542785 -0.5990185186016375 0.07263915342710453 -0.7697672108947081 -0.29096271353055614 0.4398371587488555 -0.2104589033264256 -0.07099578580394005 -0.5728937705670829 -1.2420104420172704 -0.4146358870936216 0.5585754164026561 -1.2380719345775875 -0.6115520332938169 1.2417163931225366 0.7325231461349686 -0.288670454146281 -0.7274381625791726 0.17558188218956955 -1.2787907951829114 1.8692202841012189 -0.13707125250284422 1.2919386283208805 1.8493435269828256 -1.0964600982241348 0.8184059768661996 -2.35513975056999 -0.39880559525945436 -0.23399576915348663 -1.8734832970051851 1.5237366062380817 0.04510723820515433 0.6721936588058601 0.7756910646454915 -1.445130396189278 -0.731288643225712 -1.6541615953539526 0.3962573732184962 -0.8280104272378341 0.4604319603738839 -1.169543213406142 1.9278098064112785 0.4188550363619268 -0.029211167310255137 1.4592904127160613 0.749971363910946 -0.8031346259307527 -0.9968547581847031 0.48720630913721485 -0.279196963867547 1.4880683465069444 0.7584050823646592 -0.038556709739413726 0.9423493260219701 -1.531039182435284 -0.029487516987495542 -0.4133566682231757 -1.817109783441433 1.3959641634563107 -0.19046072721048468 -1.4190252908118328 0.5325828053300494 1.249181871287771 0.0007015933599253681 1.8043016305985609 0.36586499342720996 -1.1477307754291373 -0.23894783659824165 -0.0911517550265542 1.100499071808388 -0.06505152975469898 -2.253800292876422 -0.42685837272813426 -0.7947390133427662 -0.9910404322450304 0.18780161329214928 1.4145249897765686 0.05042325566191193 -0.8970411000683352 -1.554228150620567 -0.12669963072762117 -1.228489413293815 -1.044592802117657 0.17875685346118844 0.32166496421485485 0.7005723670805818 1.6826381633577845 0.20180443092682065 0.4677907028307997 -0.5294875088131515 -0.8086113896758683 -0.30412544401355074 -0.06354338221921746 0.38293033881784827 0.38019579992851626 1.106720766854565 -1.1957077389376303 -0.38792923453828887 -0.5077517290823172 -0.05884307110985419 -0.15103574490649926 0.5750280994095155 -1.5955863382402622 -0.6905478867560526 -0.07843218390400242 0.4968385676738162 1.920576135233506 2.165022412634075 1.5228980926831448 0.4116011093372436 1.730594603889422 -0.45214327964147816 -1.4122553151657318 -0.4629896592034736 -1.087099923597316 -0.7167371456019971 -0.44072749723743343 -0.38091558140825654 -0.1709872151170575 0.7638915363871125 -0.27070297579038743 0.3902534680427615 0.554509790376516 0.8467895293368245 0.30867734401624036 -0.4762316510912278 1.1497090504679912 -0.7365978319337612 0.6738264844890126 -0.5610951746261822 -1.8167396751989877 -0.44990578313327 -0.1351408498814073 2.3281270261748004 -1.211436468997225 -0.43689891204118575 -0.5737620885080664 0.01609667453364845 0.7963826469797416 1.1458944412808583 0.6799166673468843 -0.3118411507499164 -0.2606625173885359 -0.2709006863331418 -0.19153542215135527 0.16033142757614444 -1.221270248556489 -1.0587376025469275 2.499458343964475 1.1225706413386707 0.999121690549278 1.2232970683734368 -0.61619093945348 0.24480040615701243 -0.06888794897887095 -0.2792767937571439 -2.801059034659139 0.8510256783357025 0.8624321851726856 -1.1894716348765644 -0.8286908082826308 -0.7485189011662764 -2.9552225215925643 -1.2045353200731026 -0.18115256488720746 0.8953934967639667 -0.49007332992281716 0.38711324629103605 0.47727488586792344 2.784379564063963 0.33419774964314325 1.3360201120403543 -0.39868733453162986 0.770769265403954 -0.20356897442475538 0.35403383116108833 -0.3005293668662341 -0.6335848595809928 0.4782122485620824 0.06551950657505734 -1.6094786524772313 0.27268274393129827 0.21399359669195644 -0.9043797343782392 -0.8589532770027245 -0.43732038192141987 -0.1252820327621374 -1.0973760676135274 1.408502356177888 0.5052710075682665 -0.31056960390867794 0.55559019602488 -1.2358584371695933 -0.7673793828552384 -0.8192279420744196 -1.3993411826419864 0.9591287093256347 1.557500365138985 0.381452507719241 -0.11510699580971773 -1.2104626518515675 -1.8938157052692408 -1.3942871865045523 0.5417909657300006 0.6173450686925054 1.2113967062193978 -0.026538341777837874 0.25442888733043406 0.9345014582602212 -0.7879354340090026 -0.010656647454538141 -1.5283000780222058 1.2431234124173682 -0.14481616304967382 -1.529138950147258 -1.6287422822457251 -0.3205440222368608 -0.9924918773100525 0.616489611087747 -1.370218083114175 -0.7838623329741646 1.3737090303494015 0.2612513839049135 -0.6137302542244127 -0.24062507858969784 -1.341392254358932 0.23813789115878847 1.318190268220057 0.46890153549379693 -0.9656978632090539 -0.5395739517430214 0.6399785285152442 1.0005161728558427 0.4277691663204923 0.9907265336299595 0.3667272983693323 -0.24618090153286754 -0.37264272060288245 0.7473821941766275 -1.448793619168453 -1.6142191227391498 0.11278105409291969 -1.3221834619262987 -1.013273953472339 0.074432637847032 -0.276733376007075 -1.0673385731646043 -0.4570208438947283 -1.1399822481542965 -0.882170203751001 1.0956919555516913 -0.17925587211595 1.8385262465059362 -0.48587713875504734 0.870947404485979 -1.7642437392880361 0.4331138678881531 1.2401189701464848 0.5533193535073755 -1.0395192261023176 1.636136050853459 1.3621335934361616 0.4330667270947745 -1.6637991402598666 -0.10935754814808268 -1.0124100267132288 -0.8214635559495809 -1.2018764855376358 1.0054471891045191 -0.13463169367284888 -0.8157317680674273 0.16578333912861534 -0.3978492525203986 0.44645986269595933 0.3298661734933582 -1.0428633457465675 -0.8043766394752968 -0.3890232900861909 1.7204781222806205 0.13479657647522217 0.9625666635767083 0.905757227576457 -0.6436738780402502 1.7542672951025704 -0.44654979795589644 -0.5994433431773507 -1.0644247312875148 1.1840080482855826 0.10323374247013166 0.3101749896445203 0.35169944931613595 -0.7330550989620136 -0.5222482620063096 -0.6538355862963128 -2.140779398155399 -1.2552237331867537 -0.457971297936818 0.004732222793637875 1.3425944619288066 -0.2583522443323085 -0.4098291136268194 -0.06102396403053864 0.6495644890854553 -0.8807697477681709 0.15357327957695066 -0.6959008178112923 0.5724043465953267 -1.583978579362956 -0.9492558202717462 -1.1902510429135689 0.0665836029610653 0.47027290943038746 -0.09390189826080994 -0.5457868025060991 0.26966944094055173 0.10106488856067589 1.520553057746258 1.803565937620856 -1.3377348475304502 0.772691777627056 0.2886352266685968 -1.5172297115184794 0.8137904025315911 0.5789990353884787 1.1905910077696429 -1.5139819455631212 1.8945471299789174 -1.937615293143003 -0.04916216412964616 -1.3319176025580213 -0.5545907741948923 -0.9474899591203566 0.72192764329996 1.0194013131052553 0.9063886664952352 2.8288139386324236 0.044109267170573285 -0.5436525217629393 -1.2903807755885013 -0.5674389220164543 -1.2908166590304917 0.24448790771005158 0.2627066181267369 -0.258662140139834 0.1790694299975933 0.5892137062664108 0.398766043833164 -1.930290247818021 -0.27372674533966906 1.1424930378298828 -0.5702006412183934 2.165816724092327 -0.786663089787328 -0.8377518295969143 -1.2049244810465498 0.6439558405532869 1.993539012940324 0.004305416555037699 -0.7311276862811943 0.40911493203557 -1.0200021800969903 -1.7137901851882715 -0.6453882509361685 0.3213467961669676 0.7947270657131497 -0.09724024585276464 0.08130829978495387 -0.7045024453283926 0.6383355839521645 -0.05872331251866386 -0.5548659548371803 -1.2187140268688614 0.04664675458891293 1.2590449309029146 -1.4353810256118609 1.669704107313584 -2.044461379365375 0.9425095257523277 0.6303998035066535 -0.41800704140319034 -0.8297466130876163 1.2463248842287726 -1.4412097666983 1.5012273950618222 0.5010525980736452 -0.0028000282713952916 -1.4686966294640766 -0.3150051328151522 1.8444041251059369 0.9150498988390736 0.38380572452377804 -0.9323355141535705 0.889648652499103 -0.1360562342660353 0.8061550370104119 -0.9126358543937606 0.8339836877657314 1.0325359452652356 -0.9539664146052126 -0.16053808429810934 0.7198076340992046 -0.019717317016191935 0.7361465147042144 0.04061755439409691 0.18858729898505894 -0.7719790176927201 -1.0162167689484702 1.3712604441179421 -0.12493058652069744 -0.8094189856201605 -0.8091941848517742 -0.4432579307088149 0.29660824791080254 -0.2533184325679266 -0.44052495189819596 0.6519049716733842 1.6862536246615556 0.7075949353070167 0.21768050333574981 0.3211233751406481 0.28863264528704075 -0.2930804609639801 2.6260062068837264 0.7810450562826489 -0.6115543103127454 0.7016635659567068 1.041322812722789 -1.4973843083995002 -1.1283796168030409 0.2793908620102413 -0.10413578037507965 0.3158595208800211 0.5268951145165454 0.4534532642743878 -0.9836782248270171 0.586441299205911 0.9194700490436963 -0.9081273236754527 -0.495227128386642 -0.08252826793434204 0.07728756470414215 1.181379661235417 -0.1998094777727146 0.5964906047616108 -1.21674736007244 -0.45564510651010276 -1.1217741694449939 -1.5194364510614355 1.354464855436583 -0.8666161696804947 1.6466668459171192 -1.2195672303998641 0.12234041183428646 0.006639154893635202 1.136925801301567 -0.30613127359981396 0.5277676055083935 -0.6320564866036135 -0.5052199834408856 0.8513538638723199 0.5614451179118498 -0.025352874464512065 -1.2059290611400697 1.126353845291817 -0.37945721606621424 -0.9566858339126174 1.6183199843124618 1.0138911937986586 -0.7408471926875332 0.1680485993805748 1.161605516910671 1.1356942844208902 1.2464468273577256 -0.3984728656666246 -0.48062808283001784 -0.9214180941919601 -0.9651794520004889 0.04925780012110942 2.3221271413197404 -0.787872569806919 -1.134136446003435 0.21658916211265378 -0.5110461985753397 -1.298705201243655 0.06472246588215025 0.7820446637958367 0.07292301263271408 1.0467894330797345 0.1009845759967024 1.0193478208991844 1.2623293945040635 0.22383847404879506 0.8967526177619746 0.8385189837892222 -0.6413172588843638 -0.9428339670875395 -0.7343336668234403 -1.2543562428961894 -1.5638340530467594 0.09081607233496682 -0.0727201167833704 -0.80756067685686 -0.38085932424746255 -1.622320651170235 -2.469837945809254 -0.3635804494122084 -0.9764700702560389 0.11982590552544153 0.625577503047006 -0.7519118772041394 0.5727098019022202 0.8799840311661248 -1.4329575661533551 -0.450277559007156 -1.0804808926110465 0.04967275057162872 -0.3713041042964914 -0.5023977124484358 -0.6740068096843916 0.4102808502031965 0.1796013179843733 0.016754401792598378 -0.6806515813599043 0.04117634452529495 -1.7287741792210731 0.09458721639933998 -1.5780173631373124 0.941998042580033 -0.30721692438801057 1.1448648344058585 0.49577080534276974 1.4789775931080273 -0.964727529600093 0.35870913087664996 0.6690063970110016 0.24298270497811847 1.5033129453783656 -0.1957801193678432 -2.188096632088764 0.43196390115363664 -0.6414034466049756 -1.0705245414874123 0.7030256381995594 -1.2081723093400674 -0.9088130336912519 -0.8482416393038675 -1.1762640153056372 0.3053648031258152 0.3244054355015999 -0.9247102263690183 -0.42344366098696407 0.5956250605968787 -0.1442052486312324 -1.0302214146807167 1.0092130882850625 -0.828731160859981 -1.0861805899466972 -0.8502978499352652 -0.6862828952148483 0.9375274645747439 -0.3295184362326425 -1.04885579680879 2.4910189349949765 -0.3680479276329859 0.12732818348665154 -0.3761561119986735 -1.3510334274651707 -0.26384249531123943 0.7627912851260776 1.858062426028235 -0.9728425709147128 1.9259816209661995 1.5266851439206701 -0.42426971023930193 -0.2982033364632345 1.0405901929639239 -0.3257580316065159 0.6386001142849422 0.22719354661037547 0.7599522211426986 -0.898852739504743 -0.38177384303659806 -0.6041731449053572 0.8808714442379183 2.1418704873682124 0.08028695900794869 1.2156653462995952 0.6285191240868339 -0.5118402253423997 -2.00900390811165 -0.49466434753168337 1.010323376700001 1.7872262224618394 -0.9494721949484776 0.8857721595300229 1.8574423222022263 -0.16020516223341263 -1.324244465710439 0.2864400483986427 -1.4618572736313902 -0.0870906655550587 1.0117272790722551 -0.6836727130077489 1.2683943586906488 -2.2309445165964052 -1.0524115223425279 1.5824414594281977 -0.5995422741078064 0.3249132413276295 1.4705670800914394 1.3604613371431942 -0.5387106876609
Label 2: 1.3420159330765697 1.1605007350087073 0.42997640164908496 0.16921762871842655 1.1238359652871908 1.145774792001121 -0.8528046237439377 0.5821775616711792 -0.6222715254652248 1.7919210003871533 0.08754487358174058 -0.15016343434481433 -0.22019963578806284 0.2784105230187937 0.5414010323461772 -0.48910605236199167 0.16270715576435762 -1.700851951709053 -0.22350408168614191 -2.9234316505801425 -0.6895813621641136 -0.7247036200173409 -0.8803509975501327 -1.7781852505108666 -0.5932985453105993 0.07910586614847913 -1.150485407616951 1.1864078867572536 1.0537919107369937 -0.24063123933191344 -0.024133179961036793 -0.7613221574992463 -1.4653562090767307 1.0771516166588047 0.5694519995261111 0.45601423002420016 -2.2446753414272114 2.0865660887963164 -0.2676348375250974 -1.7066127781022664 0.2938299635665331 -0.5924311485828475 0.9788094650687158 0.1767423491076862 0.6310044651268342 -1.9140997272290579 -0.8192895270970176 0.2036035691853705 -0.261727711312587 -1.0608435813184935 -1.2476601100191846 0.3017392764385527 0.19240663411295864 -0.7146424748237339 1.0934865896964567 -0.04401898724641584 -0.209040996213099 0.1342281996513328 -1.6689724079348207 -0.7985049244901636 0.6718534650983831 1.2614247124300213 0.26475071123328764 1.3948073731139496 0.8938741081946 -2.6851792955404465 -0.06749707636983639 1.1756071701659414 1.4454429813564946 -0.17122045184510254 -0.9788605003961941 -0.31046565880573007 0.17555785744490135 0.7592360797086322 -0.9923339396652936 1.1620390261828837 -0.21469873665060152 -1.1665440780577614 1.4731462810387315 -0.2673392363659904 -0.29323223020896155 -0.561763802395335 0.2039319063192039 -0.583931235318772 0.9791261422831226 -1.1953702272054392 -0.301174890982012 1.1261967061024838 0.7761105101125677 0.1528146503325463 0.9148194919560048 0.09020210355368606 -0.06356509870441653 1.1916189702791404 0.27626707352467395 1.1966821933831575 -0.3255456941773973 0.923705445232974 1.0977015220968325 -1.2544166604444533 0.1829336285354835 -0.6655533466408633 0.0018272282130164567 0.4359114806437335 -0.6509604763313058 0.2751006669433997 -0.839519727514592 1.8844187127159349 0.8728741315043352 0.8332497111578995 -0.7759969781415011 -0.019616033515534426 0.9351693887900001 -1.9817331475266013 0.720701955751937 1.0542460509579588 0.06580020756614292 -0.6447522451519967 0.6258837046124508 -0.6360442800468556 1.6627874512654228 -1.3983727824048209 0.8407005614100954 -0.5092521535963751 -0.36536410714661227 0.7125050722211126 1.4653396100100453 -1.5056627097123612 -0.5935155407943864 1.0882196696684174 -0.38930158835215267 0.16536495840721943 0.6500300453110464 -1.4653982091861986 0.24513882349817218 0.3799181261902474 -0.09293483303931978 -0.5534280705006257 -1.0971691784141095 -0.42647976329610926 0.9194302600444367 1.1245547782808119 -1.4306050208826524 -0.39430955995650746 -1.1450610017789293 -2.2137481054418764 -0.250871513390473 1.6202769530155 -0.5136992337213991 -1.1419276162476164 0.49867450321637197 0.8180763862905861 -0.10914616969146991 0.9934356619153659 -0.027632967953943932 0.45674996915025184 0.6984047597053508 1.4319985153921058 1.0721520751971807 0.7059259235173303 -0.6824023140129094 0.2946754841489017 1.6061815056144382 -0.2618958887771222 1.6818592182853913 1.4441508723780132 0.7373414314528929 -0.7932928577690148 -0.9518273871931436 0.061754215205961645 -1.911252924889101 -1.4711278743129756 -0.04074318930298658 -1.0050209401876933 1.6041498391478688 2.2199029501133904 -0.2685958755185113 -1.3024601716384647 -0.5800948347849897 1.2289171819250722 -0.7553655208765461 -0.12798159689208272 0.0851997972400486 0.3027110737464546 -0.8499974058046348 -0.2100071109530456 -0.39043304173413884 -1.0988831656139837 0.42807193173544256 -0.028056525768181444 -0.760116666434169 -1.0175380984605302 -1.693711893963142 -1.2833040143757986 1.7194401911916841 -0.190423184072242 -0.7609116045571982 -0.511281143442556 -0.5224011463848343 0.6934478627821626 1.7826623957679628 0.9911689543125447 -0.5036913092221114 0.16072314481446154 0.7285216638842096 0.8640860597221259 -0.15333256313896382 -0.45125352199358876 0.12062428164544933 -0.019037315460694367 -1.9996508247297025 -0.1347977199258054 -0.11644324944772326 -0.6036684295920828 1.736322140768261 -0.49419014591370475 1.6671177837166522 -0.8610814236418328 -0.4962794347954352 -1.7431367942912983 -0.4805269141737295 -0.7170986951035168 0.012747011270609478 -0.2983974261566581 3.0753210402369127 -0.5336757206218241 -1.5669632249175054 0.40767938278702304 0.5992349783633952 0.14621652603057245 -0.7550909309913473 -0.500725421594368 -0.1139170514716756 0.11512287377959662 0.5281721157446693 1.9926552800959965 0.5017437444968172 0.5213236788903672 0.3162081053680239 0.3308800688697937 0.9826548979692565 0.11043365569422156 -1.0872289416122891 -0.1818517356931611 0.05907352254513368 1.367826851204644 -0.5219873527832731 0.9416359325044031 -0.618091926910824 0.7516646675301512 -0.6475370891341605 0.537051419075754 1.1330582313455173 -1.7137785241532215 0.9258134048574655 1.2945545636864857 -0.14198076054780323 0.8297688897236231 0.41386470998058933 -0.59749931194243 -0.9627697599350883 2.0152099880144756 -1.1907438051981396 -0.2324557248389877 -0.21893513048079086 0.7565449068212549 0.37049745508908927 0.007017279095791698 -2.0732891524687513 1.3934542330505952 0.060550931378099276 0.22118576998128497 0.40796218554603847 -0.7608856605474451 -0.2919076070847472 0.7496560584151487 -1.912677432421509 1.6690764087595853 0.9554093203854865 -1.0507131278696766 1.079454451543204 0.13382894950831356 0.9571965726528853 -1.933976056940371 0.706822060154624 0.7294200017085208 -0.50416750421267 0.20911498500280845 0.2443773819072139 -1.74183589931533 -0.9711502602147463 -0.11653342678866407 -0.6389965699825555 0.2092703777923362 -0.8065594384227978 0.8965935122302936 1.107802720300411 -1.3840484913188844 1.7279529345983604 -0.5023397270046591 0.5019135278255626 0.15849221828949625 -0.9018854096953659 -0.5930205509395134 1.8000009454672077 -0.5798150995702975 -0.11021452710730979 -0.7179116352343188 -1.532890972684005 -1.062201028788321 -0.06749690780995447 0.07733121413433836 -1.859718547456626 -0.15691816160589084 0.6602688335466693 -1.4867089802971256 -1.1708131801266026 -3.033457697560084 -0.33690005424024416 -0.3063261553672182 -1.0293968427552127 0.0747724343688187 -1.0095042559549676 -1.3341925335783804 -0.007045218475116107 -0.44990468729284855 -1.8588798765846337 -0.272098178220069 0.7509148714896202 0.5029578038845509 0.02183902304937979 -0.8557323260392775 -2.9393189652947695 -0.8020036846841383 0.8748785173857813 -1.062116852607574 0.8457218343079334 0.613597060459513 1.4071090195225755 0.90255988293522 0.5521825790300756 0.10818279806194575 -1.0869688848684715 -1.8976531879895906 -0.2685890131720088 1.186960174466235 -1.3153145979470422 -0.2049720391339326 -0.6797504714040952 0.3761045181181881 -1.1051652159381613 -0.0929821160402845 -0.7929524941078246 -0.28195729867137526 0.2911535782177697 -0.9020155192015554 -1.834623592998765 -0.11221635199249594 -0.04492878663411547 -1.3770645498292202 -1.8262589688099857 2.5801752947213474 0.8077432902827587 0.19582879285564683 -0.7857633826563983 -0.9482922711642766 0.43530485138543523 -1.306438343257805 0.6271099473442122 -0.02404296069657146 -0.7598142346182212 -0.4289795466696237 0.964166551132733 -0.8827645766141835 -0.06906591923124636 0.4257546893137644 -0.29171151061972367 0.08680990073623768 -0.6082389646406078 0.5423231152247591 -1.88807102955861 0.5447906774534609 -0.781091763150965 0.71902983522564 0.5785585165976981 -0.6730024038600361 0.4743257124025657 -0.2797421497929814 -0.1194655506077148 -0.8198765457683582 0.44633976512666945 0.84596675471032 1.5435109772718938 -0.9443204700710562 1.753534735598787 -0.7715854331140758 0.6885815868156886 -0.7833803558103489 0.8097770392751455 -0.44765314353637825 -1.082190629443519 0.4070390650683586 -0.07012136049247811 -0.3156012324874748 0.1651615121898602 -0.23778660915105326 -0.279605801276312 0.08558322637188447 0.27072330625659263 -0.42837060900465795 -0.6591888807104578 0.8362392561650495 -0.39987270427419114 -1.5361328259588025 0.10473214650285914 1.6623161440979464 -0.8767630708512052 1.325802163115799 0.30550284294532637 0.5793911386560154 0.09931426756326472 0.5916521698713487 -0.08190760419072399 -0.13090029555479793 0.5037354582592479 -0.7118060417844264 -0.11085156255187122 0.5978966414423382 2.2105188916956684 -0.5772484208078165 0.2111088690678065 0.01394910595452879 1.2257416753547417 0.3436467694849963 1.3447596002943172 -0.020125067145447526 -1.050149926969302 0.503655707174014 0.8587694032691908 -0.45084767489649197 0.7493283743429268 -0.07521377379540345 -0.19470500817318054 -1.140160437136472 1.0174195568025959 -0.08698529247516992 2.17348750013627 -0.050036854534084116 -0.013069355485189327 0.40205928910061167 0.03167654573462261 1.0314560421913292 0.29501100781741746 0.8737872449434444 2.0148316855635033 -0.4395311120441779 0.5908279186504505 0.4688185877239088 0.3617065650122285 -0.12141092132328264 0.42640435969077917 0.8164583173611049 0.784697427823979 -0.04618428382165034 0.10721081956299686 -1.7978454734006297 -0.4122599996825212 1.336719973679368 -0.18176780056275188 1.3624621023160264 -1.528621092929364 -0.3176274922094013 -0.4224927089285191 -0.25847567268918076 -0.5692511460196483 -1.402996896031444 -0.39923568236260304 -1.0019248387775996 -0.09917085438536155 1.6816011945026246 0.4703006502325529 -0.6466875441498501 0.9081026538894559 -1.1476374067159583 0.3003280345479399 -0.017089870028634924 1.0553549345244095 -0.8260821171174401 0.808172232774322 -0.040674451397686384 1.1583545329298515 -0.6420857601431815 0.34721843453052126 0.6062749163041253 0.18919615638882525 0.18808593094536546 -0.8950573607381714 0.5296987307423294 1.3489065070709596 1.3386995213021395 0.08914760381592539 -0.5474498228000908 0.5910925575685299 0.31529294205628156 0.10909559840243616 -0.3876025384444465 0.5924736767000673 1.1686217156906413 -0.6561098528145747 -1.607630607636764 -0.1650931859381512 0.902261826900454 1.6227416413857503 0.13486226393548967 1.0465293296928473 0.5494265617480173 1.0407370290521396 0.5111375964664565 0.27418740850199974 -0.1544904864543678 -0.856328716468682 0.895814307771949 -0.02784277317253886 0.6440600433675762 -0.5128142715358646 1.3067304527411332 0.009620570009826728 0.5226102334804565 1.3046637369854563 -0.19652528655830942 -1.4829714858119682 1.277975059002317 -1.64578242214665 0.5039167425756773 1.8593103253817431 -1.8690167212886248 1.1755504718197494 1.746456112674652 1.2724765180754596 1.0217359774298769 0.5480699485699198 -0.8081002136543346 0.06990403792007027 0.352807966112124 0.017129618662920842 0.9961951216749149 -0.7907059720845901 1.5776253409139886 -1.5153680408268975 -0.08768099363648763 -0.9339380491916808 -0.4950229190333596 -0.08077426417937948 -0.08044085187803283 1.7662926078198464 0.24646233212003305 1.4235936355630894 0.7180925335408598 -0.9556152801596953 -0.6172746797154083 1.4125401081165025 -1.7912052235236604 1.418683048671749 0.5215258708053562 0.5469605083257499 1.7903263436565 -0.03008503025004122 0.10392416926138237 0.6208773697537667 1.358780381079095 1.1424466217118567 0.04612742621521252 -0.8561855392162491 0.47101707756870104 0.8607824704778028 0.05581136794264574 -0.2975140851046659 1.4282561768101003 -0.6746092129295898 0.6774902785096222 0.36015748994083613 0.14857259444005488 -0.8676204473727029 -2.008943604763709 -0.1920282152370365 -1.2388490439227262 0.4337098532510643 1.220862047266841 1.2960026328202678 1.6424105790076826 1.4833622233840338 -0.27945353319961524 -0.9444298815965773 0.4709571451136355 -0.035232603672878504 0.48992151054734395 -0.86500793159348 0.7394809084671349 -0.2646828405849144 1.0205746845916988 0.008494297401118608 -0.25892498709228257 -1.3057637946991005 0.45059213009778093 -1.0476472070941594 1.9243917799834755 -0.9189744674057332 0.30617376438047245 1.0132429998954935 -0.06573707706641424 0.49391904622715954 0.6654490434636325 0.5524363642768773 0.9984214439552564 0.7679191786374516 -0.6387887717392604 -1.476739261976575 -0.2312486323704818 1.0492899757469325 0.2485496557532668 -0.7281869682909369 -0.028673189216929573 1.4407599021065078 1.4257747399785534 0.7010347102541217 -0.11804700446380076 0.7018060391245572 0.7685786294058607 -0.29449742140223795 1.3382475198393262 -0.25485162954542756 -1.0419178459928777 1.369112641755562 0.2211919815473804 1.20406818102367 -0.9467367596150783 -0.3510753072468078 0.8634247573043222 -0.24507474583364808 0.12776259017173786 1.8824468232988232 0.1280738366986055 -1.7460127029873367 -1.5979685155597319 1.0388542772656668 0.6585084965023187 -1.125953381986424 -0.011936295673973253 0.7538142825282155 -1.08454004724576 -0.7147094659805381 0.944410949229781 -0.15726136169356658 -1.1327078893934284 0.042383941231666056 -0.3210542054503952 -0.08335348720002689 -0.747053839807346 0.8642287959276584 0.09088696797745606 0.6603627007036961 1.1156679976649544 -0.6025684404898852 0.5385445992287163 1.2028852444222324 0.7223212467335699 -1.3616375313582672 0.8348117380744188 -0.11770434415717303 -1.7304823942993894 -0.364445337396648 -0.993972138692332 2.0287641682728776 0.017442447752309506 -0.770182526730534 -2.7097338840032723 0.16923526780043607 0.30989440510513516 0.9771621897427256 -0.3821023270894366 -1.3893190517496503 1.291237965931975 0.49333092504575565 -0.15899011503249266 0.7524914332071849 0.30461204168318096 0.10114785788808067 -0.9565621149232586 -0.03950055073698729 0.6658066853560244 0.3818957325810404 1.78608031481066 0.6286150358698345 -0.3313048709637161 0.9337633922612024 -0.36725275250008194 -0.07926670760616217 -1.1668211628933949 2.087110989711435 -0.08113320356611749 -0.00032295795310307744 1.119789358304733 -2.975538040505291 0.029543226422464052 0.9922376223516642 -1.811676943499588 0.4886654646009306 0.998535477891292 -0.9503512960645973 0.6179798490706909 -0.45482240320930395 -0.6871827449967014 0.12124110582226849 -0.7656798893028137 -0.13967311163223448 -0.6797654253999128 0.05727655521820407 2.793178385293066 -0.8094417538785136 -1.0400620909087919 0.6205234453052564 1.3474989541062936 0.5267154173662331 1.2764066288998792 0.6733314944224635 -0.4079173539486153 -0.8010581669935078 1.4566403069230338 0.05056212107180791 0.9793156682283195 -1.0810836159578452 -0.8204343295284954 1.577559230588399 0.0760344781509478 -0.6104353111489176 -1.0426876301791155 -0.7435436007015981 -0.35734356440131265 0.49934487986124576 0.41175897144074686 -0.4152937170596414 -0.12577398105187543 -0.025921145834321348 1.1353073712857067 -0.0919041302212298 1.8047582644009232 -1.0857254939969656 -2.607246938101244 1.0480291716723515 0.7189862388929475 -0.14131959400961566 -1.315421102221659 -1.5433828329384003 0.46072357106526857 1.2302137481098852 -1.189106759963156 -1.4995545830295658 1.733404289906805 -0.1630108062477079 0.2275277365633256 0.08786413605110169 0.2536925952785426 0.568858724322395 1.3078877316433875 0.6036376896800237 0.09564872476119995 0.6099536814909873 -0.30869236206578493 -0.569057279303728 2.61411325500997 -0.01920486045572717 -1.0947452975327296 -0.116058818641451 -0.5661881795021672 -0.6142354716838616 0.867942568049773 -0.22315881849879213 1.097944793032154 -0.4639916439428893 1.1524034428266976 -1.4265881362423833 0.7504921763648825 0.08059751422269218 -0.648269782659298 0.7666080318746504
Label 3: -0.14699443454299221 -0.1557563609760805 -0.7888964310794463 -1.70583108854775 0.530457949135223 -0.9742428443470794 0.7568555586024829 0.07865553592844318 -1.3166673586621496 -0.7590339862575817 -0.1243556393591285 0.7521400497594015 0.8326562584308725 -0.6595254297234863 0.1406291260116664 -1.9196466143173425 0.19713720092273562 -0.560869389141435 0.17968717119825198 0.10046422345400195 0.6187187520321502 0.4955692293582162 -0.8541401173460064 -1.032866763014504 -0.5353039273679966 -0.6873047989233674 -0.14334139610992827 -0.4671110363045014 -0.03366008123337843 1.9529323927028592 -1.5806600755547557 0.5189758391760015 0.5343686784354759 0.48387878519930877 -0.4922606306189901 -1.0842103125516958 0.37903804454504536 0.6256944030286213 -0.21304250260653318 0.757937702156935 -0.4760517006564807 1.4328631912620131 1.4976355112090913 -1.1406791377857814 1.3966551908927136 0.9156885912972231 -0.07403271260815168 -0.28454441538593883 2.6453270506929325 -0.08650516955636448 0.05276608771389808 0.07129350363876966 1.579220097969053 -1.5972802917585234 -1.2626733051138046 0.6145771852826921 1.923384518515798 -1.1140251025893317 1.83096795624287 1.1094038759812075 -0.5850664903057492 1.5217459375319096 1.3106359656997861 0.9198226847355472 0.706176741007023 -0.13768789898861547 1.1199451012283346 0.39212092505288626 -0.34033180125217977 -0.3861868040704763 0.03922479165924667 -0.5905157962329618 -1.452525159114103 -2.0464981512192173 2.0876459602091315 1.297459119182831 0.31885184171201253 -0.6186852911192112 0.3134815270498215 0.6229072126435388 -0.2400819289309031 1.11321847869803 -0.584739048873803 -0.6786811110660408 1.0830670597104104 1.5658221023486987 -0.5269978283338719 -0.0579799134998013 0.10689283965006997 -0.002561305479466808 1.9837285491399614 -1.928993764265292 -0.0056084864968288725 0.4354457902330484 0.691213273141344 0.2065057651383853 1.1239819349020603 -0.6176777578744813 0.5635833530067459 0.6137920808430003 -0.3608788802998047 0.08151525784778012 0.6312771009922136 -0.13899562310917796 -0.7980560403724729 -1.078688374161495 -0.11815729316637767 0.8034931446067267 -1.3369743347327416 -0.8653264583892496 -0.8796372480677608 -1.1778275406385321 0.9977761655707685 -1.6265763751266356 0.16124951926418546 -0.4872061848615734 0.3475555404812787 -0.8036138613404125 -0.569299422627464 0.4617461233306523 1.097281850429001 0.008701981628363331 0.6624844124195116 -0.27983165813239425 -0.28974832527440125 -0.3886631268541388 0.8885103210043286 0.41883624988383394 1.1808074865516482 0.20503266718842386 0.1890387262771172 -0.2820434418283581 -0.2062369409126134 -0.6944243548429474 -0.8629607088905751 0.09898214311447934 1.053524316036753 0.06738998527302287 0.31219932813390344 -0.997022661971163 -0.7838328838646249 3.1193796825613203 -1.0194648937687456 -1.4930847476536642 -1.5748457443464907 -0.5992536015771739 -0.19920876607732108 0.21039435619891347 0.41792021000184154 -0.9862957785184583 0.30110394660168943 -0.2948459717876624 -0.08160972850648301 1.2725193650019646 -0.7948574283490434 -0.43065718722004037 0.4395315536538335 -0.43858094538006803 1.8454849804176667 0.26571746049229644 -0.2638397920064764 -0.2258928135837846 -0.25884473507973815 -1.4993657168017247 0.5152425082512374 1.28142716321581 -0.1884334557104918 -0.17046828615888507 0.346062041944503 0.8018282421372761 -0.279600031122389 0.9318412708178251 0.769840703972187 0.4238078809129766 1.9632282561008259 1.4815574830203442 -1.4327274368323129 0.27789172433862935 0.35180325527091355 -0.6214315300333448 0.4245063471330884 -1.0827654213949602 0.0599068216639882 0.7105243551607161 0.44026785623685966 -0.37550360566951696 -0.032620472807814604 0.9473935668351664 -0.3402095723664025 -0.46763641651317667 1.1972641785101004 0.14669054270894694 -0.9944601499418977 -1.801595981102127 -1.6767870907856806 -1.8492948358241046 0.44072766664409957 -1.117569769459619 -0.9746292148193281 0.24714799754348846 0.9707329131565137 -0.4808870017377696 1.1281295844317472 -0.07330681612220874 1.870044874190731 0.4708141408811308 -0.3540725376613916 1.0437783745281626 -0.2401951512920184 -0.1923033756578316 -0.5837321214721224 -0.6853430593492464 1.4332045837748257 -0.03003121657835163 -0.07090584357735563 -0.11861249782213679 0.6780206612771391 -0.6461088752928368 0.14241769623168302 -0.5168729027553106 0.33910281435559453 -0.1306026630659314 -0.23722422552795858 0.5425404444829511 -1.5711721759857447 0.6943284667105718 -2.6764033209838662 0.1779339830839583 0.35257943776201317 0.3761419490422329 0.06484792401822667 0.034284857166352864 -1.2270636665017909 -1.5047951959951262 0.5558466148243942 -0.41320471126842484 0.24853860547807965 0.7490232803165283 0.17125290262444806 -0.2371713020307452 1.7643944227104764 -0.29941581273228207 0.26393489918018515 2.3999394296115315 0.29975455325781303 -0.35197351929433673 1.0833010373419911 -0.6878832558968561 -0.37966943472341125 1.161483463826438 0.09935213323986061 -0.4302545724811203 0.17461469921922573 -0.41366467372094934 -0.4705242080712842 0.29951874522570465 1.9537387858543243 0.6957394051543844 1.1757279954354694 -0.10852569655059752 1.0548708936217361 -0.33713198733067945 -0.3568204404030399 -0.3327848145493198 0.2329332398624169 0.3702564534910718 -0.7253642932500038 0.4510111776595095 -0.055590890108860536 -0.41141901513057016 -0.10835139338981833 -1.3048557305984203 1.0572720760705578 0.1974704401122084 -1.6960607958879017 0.9322448292863302 -0.19316687846332148 0.15109559796055166 0.694936307892607 0.4722802370614934 -0.7186991776867047 0.07073781343932609 0.9083512616102473 2.215063379740429 -1.2524692635031458 -0.3679154829562115 -0.13204873412255536 -0.6414420896197077 -0.41854872712854907 -1.3067892654581248 0.07203887576901327 -0.16598284817752235 -1.019621234326008 0.9320352822321907 0.027034749294191085 1.054595601095935 0.2781215202173388 -0.5302972122232706 1.138062898261336 1.1383099332117872 -0.1450560812168024 1.2904229491838233 0.47885652782685917 -1.0313856243137483 -0.3111601886386722 -0.2641314305737645 0.057979430787565546 1.0211514123144783 0.6568994465442631 -0.24237698806356917 0.2423407883292775 -1.4978904083537794 -0.4636363169500056 -0.2476972027967757 -0.5809021318826418 0.08633150494760028 -0.7677006098413297 -0.24833777392199052 -2.0583659998274064 0.07434661521580602 0.6189598549817424 0.05813737967380233 1.3548961531033843 -0.35209539244746435 0.4598390048271841 -0.12181311881753829 -0.29698019748851834 -0.4271370446391759 0.33140986928087446 -0.3074228187214176 -0.29115609553457833 0.10416681256457669 0.17595390416245027 -0.28008384019372357 -1.169056861731086 0.06834155159272282 -1.3201409943472306 -0.09898061107777215 0.1416427873183343 0.7609806135453637 -1.0792491043954058 -0.2945750668736536 -0.34983624269465313 0.44047425044590793 -1.9084838112624989 -0.581514329766785 0.3147326037489791 -0.1909614884962722 0.3488419727567506 1.422809068523206 -1.439336739140065 1.0445540755210927 0.583240084023022 0.017831546569016633 0.4230006237285601 -0.10542029367010336 -1.5016333489620828 0.8487095521487349 -1.970774171420967 0.34932550179359834 -2.2049957835729783 0.3613160660071826 -1.9232183243151244 0.0353568034082173 0.26530439836345954 -1.6252645945987092 -2.0721443158488846 0.062340582098309935 0.0351800663848478 -0.4968644530287424 -0.817987733165785 0.7768556039292053 -0.80972259485412 0.8198280854763463 0.08622029974576517 -0.4694178635822742 0.4104845397394302 0.21292867171690383 0.5725832319467243 -0.6596247232418906 0.150313551323052 0.06056197913866358 1.1250343039660595 -0.7316010400472542 -0.9933982792356063 -0.31222759222138563 0.47009131677150184 0.3774972076741299 1.3123665663744166 2.0766547407742157 0.45534115576964695 -2.7613797480755755 -0.13616515741717905 -0.2532981561588346 -0.5372603066392843 0.754111497620808 -0.17342814635750145 -1.0633630241227432 0.692072437395856 0.14822252963307786 0.6694106967009216 0.8723616357010349 -1.3304826337866709 0.8395801752137017 -1.3126171563336726 1.3202684382976528 -0.7521054357302929 0.5267821740024444 0.00998986820286818 -0.5103955647328646 0.5593005312975201 -0.24732575523543837 -0.17514903573517426 0.30885674511578703 -0.5070339657548201 0.2433536270498619 -0.32571231192982114 -0.628137842127839 0.19761602931034436 1.2736350692069924 -0.007072125032889633 -1.3846966938942842 -0.452090969679591 1.732317732266852 -1.3655888727879284 -1.0213280380231173 -1.7478371878183372 0.14324152374233756 -0.5445974038754904 -0.5033070671169607 1.0615964743613113 0.35741063367826453 -0.2141475913808022 1.2012074528728731 0.2844744224783162 -0.5161745835778967 0.18866216238680056 0.15401641387023424 0.018173402489212176 -0.09911308022548976 0.3032173282763197 1.6998805285576517 -0.23250259912421753 0.6965445472564816 -1.4051397798356429 0.8542716025205792 0.46622258973296066 0.6476943663981 -0.8773641525041413 -1.890505763424683 -1.0292718928758755 -0.7526102391741368 -1.0063230133291732 -0.5705221625014661 0.7297062716956841 -0.88773576205632 -0.12330284343326745 -0.2021573127377181 -0.2907470389789653 -0.11300986944194102 -0.9479569833691508 1.1054800166862175 -0.37442433796882796 0.8756184490180715 1.1176927259206524 -2.414278451777765 -0.05394148628983566 0.2521344090170879 1.0449875452477118 -0.7521617889063485 -0.9992459236594947 0.5046884807320707 -0.1636996170472556 -1.114013847589106 -0.009173062566873254 -0.9954115625700157 1.1553113446506187 -2.482777217083156 0.5057462909413442 -0.3161398271254347 1.5052624073692795 0.3039291389275696 0.803689657485547 -0.7206482402952121 -1.3533874212685346 0.4943004529392345 0.9339376808178338 -1.742733796138533 0.7819382518233933 0.43093630541660743 0.008212001132149371 -1.6394617744758895 -0.6388452361441022 1.0934892000954348 1.3981005418030943 0.0989858971636752 0.6814839002462045 0.3599313922571716 -0.2531091403799318 0.9994069980585593 -0.9411487304015199 -1.6122316336066886 0.00031419873288810157 1.0744450905833034 -0.48552469796549474 0.46818869042026906 0.7332551953428315 0.7323359008532447 -0.005868638571839892 0.2916307934531682 -0.5039415984764587 -1.3772942291787242 1.997190553385686 0.6070762145616428 -1.1559443519248458 0.03193458765339333 -0.8507909278534386 -0.34185931053998125 -0.6684410027654702 0.34595546610032996 0.6767797775759797 -0.4395441052584614 1.0426602944439292 -0.048229489023892465 1.0596618905212034 -0.38904179183558607 1.2411494024013094 -1.0651887427775548 0.1840020055574486 -0.23106066533641284 0.32169990407245724 -1.1678393077577145 -0.2640708148643344 1.1165852420302214 0.6178350306883298 0.9127567395150329 1.3773982225882127 0.44098854278668653 1.8947343476654377 -0.2752746856044719 0.6325261132056041 -1.3008544116559557 -0.42105157663461196 -0.8235429655234878 -1.1142937412644471 0.2612863699461272 -0.7498731085938442 0.5572880104345489 -0.03276174879686532 -0.7700238307149275 0.6936482875785348 -0.5644805870856029 -0.3809720514442168 1.251376504778782 1.3488827583015404 0.45404712551380944 0.27728782474333974 -0.7808459546546126 -1.1374536986835972 -0.07176642090099704 -1.683039472273136 -0.34307535871908157 -1.0705695917875309 -0.43078940524921744 0.3281747640260668 0.7477523454180093 1.7088131427546127 1.6579061230686127 -0.6351329324561695 0.38664672639684056 0.162723872492112 -0.889753518202448 -0.020990945694584984 -0.34003932293168904 0.8446782314186116 -0.6469225647166384 0.5426447596508275 -0.5649534466783656 0.7182323385671757 -0.09301472108868326 -0.7454982210859054 0.4760833968698797 -0.17217497895709996 0.26249646255755305 0.1578192145384496 -2.077886841652485 1.134742434418473 -1.0085501907870245 -0.09010790767767694 -0.7434677480124929 0.679360808140867 -0.2948797452681052 0.8970769015241508 -0.07141480625883903 0.8049363590888697 -0.7075641975090845 0.6964290049629152 0.1909271265920584 0.06024383908671943 -0.9342243983394788 -0.448178389352931 -0.9336766992231054 0.016955253228155033 -0.35397093547321407 1.3363218295880197 0.42462842627433417 -0.9295399055541719 1.4386656835949378 0.1595990305181547 1.5195599886802653 -0.9484924870718985 -2.4990759948932566 -0.5989666106365823 -0.7330231170287865 1.0606601623129652 1.5263818391185442 -1.7998940564713004 1.497501018885635 0.697421672214846 2.3295207458179092 2.263910231562235 0.7364832375911646 -0.566138323551061 0.003612366318316133 0.5221816960251042 -0.6505576419356579 -0.052087783550769255 0.6819355112347383 1.0657379321470715 -0.35890040476245816 0.9973533939400712 1.1968513567427632 -0.020772589175820866 -0.06956280559859304 -0.12017832018806371 -1.3987498653931045 -1.0522979288562637 1.1381705857749884 0.3889521445462734 -2.1865264202166985 1.2773993889368267 -0.09440364674927017 -0.7013225288860567 0.6485912876382319 -0.9671305150889734 -1.4466668875880064 -0.40310812808638136 -0.8747980207872252 1.053217648635757 -2.0863177606571464 -0.307455877083158 0.8880183196577895 -0.39182744566723504 0.7856310965882309 -0.26980644424689276 0.33727267440065495 0.8756962092037451 -1.9457938920912274 0.447670364082946 -0.2882225039563269 0.3980997477587589 2.1577883538415668 0.17406982513791575 1.3361920439527755 0.24904586930087275 -0.6236552917343715 1.5144654231936665 0.2876265177909731 -0.6387748218925992 -1.4449710270472131 1.044615044673149 0.7614912037723766 0.12902859587225482 -0.15816088228016853 -1.5017111393706934 0.602047402490514 2.604221643891933 -0.4306699921061938 0.6049625570764375 0.20380080277569423 1.7104129574830915 0.11355031294423532 0.7384084383862486 -0.3508831728199109 1.0547284624388087 1.1800804091983557 -0.16114725427931476 -0.142322492638759 1.0402441383721426 -0.5965079927623378 0.18525340204844223 0.09289635359909343 0.24857896790062306 0.8480131749006584 -1.2842010027908342 -0.8537898434182029 -1.3442694661593881 0.33837662091548987 0.7657839999539036 -0.17723995325952985 -1.5937773359385061 0.5162833333454854 0.34778639659167204 -1.2691101023924671 -0.28416527612233755 -0.4044126705737837 -0.6742460542642825 0.16707669630307478 0.5880142953271388 -0.350790629313069 -0.01872355982777335 0.34478312511088166 -0.2387901273942239 2.3373345530972363 -0.17363550198397454 0.8770376841323603 -0.4643060770800782 -0.168972972823935 -0.10334784342212966 2.052730163919986 2.6124111819963987 0.17955176370739123 0.32277485048134663 -1.0844443298123345 0.31100812618685925 0.6510067968654228 0.42481691694190565 1.2338827090624434 1.8764965014807449 0.01071473466317791 0.261597199821409 -0.14263516800332848 -1.021951624267172 -0.07355979211213269 1.1386233821749256 0.9501032053692382 -0.371701520410485 -0.5304560531615825 0.5686538356165733 -0.8367960740556168 -1.038021767368693 -0.720304082463369 1.0748376296327864 -1.4359788725317046 0.43609544315792625 0.08260181675377817 -0.5792099300153021 -0.7401113201033095 -0.9550541794297576 -0.12821034162022737 -0.013364810666148095 0.6598447716383942 0.04927885766115107 -1.1538678152330066 -1.703388988687528 -2.007131213534213 -0.25028251130555296 0.15420339151823653 -0.37769592930660134 -0.9080320601648594 -1.056134711195969 -0.7339635630266271 -0.4952820282691782 0.8449513006113173 2.167711277718724 -0.47764679742350824 0.9512798984999834 0.034960805304304544 0.5064236850773215 0.34162593535491703 -1.6148583424463645 0.08633706320917653 -1.0339411088604131 1.7967409868532884 -0.426525510958696 0.5370500045664278 -0.9577685843994151 -0.5332057107007969 -0.6358333182250995 -0.3743813303283139 -0.7771062198568376 -0.7482891003511605 -0.21093559963630198 1.6352811122072717 -0.059156676641240344
Label 4: -0.9044026196037395 1.6723243349620234 0.908485715980444 -1.9054001388835928 0.7138426337139266 -1.5824949878679688 -0.4545529415983176 0.1853233130619225 -0.5847486320083348 -0.37839789609314456 -0.3802891199378578 1.0688399579511474 1.6985053074754997 -0.11934093986060094 -0.29675304392757684 -1.150322197129368 -0.7204366758429743 -1.5401643903368845 -0.7251082371401837 -0.9622627126435993 -1.3188249330393997 1.2297950306679426 -0.017014341610748003 0.03690496569099592 -0.19273674850730904 -1.4954986188490136 -0.38903381745731874 0.41009888087586627 0.16269994609193508 -0.0663726488503179 0.4487531016429269 0.6894657012368347 1.689581411465762 0.3929447067883977 -0.7461146461252026 -0.9073705103130835 0.4797619213683087 0.35110151487566826 -1.7639973650560077 0.47428698933875646 0.6596306696650507 2.5461823866092903 -1.377079776628944 1.0401637110101187 -0.6711307753620247 -0.3394761322938178 -0.6939468392037803 0.25527890589741525 -0.35419670128653724 2.5642107993714847 0.4479150164677109 0.12218262335160335 1.2046351534207633 0.1636278434798062 0.6095735463802169 0.13676301357285833 0.10515563146836866 -0.10277437425703778 -1.2349385571558644 1.5056285586328937 0.7725354826754302 -0.4807925914607492 -1.0073340006327902 0.8309397571703396 0.28230083517674165 -1.507357645241831 -0.6978531398140153 -0.6795391206094344 -0.17150887864214664 -0.4012826410993599 0.8009750966489332 -0.6502424051355818 0.34061146858616664 1.669259703211814 0.19393677561406072 1.6227631869132564 0.5469439540876607 0.4479659597292205 0.23358621467616317 -1.5606424002971042 -1.5277949846973533 -1.7617991397286077 0.7144733367727543 -1.5335211938507698 -2.6890200973397045 -0.6796286308398234 0.3369475436694969 0.6323234946910296 0.4595344007541624 -0.2649663928920559 0.6359770417839465 -0.32416246059749665 1.7128813394051978 -0.22405604544004376 -1.288190960342589 -0.5268244852664611 -0.8119750421634813 0.9013850319241418 -0.5607405402979035 -0.2494717140246445 0.4635224848119442 0.8888611412780958 -0.9926280213375955 -0.12099939199942011 -1.0614673085808903 1.9490445720312146 -0.9429034574944389 -1.3315082550890645 0.2912505433069504 0.6599588919581693 1.4345714798189737 -0.1262805295791476 1.4025787053318914 -0.07735482093084928 1.374956716318639 0.4948968775338806 0.37850300806764914 1.8675162022053384 -0.2592747743190762 0.5301193235517014 -0.2528159073561053 -1.3489260962575707 0.494024175830065 -0.3675787590061031 -0.9056277011383461 0.13226542573734817 -0.27256489633501174 -0.05046454053411875 -1.1807226287874508 0.5656340048748498 -0.2527453347797436 0.9175992574344983 0.5908634057040848 -0.6021174933314115 -0.2426078285508504 -0.5635095269745297 -1.0056894746863794 -0.1398524216984726 -0.571356658435051 0.7577010873971795 0.7850952901124835 -0.20232577829365953 1.1149120681877942 2.1249779555125694 -0.40107226496449344 -0.8901116107064476 -1.1798616612102364 1.1435892773968281 0.39213441784446024 0.35386274730258727 -0.23866943377389932 -0.6546213730260485 -0.9136484059188839 0.7974098824839542 -0.7766625288277296 -0.5000276375633069 0.44275711002612356 0.5229777551893886 -0.2548692646264958 -0.02986543841377609 1.274550858247971 0.8517348933868905 0.2784061956948043 1.2211011972447183 0.481621064332707 1.076484930979053 -0.8820898448936944 0.7764442770108184 0.017196853261685057 -0.19289612739962161 0.13997427294574463 2.3754346439407805 0.30385933229032763 -0.7024442901844198 0.9444401138169571 -1.2621011687353347 1.3860760654443807 0.945444749773006 0.73557687424187 -1.1093712243088094 -0.8280742914381285 -0.9548257256926658 0.08761874913064777 0.21515949077005037 -0.6275146649907523 -0.21481693478463562 0.32513663035387785 -0.7081315515874003 2.1385605234469987 -0.624669179686089 2.2489712436207845 -0.10605117855289609 -0.5073357432509119 0.00645633759002167 0.4683443848794959 0.5802001802331026 0.4378096795772511 -0.19968170801171994 -0.1744891379615706 0.26862930842603705 -0.22297763431573525 -0.5567922619071051 1.0925510003744068 1.7144444789420228 -0.44771920108369395 -1.483702141788664 -0.6160102282042715 0.7911530347277242 -0.286486424282385 -1.93104103969985 -1.0459798285991602 -0.9557944775817172 0.7575582233279695 -0.20064216053237233 0.0030103278463271517 1.7900526507942216 -0.4153907108157998 -0.6872528262015467 0.12524726655846644 0.03775294879973233 -0.9821162037144425 0.30939065966816864 -0.010839834751415148 1.2614844236321696 -0.6114517205361645 0.06298058101975981 1.3104974879248106 0.19232051291662522 -1.0655879491054572 -0.6682691008764076 0.5130854249877931 -1.7230457528401188 -0.5745572556675328 -0.8988138166112504 0.4370174501804735 -0.07043011729655828 -0.7852738615623771 0.6681157460067184 -0.5901836994528054 -0.9203367539841665 1.8170418382211682 -1.84856017088038 -0.05752749400241474 0.687271267944789 0.870964059539912 0.8651875217617268 0.669663579861047 0.40200027635861846 0.46299417695047446 0.3991534286368587 0.7681739120918846 -0.07627498947314727 1.685501184514692 0.2705911926538292 0.7552428820851829 -0.46752281113236377 -0.07477442784265756 0.9134775589951558 0.3283431448100328 1.7712889532556297 -0.6417175378349699 -0.924112886018202 -0.3575085330545912 0.5938293903155611 -0.8078298010021425 -0.37828602913751247 -1.4046253301808775 -0.7683343167569315 -0.7975340164593614 -0.25481868899629234 -0.2727289291242076 -0.9249419219937312 -0.23884477332472187 -0.32341924185274273 0.12053740152331877 -0.003195250898819264 0.12951276746026602 -2.3572789909494873 -1.5110179579596916 -2.024417708067824 1.0338509886930667 2.141243322889281 -0.879234658807526 -1.876253069422708 2.0069666228810026 1.563841315185505 -0.5431555646984215 0.23309612767706644 1.1015949004566363 -0.4169340923531371 0.3524802515542751 -0.8562984480264186 1.1382280421833817 -0.4673298053010411 -0.14218212150792278 0.02633873890884363 0.12381119267227375 -0.8212131348820831 1.6104886572277237 0.30579920562574725 -0.6772244882768732 -0.14830778433250874 0.33426551505910507 -0.678809078181738 0.28966291095330193 0.42780870782531505 -1.7662128016470033 0.4692816305931779 -0.7971300301200224 -0.1714522763875918 -1.3423421154217063 0.38107210273698605 -0.20396353352177105 -0.011991152261609093 -2.7334866305197063 0.6405890691795981 0.4627124275936758 -0.33353985860868623 0.18380496273189106 0.8266313457812752 1.5508317136879843 0.14649543197019793 -1.076650809552897 1.8793888305953546 0.47179086712361984 -0.09152263397884203 -0.7191456268343621 0.08941617019030526 1.0592204091445203 -0.9772088258190775 -0.19535423421332188 0.32992092092426806 -1.3289746321527962 -1.4533141928472624 -0.8307597268750563 -1.1420828176909057 0.6974900958753771 -1.7616087065113948 1.7040130983218365 -0.6747506158418316 -1.4373916736578674 1.0866577768573944 -0.25472263623769886 0.9741691799845756 -1.2399025442758125 0.03289246730156191 0.7573407543864167 0.4174432374115622 0.17880799466431452 0.6062287395347136 0.17769140237099945 -1.9152942010850458 0.916993586064971 0.09233325109684555 -0.5866019162978799 -0.26708998971255715 0.1377200100540829 0.860789245522718 -0.8908644576602199 0.8273258443847596 0.8144997062613377 0.7424278098307215 -1.4617215681924962 -0.5909495555723117 0.32672915820346976 -0.014235277816876822 0.8792105619621888 -0.5920008809574938 2.272467895646695 -0.48734307099144053 0.2829042297914962 0.04367471344087044 1.641126362435298 1.2160108717887823 0.09583393111730508 0.36435997432273703 0.6836658742695768 -0.9205296341820406 0.23825124776300388 0.6457559366296846 0.09302853756316215 2.359846252470861 -0.2308306635693888 1.4935906896321103 -0.33311330436012143 0.5350620435633431 -1.5005294515350225 1.4451371232622015 -1.4872815125573584 0.2275856500731563 1.1410630940655193 -0.33821350489361346 0.25376475634327705 1.5342345531076713 -0.6906841378549275 -1.2705553488455694 -0.45710837084087885 0.35373420897417773 1.3213365034238833 2.1386030253677464 -0.3321733106630214 0.2700657994223605 0.4015514976328204 1.2165662716407433 0.743058356537237 0.221111635874445 -0.4902372470165125 -0.23618656287160691 -0.5940899222563492 -0.5140854600282901 0.8573304696988518 1.2356443599520806 -0.06937916121547377 1.2062625779083354 0.11187050251931341 0.17908447111482995 -0.14971603368311565 -1.1835859916890634 0.1965702687090055 0.9672970736976642 1.2053550492217113 -0.32502526361686673 -0.11697289141190298 -0.2325379177696281 -0.18704923585710087 -0.6198872457127385 0.32006150824310253 0.8698735607297841 -0.42553736420299043 0.1964239180930355 0.1037430479741614 0.7256885981921996 -0.8571252702186487 0.562505992385454 0.5870590060620887 0.7301862804086612 1.348969769802691 -0.06634710991053508 1.0710830086221852 -0.4010436943245228 0.219340100711658 0.3056738890330261 -0.5984403914026206 -0.21042961791238798 -0.5390436835248474 1.1290448495947885 0.8394897335111483 0.5070398179091841 -0.07597463242637016 0.1418382532941315 -0.3938509917403434 -1.2753869755525222 -0.9649977212026248 0.46087685224027447 -1.124800694944583 0.331784681421795 1.0239295070745325 1.0278407092311441 0.6790609329124262 0.13738094456895483 -1.040783265623187 0.5545129859577871 2.026204907715116 -0.2863210388941094 0.5984407526826871 -0.3692549262917937 -0.24398024741942115 0.6322166013593782 0.6911224281472209 -0.25046147907110894 -1.2773174318286589 -0.761943516196665 -0.9822990179705872 -1.095453624336605 -0.39750700195261335 0.1990886293899016 -1.0324700386959609 -1.002341516919761 0.5649304992407023 1.6966629639721627 -1.4160065563114257 -0.7865138273116442 0.45989668348593365 1.818496669114822 -0.03767623047892471 -0.5273725648727103 -0.6043077369846553 -0.26055674369949167 0.5170900727186458 0.24239804940427323 1.0694946965796963 0.6553487604627607 1.2604119291073377 0.4725883963835187 0.17088998844406467 0.7781632931750772 -1.0371037117069868 1.238417143052275 -1.2545505098160399 0.9341662431492048 0.6080072549803147 -0.15821621578666226 -0.30286734667697507 -0.043191789174441046 1.027067693529275 0.9392803613665929 0.1483438949288594 -1.6825249179769433 0.3766716707229689 0.20505491820804422 -0.9659404462729894 -0.5727207395359478 0.34720132905782397 0.5577962940853333 -0.22916214440194463 -0.6863624324646881 2.130808610389289 0.049122126123720286 0.39130570526869934 0.24050130827205746 -1.3545476873920015 1.300053883782707 -1.2380024607101745 0.8055012831863534 0.7183173396701591 -0.5161567276719428 -1.2352837578494646 0.5735836394796193 -1.1468064550273938 0.2541954523888028 1.1432777649320385 2.2934444289603806 -2.511339424400435 -1.729758650119703 -0.6595760630218233 0.11588127094391351 -0.2839959662287366 -0.36282864314648683 -0.07619999546613887 0.19706435260048039 -0.9345298594825071 0.48874540290016605 0.9308717198358305 -0.46499160821632674 -1.0689271410618784 -2.0215377751749535 1.7624468462040572 -0.6355816736461233 -0.0486341903285633 -0.5183800180794773 -0.01707259767512293 0.4570499113336238 0.03503051394852946 0.4003668891245506 -0.507384296780606 0.5671097545520513 1.1885189296599654 -0.9075796516994972 2.560131819434614 0.7096687857332711 0.25823504345379933 0.7098479210881383 -0.6439527604283791 -0.4631014265386 -0.5656453598130834 -0.2137792240535677 0.8469033790832373 -0.36813866326603234 -0.592835792576311 -0.4811286161770685 -1.7628197584199496 -0.3976858376910804 -0.8686897230065252 0.13884123450624125 -0.29008991910065485 0.03915016509307559 -0.3892271861211674 -1.10123867776673 -0.8452015052557539 -0.13931353640200242 0.30358608211812066 -1.1811421570093303 -0.41649490789785304 -0.5529062933914939 -0.5217958048499394 0.08113028759579752 -1.0279951601022541 -0.9030270602421692 -1.444308780656583 -0.6083532707067968 1.5581601856400253 0.23988611481871303 -1.8336845600838683 0.282799571017872 -1.0425024516971277 -0.07706628680085574 -0.09166740026347295 -1.1779830150030257 -1.3058054208265604 0.07140195207907779 -0.272377373068694 -1.6618251778033144 -0.9661668841102962 0.8667236855042885 1.086080730852835 -0.2609931142644668 0.10578620588229248 -0.5183070805692666 0.36896203026871527 0.8735937562812249 0.22822250776132655 0.934206489522009 -0.49152249580264196 -0.39108598336910066 -1.0522018588972524 -0.3477861690008301 -0.6769954928897096 -0.25813816026426295 -0.1757425582160733 0.029127639858821122 -0.27264528238743385 1.3580131943238165 1.2123505610115397 0.8063852497104705 -0.6583257377169409 -0.8580897006975591 1.1470287484322512 -0.3072553104857054 0.2042690845192614 0.6182501963268037 -0.31970836953828563 -1.0050957246931176 1.5883106975330754 0.672047718571205 0.282210513317665 0.3639837951137136 -0.4833560229824901 -0.2720539941680416 0.18714013375875194 0.41883500778263805 -0.10684949100095958 0.6354741294169863 0.47698391583031996 0.4617453983606729 -0.2637827603734149 0.5748962547546285 -0.0731141648198924 0.4617234776482051 1.5673423876781505 -0.09570663001686316 -2.909511360000251 0.22123716422458456 -0.4577340692401603 1.2835490408614108 -0.36892113331780896 -0.8062582534775137 -0.38173187977377304 0.44677252846024157 0.17813206389667363 -0.05367272330550921 0.2506675711959231 1.2480367123824438 0.48691166419627235 0.8115411631876693 -0.349536856667313 -1.692804678825328 -0.5792648152938512 0.3354326254290874 0.28054590971769894 -0.019138987493505122 -0.7465752824466834 0.9031097589076987 0.8846590497926825 -0.8980401129597732 -0.15579456451628007 0.5444965786522926 0.3376938059627672 -1.208664743637061 -0.24376710275725 -0.15310324369570452 -1.29722377040973 -0.6138620366781297 -0.13216420462963643 -0.36979975097819423 -1.4038708999751748 -0.5523098240803418 0.09528674001390305 -0.4224795856941145 -0.8850146274349379 0.6888284993151033 -1.5304375182976602 -0.5947685551262478 1.3069476718667326 0.4025687461791611 -1.834010345388943 -1.7092353077745859 -0.0848753123134885 0.17904521210953736 0.25560289964727934 -0.0050960282880062975 0.0829614069731822 -0.9374520870691854 0.26103079682878844 0.7015702198756147 1.633895894189731 -1.345351447065511 -1.3294629986435424 -0.345730290147024 1.2104724082483969 1.375330072381534 -1.7480816876296925 -0.23431078709774128 -0.7814507973349027 -0.67921399063664 -0.5160673347285368 0.5951243124704305 -0.07922388606212605 -0.7043874112108987 0.2740369277143512 -1.2095644950993198 -0.4195860586235952 1.0320842595082005 1.0093257894702223 -0.5638058699350604 -0.21089327970936678 0.7622169997356544 0.6725839238545007 0.10756482406328895 1.3995668830614167 0.07639013775549212 -1.062113785470267 -1.0364602119244533 0.6136524767085239 -1.713731414225622 -0.5573512254919729 -0.5128864585965505 0.964014411401596 -0.13217435832181007 -1.1991771662524309 -0.44408999886877043 -1.8736709644062368 -0.9921146124737812 -0.512566400373811 0.6327044466408649 -1.2629032172547345 0.5983759599527106 -0.5301908553767297 -0.75718279050676 -0.598282408159047 0.623210750228714 -1.1714980737340925 1.3770953416072615 -0.7034632866647815 0.4577390097462776 -0.22245080068614662 1.411335939230203 -0.0032043821054489052 1.969725825466229 -0.8957722564611069 0.42072248024205694 -0.1731180114940449 2.176261455436652 -1.972355813436655 0.48127918277729365 1.106037101491511 -0.11020631319356902 -0.5703566766367575 -0.21574882773890317 -0.07724733049507763 1.2167769951096805 0.34180462849888715 -0.11694414909395691 0.04916594571437395 -1.0063263347699127 0.40019214731667085 0.03463890879891823 0.3340816433017102 -1.1647984334839434 -0.2603129912327229 0.8435229515290319 0.2554127471889752 -1.470774707873788 0.03586302242755774 -0.33629502268070977 0.5082967524823765
Label 5: -0.6477436776060459 -1.3008553261277058 -0.4020878635373524 -0.35682084001429193 -1.0492764513940094 -0.3328119322299979 -0.2770209313350144 0.2485801911141368 0.8018605038617576 0.005935217503996827 -0.6678268701954393 -1.6335288343860492 0.5674338057475571 0.6694512435257851 -0.07397751225958384 1.752085647188334 0.08066176729895726 0.6059633357057849 0.6619727685235631 -1.4108008944042512 -0.5056003484002278 0.27157170290600174 0.9351875220229381 -0.3941640469917661 -0.5379728930848755 -1.6156569066166504 0.15261780858430057 -0.594157407572191 -1.295406310113231 -0.28298124362007565 1.0595346374404164 -0.35788255249259726 -0.4431382566501031 -0.4034508177820829 -1.0280693090584767 -0.7131084533294195 1.0910341700862856 0.291693750155608 -0.9295869417221997 2.3398634392217477 -1.4000373521744194 -0.2782167054006388 -0.443516505049056 -2.3844984644961875 0.307706425571772 -0.7307572268849389 -0.9332598860872621 -0.162027809582851 0.30243395197272155 0.5293980743151083 0.603863926119373 0.5385462218500979 0.7740225285125008 0.04317265940298809 -1.4528930592006009 2.1358145717871766 1.0218397608507435 0.512047643989172 0.10392740093078848 -0.4910732038096699 -0.8072160713067992 -0.5990642881649738 -0.7297139289381821 2.558232136002201 -0.36398410822981064 1.7693155857956868 0.2222292921790083 -1.06153625859519 -0.7271391851474034 0.3005751809637259 -0.8839345168013729 0.7761547351770184 1.2989669670903028 0.8027003258138609 0.866018364184779 0.6018153910321016 -1.5558142640848494 0.8165926154862119 0.38441994200230306 -1.5762040296804296 -1.6556374580493558 -2.0011787721259444 1.5738638749895675 1.0966459001376312 -2.063096590527936 -1.6805715731061852 0.6001214625573874 -1.3160797911956834 0.6407634910070268 -1.222939379521435 1.1630966700329959 -0.361828087249434 0.958296260008805 -0.8703521674129898 0.1976883979516209 -0.5349780957545237 1.819124325289382 0.7172063887742333 0.23006714773608872 -1.3220696976961175 1.0176345327158594 0.12448515997920517 -0.5958536473794712 -0.849617023139544 -0.4035613065325376 1.022925070384572 0.05716042290658045 -0.515670584561175 1.031267618155725 0.9652694370543675 -1.2766817572315685 -0.07179588613380862 -0.05628989177992937 0.3358503551045632 -0.18803110110804366 0.6566469027289864 0.04869851468796611 -0.6213012677920092 0.3455944264957337 -0.08705665370975711 0.12979859249627546 0.6706760644207194 -0.8113968989690893 1.2259360015098884 -0.5562282240832941 -0.2623130934870197 0.8389962012711405 -0.08790989147466796 -0.061120688878724655 0.9283201431835665 1.0472859152628546 -0.6071617963204996 1.4264524198329809 -0.38995412677015584 -0.4509188303340888 -0.4146894481030268 0.28962694110656295 2.7209389386525706 -1.5775120041490145 0.34786076549974726 -0.3110531896946395 0.41027923861853577 0.3964139093450974 1.9769582139366875 -1.1985994233316506 -2.719399151866218 -0.5422256432625796 0.8071694999587844 -0.06963911152880312 -0.3297570337629788 -0.5200857208381052 -1.2137911747218102 -0.4352536032721029 0.05589366323874081 -0.010291899312618466 0.018759993441990253 0.7771532911610592 0.1014535149623028 0.40545153156784774 1.0295216461462768 -0.39349264027845365 1.3149472486957834 1.2045985485246373 -0.06728976505525275 -0.2601529677669715 0.5902939735674859 0.8916168079451628 -0.6301702326560659 0.09578733368404488 -0.6948975572409862 0.6451192813840102 0.5478671605751229 0.3900951125886205 0.54816788433256 -0.33711580724187795 0.3466078325259979 -0.941762683656323 0.1519052601468632 1.0157012090916815 1.688161536082255 -0.24971256337059772 -0.5135910673295068 -0.08215566823957976 -0.6110498875281268 0.2737964466878747 -0.7274158555658523 1.3591817739464838 0.17088412622463067 1.3084367660990468 -0.9500138165510036 0.7458983640829536 0.0646436591270672 0.7815949625885331 0.17320475960386486 0.32062859857184833 -1.2545520147450038 -0.3230920051272553 -0.936168375071638 -2.2500026580408856 0.14731971481890105 1.567936188529258 -0.031335487902074494 0.2701694055480296 1.4121534684294905 -1.6683454338603987 0.019969957670223387 -0.4084732941129594 -0.18335457364864216 1.4380530958928812 -0.5260038130014163 0.18259699635948762 -0.6280220211875376 1.0620092355384836 -0.4422385453143154 -0.8303474013063348 -0.05066651362199892 1.7504839434743877 0.8466965695432357 -0.488512855920018 -0.4555667065852012 2.2230206473277745 0.8547771411554997 -1.364397711984548 0.8984820571480321 -1.060573561651302 1.379424245398076 -0.7056565573052477 -0.5429398030088078 -0.7170586774179704 0.11244583137746711 -0.0009678553033149297 0.06977158794271537 1.1985947184567096 -0.4498802934926735 -0.3466458887379757 1.3487931460330422 -0.022214888543063416 -0.006465570052688526 0.2234151262813926 0.4026579234081515 -0.3090215938658755 0.3145748773627339 0.7136412687141894 0.44552363526338573 0.6256027480093137 -0.38082615863815605 0.7840708491979775 1.5825317859839747 1.1647942244690683 0.8630507107731895 1.4561824671681705 -0.3699745892733157 -1.3421320975953677 1.5473477287082031 0.8822575034033654 0.3045528023466823 -0.1684579953055876 -1.0654165423275423 -1.1650999435760674 0.08729220196011137 1.0758376850997402 0.17144173981978814 -0.4850430422378148 -0.36983106225697804 -0.8324261999412338 1.0823742872974125 -0.41376524025093203 -0.6670060508053022 -0.7329699433134378 0.0689977686899847 0.06573468021208073 -0.7320860911846335 -0.3887474718828219 -0.7860520598407422 0.3873474957796196 -0.04539629559346098 2.1561649127636593 1.0582305881865832 0.47609801291310283 0.37376322657578753 1.824584187379121 1.1736393203193427 -1.2896945370760784 0.1975910428986553 0.7210239781813323 0.08202011571056758 0.797921776223889 0.10686887374587709 -0.13228419656903578 -0.9151347618304009 1.0552165115889713 0.8038110921574046 0.022697026324882907 2.400912149483196 -0.6248651643257264 -0.21172164242038097 -1.2891146373111384 -1.6563016627524092 0.44597358289302386 0.6265436612933378 -0.11656350108723655 0.30982808962239844 0.2914341188787808 -0.5096340886622786 1.0593495628340481 1.0272233094320675 -0.13548307556223932 2.159020796535303 2.46127402630546 1.8357292815455473 0.09402818728948617 -0.6311039614983552 -0.19096070928922038 0.010829548917174553 -0.3622781568005966 -1.3769644218212773 0.1287194354407576 -0.24595635073305172 -1.7098955906081386 1.7374566496034969 0.8394612236895278 0.43190550615709156 0.8183790341961017 0.6749343276056949 0.6319751338216263 0.08468471183001391 -1.5489792603403127 -1.5731449187794473 -1.6670550345581105 -1.583234721624133 0.06645584647250746 0.7601872057099955 2.0122760180943304 -0.3519517956269072 0.28330247259386315 0.16991170021180146 0.07509527459863806 0.8618514544880431 -0.839024602946578 1.1300754400754054 0.188394509749441 0.7158844877619458 1.959159137737511 0.6909806301605101 1.391919049268173 0.15658443449509735 0.4232506710272792 -0.2573558421803247 -0.6057048291382333 1.1504842877209296 -0.6487191243329009 -0.20471593193650178 0.7423684344914097 -1.452335328424468 -0.3436232525806847 0.20858341642891065 -0.5329164186075563 0.08978408079797388 -1.3869952217657961 -3.209580869611998 0.44631629968027076 -0.5363334070145189 0.03214401652228338 1.0369315335035427 -1.1949718997153977 0.7435212158923203 -1.915626016707853 1.564213295542936 -1.235743104949865 -1.3311758826970435 0.24171104262553506 0.026749889438667837 -1.5666108916167603 0.9702429923621956 -0.11339954145285625 1.6331807697713845 0.8823175750393976 0.5328163032039815 -0.5888431022720606 -0.7150966435764056 -1.1886580313085875 -0.306583370240375 -0.4191502462401276 -0.009095428051475334 0.38972753539820265 1.174332500607052 -1.050105609132676 0.8039741305288396 0.14540228595157212 -0.04378321841483459 0.8000759483485941 -0.29580255405466815 0.9160274645255292 -0.17607575290861685 -0.3916795555344483 -0.44063299878187784 0.8927172132135641 -1.3623423169118944 0.6073423494587599 1.3214167274742612 0.3173398385254191 0.7211272399480341 0.8605397983487242 -0.8143313259323298 -0.23168147120629962 1.2392485856342375 0.6074923013217616 -1.1387149854984078 1.0277587219310806 0.05352795225449879 1.3168208821132512 -0.8122720664255187 -0.8297722595019187 -0.33417690966814384 -0.4998649024378929 -1.8015113989038036 1.9120721979575346 1.725933744745353 -1.7199908541962292 -1.2735920583252605 -0.6954540721350699 2.2507948236963227 0.9174462481414073 -2.1729212085923617 -1.4435340001148607 0.29206088089876714 -0.06077369946891492 -1.3741657024395768 0.041027994936921774 1.773669878344817 1.068188978441087 0.7532424187876045 -0.13136928266668824 -0.8215065504291579 -0.07560410598342082 -1.260988816742212 -1.1289497993400355 0.20886779175703135 -0.8312850758574778 0.9937103607739235 -0.7222071504317268 1.8463726970115215 -0.41116300235569603 -1.415813553217284 -0.655012766035927 0.1717256189602948 -0.013024637456883602 -0.34889607613763485 -2.0268664828484413 -1.104105248830609 1.1035642901603742 1.8654008084907838 -0.8206660671861747 -1.223426053514251 0.22764571310078807 0.30517266682611927 -0.3767944351163794 -1.345516978465853 -0.3412978011166232 -1.6400038066201468 -0.010716852384445918 0.7472881973365351 1.1533390271687878 1.4712952483329929 -0.6908992921711427 -0.4940376694890225 -0.1720847260218486 -0.8089568685267908 1.8485163756656735 -1.3492145247207894 -1.4139350201637293 1.069069367314104 0.7628702137321579 -0.8604814353138929 -1.6837564935674962 -0.5467493731179978 0.5258989840073329 0.34734661433402225 0.31123476951258394 1.512357155072416 0.035949548578209756 0.6023450123126014 -1.3544518857633179 1.0607243616950677 -0.8689839575842829 -0.08220124470189147 0.9592882083298432 0.2698385007952771 -1.0220679451606816 -0.37604801190329695 -0.5946079902213167 0.3670196462777351 -0.22920396506394436 -0.5698925220113046 0.6434995816014951 -0.7780374383153685 0.4287970437028837 2.2826616511360713 -1.0521133774384814 1.0371270499643244 -0.6894880034455019 1.5354951947602533 -0.5728629152059695 1.990346245678166 -0.08279910523441257 -1.5365866531658214 -0.13232897007651895 -1.6516773804445077 -0.6765152218347287 0.8746896645038483 1.5105821888754365 -0.01815977457807494 -0.8510744613735118 0.5310318606724033 -0.8087479148755815 -0.6172220205787631 0.013541163002458279 -1.0726469919762776 1.5140343320629177 -1.7925391611377846 0.9201531414074214 0.20723816182392063 1.0431065242397513 0.522105328716155 -0.016025975206558796 0.6812756641174527 1.915839856963676 1.4576460641887115 -0.2688796445102009 -0.5101277038387008 1.0317229842276017 0.591114038714269 2.076818163227327 -0.07338330474789395 0.6668474678530404 2.383323320651545 -0.9534811864557987 0.7896971979225782 1.5089095264453447 1.4008397867694709 0.6924852317119998 0.5826703119782798 0.7747515908734258 -0.12351624514154402 -0.3648123890595307 -0.122058752708328 -0.19702473654281205 -0.5892280600902668 -0.6549190112042798 0.25433750118572757 -0.28619878433968016 0.8174904294316351 -0.43241469520877707 -0.040860053710939856 -0.968988654697182 0.261622819284964 -0.4142287122705755 -0.5644043242804804 1.338633638077296 0.8666444044983783 -1.0812326950397577 0.008106146109249045 -0.44139804563398694 1.311934732230496 0.6708655734872541 0.29838113392649473 -1.2854224945104884 1.4655011538119693 0.29483736170461383 -0.04480593887316342 0.44613970019535737 -0.49292996878855405 -0.3839812268812822 0.35675115933123175 0.3156091332339776 -0.29026779483123405 -0.4828162155607287 -0.6391223999494088 -0.2270423139858041 0.28321577064158965 -0.36728345993811884 -0.7433523380353596 -1.1977756784125897 1.3978061958864145 0.0331924704714353 -0.6280903115064012 -0.9629845316466331 1.394740066279934 -0.3252831405246148 -1.8200907785969895 -0.6956354853140078 0.11290990008324972 -0.5150463241876257 -0.03683677164842547 1.2147227205584712 -0.9808084966036207 1.6475713674844323 -0.2840332385571166 0.6297643253475368 0.21842317561624136 -0.5546154475217211 -1.6075441452461845 -0.7474439428314003 1.2096828681904643 1.201305096559848 0.3366011509864673 -0.9667371975659768 -0.8335191670959549 -0.23184858657372587 1.0057746431685708 1.1799276768266842 -2.2356513506293045 0.2748819291262091 -0.10890514011758054 -0.15874197575166374 -0.14849959932557408 -1.1897034113838407 -0.3122949242439645 -0.1621633306222766 -0.0934765447992674 0.16439560784645024 -0.517255743029516 0.30583908115775665 1.2596078219813127 -1.2193846720892256 -0.04494765821897576 -0.19537175333077328 1.1182470081945217 0.10999638661971467 1.8143110870458752 1.429034010918385 -1.463745388582914 -0.17070231903096225 0.05661525685051015 1.8669902933568185 -0.41226077458856314 -0.3593762336096582 1.4890187323633726 1.2307297641564388 0.07607853069763196 -0.35641434528978716 -0.0721323050041587 -0.5500743735167127 -0.6406890462067917 -0.027347891225186004 -1.220386471266235 1.3963604906913893 -1.692876902691936 0.4074535066538703 0.3477406341299863 0.7490656538650721 -0.8872814380402791 0.2893062475163191 0.7855645888343193 0.2520126342294725 -1.0246720159949974 2.0821414665257882 -1.6545918099253993 -0.5172794043650671 0.6430002360102051 -0.9920239906403258 0.20430525514662534 -0.2703643319655683 0.9302619733618356 0.7353103925003261 -2.6238910257904817 -0.9863797342588938 -0.007018596694407298 0.47814094115101735 -1.7037005380906538 0.7744487517355682 0.7697715923849711 -2.8212387190190866 -0.5815699979144527 0.8818347614176115 -0.24778137694256666 -0.24003369831079807 -0.6369087599644049 -0.7352284750001606 -1.3954049251226035 0.6215521200383638 -0.04170992953567676 1.100805459390662 -0.1773750679548684 -0.46296594767392535 1.3517904087608854 1.7751388300817372 1.194613241928081 -0.768457062719438 1.6773785936831327 0.36413967065266356 -1.5088820636931428 -0.034104563252073505 0.4494267972696726 0.3149729416742902 -1.2753827879180337 -0.6727646080787688 -0.14888447854230683 1.1020869785504395 -1.6956666351880605 0.5923476035192639 0.8630537874422436 -1.306161263054353 -0.563809554446501 -0.09482159423031206 0.9212011839534895 1.0333450470702965 -0.12273107949496982 0.974285547203877 0.3418051709412967 -1.011703622260786 0.7016279484299082 0.4624837405326057 0.4498210761532722 0.06922193582918244 0.5046008853217178 -0.026877913324176883 -0.5383101078595456 0.4957875404226189 0.039417912266653976 -0.7166508991087758 -0.6656328445087565 1.0494092016260128 0.28234213013151294 -0.4883399193649451 0.5452349392473558 0.25572699488102857 -1.1369721705621656 -0.7279935492497618 -0.1290760942848746 -0.5966156031263782 0.1820834110471935 -0.9948236153925537 -1.1394702537554944 0.7598386661210571 0.9768926686979299 0.258507007517474 0.5846716483094749 1.440701714996345 -0.4177616207450968 -0.5633913545336005 -0.4459837721746937 0.6706307368557997 0.017576735589190054 0.9025311719164875 -0.28598227445472074 -1.5811685039543326 0.9555981492395854 0.4548833075351724 -0.03551022948422004 0.7939089145798662 1.0165216512450557 0.4269419295857278 0.9242316135214188 -0.30473174563491157 0.7145151425582721 -1.4863999737461457 -0.43807182386606175 -1.67194376732069 -0.26786981239551594 -1.269009301816715 -0.5947416953646875 -0.4985035121613172 -0.05290290604826928 1.286627983811203 0.09605805588139174 0.9725675977208038 0.6636852465449519 -0.9935627975640923 -0.0851201902074186 0.06767556058503808 -1.2786309177686426 0.3165810892072996 -0.02906787991235565 -1.0455220862801022 -0.26566978231669697 0.6070048075368469 0.8471657682777751 -0.6246730421471193 -0.7036515721623977 -0.9967333384444962 -0.3803921062480543 -0.11893121731047016 0.5345895049613215 1.3150354547546423
