Label 0: 0.390068049031991 -2.4691198828888723 0.8700698768386164 1.6481961199181752 -0.7107163592853369 -0.46124930264991093 -1.941440750001589 -1.0021646268769815 1.32868192202131 -1.1087907862407578 -1.2202177853934917 -1.8178469244456146 0.4315623747884097 -0.40895085809048565 -0.47679847706991335 -0.9403117873606002 -1.0631006278624635 0.482779849691808 0.05098730310951252 0.743920791806294 -1.6776846876225182 1.215123708015364 -0.34508435615496125 -0.4409687855727401 -0.6704689582418625 0.6043127614518339 -1.4361844911900399 -1.564255802285442 0.0936067772050151 -0.6942131501132885 -0.6049615416789166 1.5891162833479089 -0.13160099863666344 -0.4299286444918544 -0.20644746938362118 1.0174490417540354 -2.5256856889130748 0.6403168346318153 0.7943904101529038 0.7333937598568607 -0.6514360982451156 0.1126904359572282 -2.0980744565376463 0.17859922812958895 0.23981025433148662 -0.8342427311559788 -0.35537588916535034 0.38459473421134727 -0.2213851535181646 -0.8523456319517342 0.06066131092455596 -0.746718056432021 -1.0920759719282378 0.5422460870219721 0.42390995930810216 -2.486372353131619 -1.1794590608707174 1.0568607644426669 1.0754960875211257 0.35273613128078546 -0.565798202042895 -0.5985813156265575 0.056560958854167454 -0.41737712414456 -1.2741290725564283 -0.4758712387479974 -0.11144423957496698 -0.3410563878856143 0.07874006579601091 0.09184221575796825 1.1010391539540276 -1.8036962936393819 0.12175663744425946 -0.5601158134832127 -0.5839129003169077 1.522365305489589 0.9285229631863153 -0.34495708917779533 0.6406167674344141 1.5562816592537485 -1.273716993069622 1.2225573762794262 -0.19722912489486796 0.04647694705632527 0.38689907086252484 0.1706403789243045 -1.0503042429694462 1.1981167765837755 -0.7753012303557341 1.9555733436334617 0.5090762051073989 -1.2180971814733441 0.9770381577753557 1.7294936241788752 -1.93243700311612 -1.184972618037331 -1.6409842972887654 -1.5364715675934744 0.9606501047431134 0.44559399908947467 0.19990366903600704 0.13117204832418802 -1.2290942462176377 1.1540447790022617 0.1466479805152546 -1.2599027671802312 0.9268612357143249 -1.5239624868883366 -1.6220482009078272 0.841766985926515 -0.04420372669685704 0.7644145819967705 1.434571724304975 -0.1648053216694981 0.36546318428264435 0.3045568487899207 -1.7320055644297285 1.127285492828745 2.9723577092023046 0.2219415055506922 1.1468830086099697 0.5005324813870367 -1.2664858899172802 1.2246538304145398 -0.5720132493827965 0.31792549311639107 0.44983355800487684 -0.0689931930328202 2.0105138957165902 -0.02284260369314256 0.5865468846119379 1.0080452580331702 -1.3207093304567818 -0.9415089289867237 1.6366856596206418 -0.39967407350069156 0.40863684323926763 0.543218947801961 0.3512075556454867 0.3631613458839026 1.277947480002107 -1.5790161229528292 -0.79588014742208 -0.565328808134392 -0.8760434483880335 -1.1228099529686617 -0.4227240375135014 -1.7310382830357516 -0.09438627493012029 -0.44259424033194983 1.2873749936890326 -0.1509363632831416 -0.615975068318316 1.4220499686962396 0.9275002207916142 -0.5294685698753803 -1.2633857603219072 -0.9250172792592003 -0.12024209035406781 0.6939199852406613 0.22692182754648432 0.38162564638977653 0.33360233602144224 -0.9383463636122353 -0.10405961159963248 -0.3820302127771311 -0.6705142281264078 -0.7486447776996166 -0.3847089047689753 -0.4476515531957991 -0.35690708474608607 -0.44816616765723133 -0.456674117431526 1.8886663944305333 -0.6436576029519141 -1.4084573957257918 0.5077306437777493 -0.3100782859591794 -1.208215392857717 0.4813977594770312 -1.6635180293777 0.3369757228946904 -1.837484654640547 1.3201035427856163 0.6553676201762387 0.6595001904867988 -1.715921695186163 0.36813386923929614 -0.8320002173530139 1.4229608364861979 -0.46879651952286866 -0.8183360375300734 -1.9293816609069872 -1.3300518982640142 -0.2269624853993907 -0.2705145386961968 -0.5463356622473179 -1.4155043046459088 -1.1639198130246844 -0.3369157959628499 1.1250539609066155 -0.5416157354439863 1.1399476152491392 -0.18362951464513186 -0.04419051700249725 1.0871903959036775 -1.2756906266394754 -0.15793079662461557 0.21766900290961105 0.20237895584155713 0.020597818827628456 -0.3747321807024154 0.4590599762345647 2.295930291364626 0.6736431246534349 0.49738813996678755 0.5216332639368847 0.8878490455736664 -0.3210681316607599 0.12375065337451129 -0.6470855808397539 0.9162142767730469 0.04416361192573168 -0.03449011590293095 -0.9324381102387908 -0.34396340434943257 -0.42419415935428656 -1.0851671988089335 0.05309717243681411 0.25845274287182746 0.09700135694496514 0.13611853727817214 0.6071593285338195 0.4254979694634586 0.6305889540741858 0.34558380444505027 -0.14911851206451854 0.6618539508831154 0.3970606420757371 -2.01012962397704 0.6435822181330375 -1.1674830761065214 0.11303242599893741 -0.16402048299810715 -1.1038090033528025 -0.2598861228239664 0.06937451322085181 0.9478780942596747 2.6176846443687785 -1.0634385933547141 0.5185531245664191 -0.02607879647490412 -1.385327396358597 1.0579509462125527 -2.6470672464418854 0.16856328943913537 -0.5242137227752124 1.6235604482733785 0.6055211165916243 -0.96321425127294 -1.330676386386183 -0.40513190525672665 -0.9103492653665595 -0.8628160718564558 0.5733087108527645 0.3745508987699135 -0.18862039720688262 1.6395625175364241 -0.049791181622720844 0.16491077435985904 -0.26811923571004903 0.9457290909713426 -1.2034318713312746 0.3021189055405139 0.22929080673085248 -0.09527062106993439 -0.061013926728993945 -0.15620898474842151 -0.9410048784911818 -0.2575422719656192 -0.8069450924204368 -0.1497815464451133 -0.7007282624489671 -0.42790029055365647 -1.2537437409744279 -0.20130826542483304 -0.7541723521338952 -2.569541535777279 0.40432476811771456 -1.0221135690893492 -1.4609298197745502 0.5482499091095406 -0.46731053889360374 0.6836619189770972 0.7037605278832972 -0.5557977152923923 -0.9887159285256699 0.5656733768381451 0.4806137327556551 1.3279287666976578 -0.22324094007711326 -0.41278446400392804 -0.9267858232873823 -0.23375837917414544 1.1961517018550254 0.8880242725497023 -0.8433746929929326 -1.1012359936831644 0.524965581505529 -0.27606952696333065 -0.8904205656024974 -1.070429815287646 -0.5746534612802401 0.06162132384203539 0.856130168900074 0.9256164963873692 1.604081682511238 0.1616903405181445 0.47728012282656845 -0.10558833212596436 0.9256169202945687 -1.249923358926571 -0.022514750592132413 -0.04788450276575572 -0.7408747447864052 -0.38787520094337236 -0.45941041242764635 0.029028760474484362 0.5075854252848265 1.4672604408955605 1.2738437230087414 0.4243409614150667 -0.7133394697779513 0.31091984201617473 -0.6781638506328543 -0.6780617554529341 -0.4275086344401877 -0.11755646473013201 -0.3990087361652258 0.7891792522847404 -0.293465779182466 -0.17289394501090777 1.3206572005480934 -0.035984959193227195 -0.08454669815000887 0.6190199682360469 0.6007890066729257 -0.8438483044147511 0.4880288203325635 -0.8676708009288046 -1.0018858554133805 -0.5117798920461978 0.03165587710111234 0.12087435368868243 -0.6018140318450041 -0.6635599141853571 -0.27975235575562124 -0.3889542861603041 0.41085029394622147 1.3143680240343272 -0.8794202848510725 0.24628604078298527 1.7944549008741455 0.6632218887512901 1.4848226943068834 0.7546206306094979 0.6911992785220157 -0.9304096972936483 0.49808356451132296 -0.7643924453193541 0.39482039966916327 -0.43570411589644487 2.2795803237317815 0.15148995471830834 1.097318948654002 0.6562349318089435 -1.2229183309770346 0.12047089143444811 -2.1824314776820266 -1.3766909034459018 -1.803732900999684 0.5921281267857521 0.4796029325773055 1.2224522622531853 -1.6579841823049604 -0.2539703009152481 -0.43171294371328867 1.1270793539562052 1.2658671306993834 0.06983642882030193 0.3748931055730574 0.33679764791188715 -0.667817916812501 1.106178182241491 0.7188534250646732 -0.3309004282528848 -0.5940181177879622 1.1558251086101106 0.07212081348510584 0.9641232987791915 0.18536510276480903 -0.10328530634749347 1.1753725801208468 1.422803148201717 -0.7545361582434236 0.14391187890755391 -0.0870220581501147 0.5133178396659442 -0.30531583949037927 -0.8284114031892603 -1.122497777454941 -0.6832887297251427 0.6305001765352289 1.2143956993963683 -0.4553092090787679 0.9617850839099031 -0.5850413395064102 -0.07408824076338699 -1.4170951131041323 1.2991687236540852 -0.3617307573537253 -0.4921831134475597 -1.5198763935397532 -1.276480030489504 -0.39720132420550364 0.8307162134692628 0.5398765628592687 -0.05563927194497892 -0.4915614918604056 -0.10383526360114195 -0.1551039871608868 -0.8743966233432738 0.07238570269907728 -0.9207004771985358 -2.000038291722923 -1.0429360038034696 0.1860828538999329 0.17202974381851746 -1.0694943087119488 1.1716992899204552 -0.3031659174253763 -0.38964003614047005 1.395536492546613 0.849152674968385 1.0670700171569052 0.555798084064542 -0.13068562981919518 0.6816245045969271 0.8462779949118596 0.9567595743594244 1.5231889448541889 0.010326161469255059 -0.07788341783413182 -0.010416757041189079 1.2848494374391044 1.1210536391356472 0.481969846932648 0.17075399324177382 1.1168174189674667 -0.3418874218275963 1.3624653562811064 -2.6665370437531846 -1.7062549829740634 0.09803222490020741 -1.1846517497763658 1.4566540416605755 -0.49658814921817684 -0.3137831567232448 -1.414672431499465 -1.5492437242923245 0.0352575900692089 0.4675022371798582 -1.6405615292142717 -0.8352585673019075 -0.29089789005627537 -0.8781799685387265 -0.24733105132263378 -1.1396498238211363 -0.7183241182076894 0.9980885845305172 -1.4927391294800758 1.2152791794629383 -0.5763713731264213 0.4868478801148645 -0.28608891665482417 -0.2971041366020759 -0.06462565297804918 0.6374051418451029 -0.12838349570354785 -1.0918708502975498 -1.4476941883857228 0.3757359957158052 0.12520553344310686 -2.4140178669170806 1.3014588338380375 0.4619544521030099 -0.1306791534007409 2.719941160982908 -0.892104820559449 0.4488173324292479 1.0014708032637274 -0.40923095036535106 -0.12470180811780888 0.6003296563556072 0.7240535590873761 -0.6077208298415898 -0.2746574758447308 0.3211838247623931 -0.6233431108083548 -0.37796164851829656 0.41048675504039384 0.17653662303434658 -0.39171817742831655 1.913648141194898 0.42182783397978313 1.819708225479732 -2.1039612629235402 -0.7435387572636374 -0.4811328345495057 0.5540949822873303 -1.0375570089180033 0.5483357035370764 -0.26406894735064157 -0.04917684961256233 1.406522794775195 0.811160288940316 -1.5128473492010117 -0.33112100058268473 -0.940950533272904 -0.15140016652937807 0.6598372360240423 -0.3674223502918929 0.11219101582004422 0.6362012874906248 -0.8777535111261101 1.685666644561594 0.06659334680889717 0.7540872689578738 -0.5836167921376778 -1.114423850025119 0.18567511269623072 0.7530389845242139 -0.5857298299019713 0.4285315183621328 0.21865368637676005 -0.22005488388715366 -0.18343723759614808 -0.3468813352245732 -0.20123668222646 0.8232618223432976 0.5225509514563692 -1.8579750871066534 0.2518342605099974 -0.8039133449157316 0.1744909247781699 0.23342184148154732 -0.4342805631758318 1.5190834662971007 -0.0839862171874058 -0.11190702756912732 -0.7658327126920133 -0.8508147484598457 1.3713908670732047 0.17432746775808616 -0.2382578072554415 -0.8405228401304484 0.05114549267437596 1.8410327384391092 -0.42342450935687814 0.48213074669216216 0.641550603981073 0.6328139277292525 1.4749921941010582 -0.928486100231389 -1.0491707796771002 0.13649869342900223 1.0837325713494594 0.2523725141820386 0.7032488091778384 0.14134625423688935 0.5909325549762966 -0.13028346432181187 -0.029562728646072477 -0.5721956321563164 -0.21049163211324068 0.9313821057460814 0.4677470565333463 -0.40076768906979027 -1.4940701178357354 -0.31249016988005335 -1.0165119165939627 -0.577603988417002 0.7524477042266952 -1.073473136472895 -0.16573178324417465 1.4102844534590826 -0.6578327696309533 0.8283647648860338 1.0912511596673269 1.915584884235048 -0.22505433842884365 -0.7635542682414795 0.6599993740930452 0.028960482566164472 -0.3642244197433693 -1.5857146620700633 -0.20794811985692116 -1.2110813764395625 -0.6982418037669685 0.9969747339243199 -0.024911695364853922 -0.25255709915733954 -0.8262918843478921 -0.20358371020390303 0.11868041125634184 -0.6103046392899913 0.06896173672750304 0.003805364774375312 1.358126333380696 -0.14155408097468425 1.3968863993230674 0.2796105096268664 -0.21546372114794554 1.3607649446345087 -1.3512110938852362 1.0867944830477896 0.36011735479894097 0.5886180844906194 -0.3072820848470988 0.5251302569333033 -1.219941068970994 1.2475407121157875 0.7209864317310511 -0.676620626599358 -0.9391535940866163 -0.5530167225138345 0.5144661627379296 0.4240303795257799 -0.41152323326454177 0.009972642579484436 -1.6593853505481597 -0.488158556313531 1.0802092413544135 -1.884338533130214 1.0886270779354128 -2.187937802278069 0.8153505706074445 -1.1524207113606775 0.49000883617935065 1.1253393748616507 -0.15144503352785194 -0.2212265805151489 0.29231736424000165 0.6677437743342951 0.9570359878186026 -0.23505674843823393 2.5239404788672015 0.1600906792451753 2.5173216188623284 -0.8539634679743461 1.419211079273596 -0.1873332562312015 1.7582285967240359 -0.40865869861288534 -0.6130208179455378 0.8749592209108088 -0.11346264631396327 0.24333057515331447 0.818212364207153 -0.4661233409452593 -1.4364883215568416 0.02425687164044887 0.07310920940768237 0.2405128841899067 1.6116921066079883 0.3972831644028832 0.7334128064915595 -1.4540427391039417 -0.7902700819028384 0.12095340137148758 0.7670987850736781 -0.14256130126398397 0.3118224106331397 1.3408557973670507 0.7993838999148452 0.18938312779016203 -0.5965337971062296 -1.1195223188443053 -0.3505433576484404 1.8831374202623277 0.18322366857740513 0.8785148408831011 1.7592859626993531 -0.30687568180132924 -0.4796323689144303 -0.2810696657399484 -0.639506276461295 -0.48455511361672843 0.8970209269908361 -0.7556019044637369 0.058791857495001605 -0.11600269775885265 1.612172263011485 0.11998491584198748 0.7656832649297632 -0.4743717320737711 0.493183689215161 0.22629550983874996 -1.4396603751518742 -0.060159424998185 0.3248593240744874 -1.4746349222363955 0.782065322961421 0.5264506558784242 0.9911861349888166 -1.0603102354983334 -0.43256664768706804 -0.21104484331330808 -1.8652473496029827 -0.9444329552824003 0.8469884509958491 1.109827284525801 -1.4366430022194758 2.966803023820152 -0.6691630097955316 0.0342033851492764 0.05679967909894094 -1.0020538114293793 2.0354982778483786 2.1930687404564444 -0.6458849739537784 -0.0033374122483385265 -0.7519014287585436 0.6762543436464317 0.37491272527689157 0.7057174261564091 0.8267948367734288 0.3291288887321775 -0.4167850691035002 -0.5099610883067366 0.32461454234626497 -0.2704875017912065 -0.1566913841573964 0.41874378924506117 0.27423333589112664 -0.5023341345132052 0.6194944362434158 1.8389786070672904 -1.091077850796368 0.7068653358587899 -0.18362426577483396 -0.5369236177984538 -0.3438944140420105 1.6778202405581253 1.0254825916737926 1.2568718129821754 -0.26531851676849416 1.386530929971896 -1.2093582086065353 -0.34558993717259623 2.3786422794268707 2.0234894503632073 0.01222104480997472 -2.0238550442416674 0.9726593865894743 -0.0070743625855343864 0.18912657483165715 0.5839344663474845 -3.2801421641273385 2.1887817437357384 -1.244046351375783 0.7946888739418039 -1.7269918171823186 0.6804864305046713 0.21461434530797804 0.1260850571537354 0.4992443965443244 0.24188326498362256 0.8237844379882815 0.2104056010924691 -0.13917205249659292 -0.16179210037963512 -0.9158359721419814 -0.06567607950354858 -0.8223154420565169
Label 1: 1.5883779192074403 0.29877632888706207 1.1996614468866595 0.6209484473990643 -1.139171219279443 -0.752260951725306 1.1388793093302065 0.4107542220132691 -1.4743236537929396 0.9075425926675079 0.024996428848892686 1.15171903654336 -0.7698345061290004 1.6866378175747543 0.5405032119927892 0.1598500782409219 1.104685655722372 -1.6735761746918756 1.454173091979072 0.3019282990413522 1.2926109883184091 -0.2921824582578171 -0.7210996187355442 -0.17315967104479052 0.6282299651575817 -0.6157601874975883 -0.747903687114394 1.4546698699427891 0.9388714098431524 0.17499263937145568 -0.4987692053800476 -1.2862985742399287 0.7964896494836711 -0.8586868249951167 0.16930763712501404 -0.10197462031687483 -0.5338751118942473 -1.5761708514480026 0.5376809713589726 -1.8686960682279394 0.5791057228992303 -2.069295745424323 1.5408938024893515 0.5778719185597609 0.6730313137978066 -0.911123938540184 -1.2421853437385166 -0.7853070076814892 0.8014465198763951 -1.0690994273624472 1.040150681758448 0.9981323797118806 0.10212317886053261 -0.08735518473394951 -0.7060754692990736 -0.039784511874725134 -0.6255395189979939 1.1365245332446092 0.7927238087438602 -0.36552469643453694 0.4626821738278714 -2.0144150411760426 -1.8594948723310731 0.5013620297713648 1.4212457560120386 -0.7116326128881646 0.46520080163909383 0.653405256534833 -1.205284692530334 0.8405716611953938 -0.9321451358750436 1.6989032301321454 -0.8933361370329739 -1.192879841274122 0.4070975299008933 -1.0846766785471171 -1.1414424869947004 -0.5920936127954314 0.8727380333210795 0.01335403221800939 0.3902425521986579 0.06985899314352978 0.35981007418571315 -0.11504457272971455 0.9002919875679022 -1.9632757265685958 1.1481891842506213 -0.756262395394505 0.30075519832032305 -0.8488205461371363 -0.7594507227395277 0.38516842002758367 -0.09518765424064544 -0.8321204596745715 -1.4768640573009957 0.6789056751491641 -0.9570304245964217 0.6767362121346094 -1.2070032129041772 -0.711656925148831 -0.6876741020400026 -0.7780611305742159 -0.03735007025278487 -0.6746042722987636 1.3204794100164652 -0.0076099934264656326 0.16809736055483834 0.9007339480413533 -0.46463826581685785 -1.236920715984107 -1.2460709175042737 0.6122173378207523 -0.689532073860217 0.6909897432135164 0.7896268466592709 0.6422320564243488 -0.11736489966326286 -0.4456584835459113 -0.7513028731138263 0.5164937312936639 0.013822045844354081 0.7836958148262801 -0.28972062201813253 0.29000001261761926 0.21601083093066886 0.07104017231085959 0.4840989239705946 1.2396416626955389 0.5598052428948677 -0.35677762154662424 0.7195915159266922 -0.5921688880987324 0.9310398068478722 0.3762876162942286 0.0020138680743412712 -1.5641855645105174 2.0183308904830297 0.9945007663022913 -2.1065035537586665 0.05321422721235888 -0.018212077002304542 -0.9056371651426908 0.6662616720387343 -1.582959823118729 1.5145462503230167 1.328341199087922 0.19081337877125698 -0.179479084945892 0.8383954306106063 0.11832063995744868 -0.39905344352647987 -2.7153530413717855 -0.5341719025387114 -0.6958626840736947 -0.32274508648466654 -0.3202493924782431 -1.2353719779541545 0.045793703306226105 -0.04710093813512155 0.7040501334774978 0.36773871774690764 -1.0017390070040533 0.12744339112845154 0.6580951463839914 0.12541351506489057 0.4756467179880726 -0.24348506828830677 -0.3324100903484417 -1.0645964257366953 -1.8111935145664817 1.102779026674196 0.47018431396114024 1.6818915299597386 1.0822676994846883 -1.2294612974975045 -1.544649707949889 1.6597618542906656 0.1756838680709658 0.666878501372814 0.2972746367688019 0.8799337108161971 -1.4963765556298187 -0.04230399766652197 0.6736599029843477 -0.6134212692558985 0.026706708158807324 1.1215281971487894 -0.10083932121920994 -0.31559263442002145 -0.06679542608885064 0.1303478149424932 -1.1854360584197576 -0.9473147913980073 -0.4663633019846691 0.6827993552253531 -0.34534939673703297 -1.6357701337958617 1.429017853430316 1.098376586227615 1.602726448048321 0.15683891878247155 1.2150069077835322 -0.4207788908989513 1.6854240059694805 -1.412886703213266 -0.3898059966786534 0.17492555130175508 -0.7996544965013783 -0.6335812765446746 -0.294733657551518 -0.6693515155499402 -0.19440500616059714 -0.055436850100793064 -1.0584594692009373 1.2819367989493637 1.202898030727521 0.5031702736789502 -0.9927355846673493 -1.204545388275255 1.2174408704968183 -2.3611339197838546 -1.5118756595416294 -0.17904294311504107 -0.667974683808252 -0.5372542705188629 -0.6632602581029184 1.163762552598625 0.029694581955759577 -0.37816239464252005 -0.056981047878607846 0.7057022703106121 -0.8120330403154465 0.05270585090639544 -0.17702858459681575 -1.5368752816625688 -0.8637796514049486 0.19254062759136434 0.35147398752787024 -0.12486231050648866 0.028715527730354944 0.5092239288660756 0.4531525098424031 -0.786337327514395 -1.4473631738873478 0.3148776607869047 1.041803551091456 0.20010656714109643 0.372529273199726 -0.10730873977236204 -0.5456785222730581 1.3393205872264566 0.32821182514069025 -0.38888113947868835 -2.164107550434525 0.6582272597622683 0.42179237712662043 0.3939294204447941 1.1447245183340777 -1.9485804385222574 0.07251464957278468 -1.5587828675177173 4.209605942866786e-05 -0.388344759134177 -0.2735006866453444 0.02065285136356873 0.29294942416608677 -0.8651511803601112 -0.7358477849597425 -0.8501615585369069 -0.42338496128513237 0.3062379584902197 -0.5946458610071625 1.0929590476551718 -1.4875479175645245 0.7418276865987214 -1.351649203250102 3.507426109966411 -0.33119329149766896 0.514251341960896 -0.4325674792043201 0.08796455302542011 0.9871167617788155 0.8494935660668096 0.08001511954796948 -0.584653670541751 0.2561210565174015 1.6045174032217695 0.23615406297402286 -0.7700387173677101 0.7754594351667642 0.4123369917180917 -0.20910068422732886 1.1675321951931037 0.5653653434686945 0.5174443349827459 0.0923925971083471 0.8670255042754527 0.6886647534750148 -0.5018481575882373 -0.7198739319293554 -1.2447435305959902 -0.9210161365811957 -0.0019088462288031575 0.7450867845041547 1.391939797200814 -1.261451092057119 -0.7193656010965108 0.6120581828392598 1.2662978044807327 -0.5341894539317539 1.1018100900274614 -0.5851807530548979 2.113316918228813 -1.0435404082696516 1.8056502432162371 1.1044477698269595 0.2761445253290802 -1.5789692800300175 -0.1250791005179528 -1.1785695135888912 0.5593080120233345 -1.0746470795701253 1.7388276029817364 0.7890668270759544 1.4998922692057028 -0.9527283003438467 -0.4412888464919348 -0.3811884236196216 -0.5272627144215059 -0.10858274437802605 0.5160887494390477 -1.075432410347186 1.5064897483548452 -1.113704531440254 -0.07150542382024334 1.6107914351741741 -1.1725044186937426 0.540563736879931 -0.8720500373934829 -0.060151215408729364 0.9086575368730972 -0.025951173773867603 -0.4854550509847948 2.388708499471217 1.047749837841854 2.153562677844164 0.05541048930705133 -2.6060970313140546 0.4427029350594917 0.5337625957179702 1.265109442580662 0.9505890038042518 -1.1506262158852234 0.3130903367350048 0.20483089886559083 -1.1906647340045222 -0.05539380455626945 -0.1362564941580883 -1.3835770737250455 -1.0910888362930806 -1.2838658837273207 -0.17830738321446432 -0.6416413858337903 0.5527180158862479 2.0477100476159964 1.1382384923055626 0.06303662179277869 1.1727025043998447 0.6234895540982219 1.3123953669882842 0.8667103158409105 -1.70864729276516 0.39697415822606424 -0.15203010237013445 -1.2855978659002265 0.25810186278528113 -0.9685021883019144 -0.46874844551839095 0.7952599115673588 0.9241613921676921 0.533688870153406 0.7964082084724085 0.613488652999765 -0.5131272260953341 -0.8701727202913337 -0.3480392236438369 -0.27212930600593044 1.6550082076961428 -0.9461639386988101 0.6765827077225116 1.186369183703238 -0.9436769153087332 -0.48944200533379784 -0.45049695556610975 -0.5560924370736064 0.9667016606710439 -0.45858489645549977 0.37922412925090804 -1.450401813281949 -0.4852358995319633 -0.5840074048172189 -0.14215324054280862 -1.5781312266154326 -1.2254066034634874 -0.5405742959992442 0.9379724508016483 0.8630119313131652 0.7917499241294438 -0.08938132359259796 0.5773074168096507 -1.7071200252804726 -1.2512024383237337 -0.6977843166207703 0.3055418491702821 -1.659688228421329 0.650040391713701 0.6381160689635049 -0.6515138629304755 -0.5410482751715046 0.7902496570377423 -0.8103455230548549 2.0079362403905066 0.13208532256853092 -1.3798938115645243 -0.4950304830676558 -0.9766840074055916 -0.1519113644156082 0.034813745371332694 0.29572873819274553 -0.6731309235878348 0.11220045585189065 -0.35637096112187183 1.0157518670122914 2.2672041519838797 -0.26396005522656274 0.651607623549866 -1.0056133367035252 0.4857336765214403 -1.5793173804973666 -2.2579309695507686 -0.19193338872852048 1.4851936728996158 -0.36043895129705217 1.3287306634604654 -0.22984569267084679 -2.366024656942352 1.0448153432386427 2.1407074659422882 -1.094258541281409 -0.9557408581392505 -0.4903539221211398 -1.0692916613519117 1.8147524371104868 0.8012395026679183 -0.7619936354989286 -2.291079636793174 0.9444832643576855 -1.5300142550982407 0.37465291260831673 -1.0361295575671574 -1.2660530155654244 -0.21477700990980453 1.963874928376163 -0.8265545854595469 -0.053533407843263714 -0.6923196085922197 -0.18190970694148156 -0.7535148598444746 -1.5084427246359353 -0.32448565430056087 0.4189864682340254 0.1656873337520826 -0.37517944096172434 -0.4156504490694375 -0.13925381914264906 0.1677946526928927 0.7597907691823377 1.4964271111141312 -0.07131498386445974 -0.2818585751232483 -0.0048744318584929 -0.7423775575875292 -0.5364629200812585 -0.4065779767282421 0.7820157976566287 -1.1383277111176242 1.0272406157726337 -2.3973150987058567 0.6511466627909386 1.4126826286011898 2.013009113271774 -0.5985533227929307 -0.008668257898764548 -0.0581428588658223 0.1073392218134368 1.5242430949526837 0.6565989708918323 -1.6385570131391614 0.3271780250311903 1.3394472408502993 -2.0829145162651996 -2.108953806487934 1.6356935826306387 0.8607190894906648 -1.1746699537447516 0.4850514363495846 1.8745407031375185 -1.440605615404511 0.06068418083587526 -0.4569090668573274 0.3624025691181323 0.44180450204123084 -0.669024669695424 -0.1431286890109882 -0.9089340787383982 0.021034931833440962 -0.9381506815983093 0.20401639344944844 -0.3972597230456181 0.7019424798014987 -0.23828733095124158 0.38337277549423965 -1.1049805038300324 -0.03538489803743238 -0.8396582198429066 -0.35100958438919383 -0.8353913692359608 0.5947044737656355 -0.3620012460186046 -1.5889785237785492 -0.9404241995540545 1.2985348295160202 -2.100344853996821 -0.4598025711364073 0.07342874753078693 -1.0980884012052072 1.0960756147394053 -0.6146442188124006 -2.0927398578238936 -0.7901079592130329 -1.0975680227937012 1.502249568804277 1.4910012563451782 -0.2658564687639964 1.4212160280877413 -0.861573260567071 -0.46949011342583774 0.6788947310111244 -0.09473890904477855 -1.0963291978369545 1.4830648573244987 0.3473806352960488 0.9500545564955988 0.78691587184666 0.17051667696788037 0.41877870990226357 -0.3840697740658774 0.23397306503644838 -0.22892852281280454 -0.3558938314714147 -0.09787325547408894 -0.3149287735238689 1.2434042482017635 0.5147888710074635 -0.7940933311147284 -0.28317356947060385 -0.07628825597219802 -1.7437449624555543 -0.8290127239723342 -0.43235708977383097 -0.8917413696483814 -1.0051252822410186 0.8146416344558896 0.8497669469465213 -0.17454900693820116 -0.5428634475751645 0.4465386963970875 -0.4668415690612691 0.785593775546849 0.2370567247661165 0.8417351133095149 -0.7760315375397482 -1.8394235628914921 1.4047045047550941 0.9063804252662871 0.2750304653857288 -0.7339255871911413 -0.08659796581413448 -1.6853632226234432 -1.9790210638407635 -1.7967564441322714 0.8377140477327855 2.7627180210646554 0.28329049974148174 1.1707330938301095 1.3087494737325711 0.8697616159719397 1.1303169952632275 0.2554276970867764 1.4582071558427772 -1.0783448589218205 -1.1780810942025837 1.69196504890391 0.8965123013688999 0.1518317754253946 -1.1443426907511987 0.8556825414796277 0.04925220233808403 0.7214858512402665 0.6848504040120527 -0.9609243655890727 -1.7763786284613743 0.18125096431243856 1.6281325082125233 0.14305606156872216 -1.7516427264012988 1.7254493583011201 -2.2106103315455 2.5904872326517774 -0.5233476869852094 0.7092567266783045 0.5686611568886799 0.2992754810112971 -0.31837562617250914 0.8233160857888482 -1.340343782685755 -0.021128712038534215 0.05552103568008636 1.0598755952880206 -0.922729692052038 1.458485641677987 -0.8333928989751398 0.3968759028274159 1.60427343197094 -2.438784434361127 0.6834109770042704 1.3453289150899097 -0.7602343619497147 0.4945283896646736 0.5051581433294499 -0.6683449830726357 -2.0548755504996272 1.5818386870170895 -0.0050585172576688145 -0.21589810445746782 0.6778770053253099 0.5962760976534619 -0.4439203332573355 0.2604900385433673 -1.6182840403965986 -0.5024846976716425 0.010403256315829723 0.14997932517887402 -0.4200631361981709 0.4085068994950172 -1.0095874520335393 -1.5396594170401128 -0.43382761276584475 0.5027188627033483 0.6288142274049333 -0.34637655727806943 2.6674082903760317 0.23298095102091562 0.9292059757560396 -1.4820089383511414 -1.106824019230797 0.7701098993611911 -0.5570425011399989 0.875996721050697 2.2032347775640573 0.9314138250163132 -0.8791431499769381 -1.020364954084512 2.050231530105232 0.44101027446230345 0.520512824293219 -2.6356429863713453 0.09779191238828627 1.3997431588208415 -1.7622458011172526 -0.701904623965542 0.12414777701904536 0.7222373264058667 0.5518432533534666 -0.06377244471146404 0.29597151291938223 -0.9404124166450022 -1.129062106794314 -0.05815850367321649 0.360291725293142 1.5281954703112517 -0.41906965983655436 1.030750119592236 0.5290822510598322 -0.1325185425338822 -1.3409450487373988 0.5284698644906503 0.30361256853802376 1.5982456036922257 0.7188720782442902 1.318847896489555 2.1409868624050006 0.6158103284737972 -0.3873634995834788 0.6632830087660357 -0.7859996814551765 0.3851350017642929 -1.4587336741653087 0.7116296146807284 0.03967427069131302 1.034023218992631 -0.6309201772758373 -0.11493357444872994 -0.10542698915030842 -1.7852345364564697 -0.06537120157772307 -0.749512482112194 -0.3776697935415479 -0.6478087440091098 0.8004814751169406 -1.2231036089070637 1.6578729589288483 0.8473864888214815 0.3657357814131608 -0.779909442811193 -0.19782758685503912 1.3492843586644552 1.4637285781317733 -2.178055061534185 -1.6568524954848498 -3.2024318036868604 -2.0887281573515986 2.1397352869731647 1.5251833108330863 0.6218160305739332 -1.0427285943988913 0.21334146397179707 1.8467707827133433 -0.061027050006639876 -1.107276160065703 -0.8953002949685112 0.08292775334331844 -0.6703086536609808 0.48004137830843496 1.3281194235486524 -0.2680387408941793 0.6766563145943214 -0.32534983775483545 -0.3810472169964341 -0.16056377642057207 1.297472176853929 0.2528840301125293 0.4351017967284531 -0.3994781195219325 0.7107647854831278 0.4684339596551476 0.5789293404119754 0.612213534914629 0.19009402114319007 1.7848371918231423 0.2592637647493942 -0.4012754001242544 -0.3480269119766725 0.8485996750643903 -0.14332539181228884 1.0132696766163103 -0.1761369705672839 0.6400260070911505 1.1714722081701596 -0.346875557302309 -0.7551993428534977 -0.7911094396230245 1.394550727120145 -0.23348630212215885 -0.1786627433029037 0.7430741286922496 -1.9201553167994192 -0.9227589429837216 0.08940248284320312 -0.48434503026469444 -0.18141867707964374 0.5598410205365495 -0.31444357372867726 -0.9556180841462877 -0.3241263239596074
Label 2: -1.439003461712213 0.7232986055065155 1.332372389219117 -0.04232558353969834 0.014326712322294917 -0.26031084918008646 0.02957657958971796 -0.09109386146654677 -2.6152705045638065 0.6525027822363307 1.5803313084002877 0.04842824081441373 -1.152233697264976 -1.622106750280957 -1.10408573778145 -0.5148535367238919 0.1138730706060044 0.8405972529365082 2.508323010321629 -0.5032487430624685 -0.39909629570350535 -0.25268363495508234 0.21111321810514766 0.09122419391305232 0.01508870839415021 1.702913005716625 0.4930031041146308 1.2139346718208783 -0.15417927054984717 -1.530569731752573 -1.5639720380187474 0.1784033877390746 1.0214434717884722 0.24685231269822244 -1.3170223470878413 -0.9784173799264371 -1.9634567980250386 -0.11432031094643677 -0.1908303151233552 -0.8585296049916403 1.456930450715211 -1.0529849906539415 -0.8752981474161554 1.128083834459068 -0.46562840964100094 0.47239749216921917 -0.2516303693667702 0.8713349744230614 0.9207282817589045 -1.1002315574400299 -0.9498119996156162 -0.8446202488689504 1.0322732256761074 0.664880133322905 0.2626528188909264 -1.0193313183707549 -1.140265935160706 -0.9640392753426933 -0.28864291889903365 1.09749331195409 -0.7284805286398931 -0.949568198235272 -0.18952428873909236 0.4366951985658704 -0.3679969413660233 1.271209332763628 -1.7841677105844176 -0.6145330390178284 1.2766648547051285 -0.3199542525126316 -0.25532236106628425 -0.012802629360592732 -0.5229022192678988 0.15982637746602607 1.452369892287689 0.5953329769763155 -0.39887170805114164 0.44939781346794166 0.3011003082283585 0.39214279959772047 0.23625186698473488 -0.05887343878078063 -0.01959831533451487 -0.14663580795256995 -1.7664040523057838 -0.9657934761410306 -0.8461613581152082 0.8914994984390409 2.147002682595738 -0.5333295024672082 0.41060994715090177 -0.6255974280942247 0.23718987507493822 1.6241455520909744 1.7540665147819636 0.3958693152373209 -1.4885790474221878 1.3240980848821926 0.3201270740346225 -0.5141567980560569 -0.05586392324827692 -0.6989522708592639 0.3291666409426751 -0.8576625472339287 0.5491103400787757 -0.6588888274483158 -0.6911060954769455 1.7290845588957144 1.187462026176471 1.2207421382459334 0.5239482799749534 0.015322458268442926 -0.49122777956092367 0.09463535542673514 -1.2402883454242855 -1.5152775364600681 -0.1779734271633301 0.9150777679797119 1.6030354439886207 1.119044587868695 0.23464080331538223 0.45694400126506873 -0.15167647789099686 -1.9340688090790885 0.9739383829658192 0.9745617306900716 -1.4552542836970048 0.5659446996062627 1.3726203710005733 -0.5736203304397041 1.1369203677749897 0.05307680118732331 -0.5865676633333041 0.46945686625230204 -1.954238812960529 0.02093133312201667 -1.6075293706747429 -0.40121807624997247 -0.1924781527142513 -0.053939520652001034 -0.4882347536342394 -1.475745109712436 -1.0448424380041332 -0.025650762252298648 -0.7192309595209788 -1.0006628994813949 -0.28712719229841077 2.0700246304987884 1.274191939325567 0.4748205812849317 1.2961076520754524 0.7341010485599654 0.3309522790061622 -0.16925524438889838 0.5315442049443686 0.23161407363838127 -0.05584171309649594 0.34321846474601797 0.7809086705841406 -1.7122384497800196 -0.4858415951508793 -0.029534484326227885 -0.23980563950730202 -0.9833831672708373 -0.07791440224604353 -0.36810188144016315 0.16485277180867947 -1.0925290173184559 0.0796613106811668 1.5047635840374594 -0.0583002696071997 -0.03071040048692802 -0.40493314447805845 0.259622635016075 0.24815586845508547 -1.9364968051488116 0.10545211558118983 1.0338450149343434 -1.1071749780761881 -0.6319813507586517 1.207434619085931 -0.12679170646244903 0.05719727746343155 0.02331803078397652 -0.32274368123290276 0.3672761697174729 0.8908504839548107 -0.8303021287081082 1.1062572694217192 0.22951027309539412 -0.9650428995841427 -0.5063162627552421 0.01992864513506193 -0.14570626016048865 -0.6120147545712623 -0.7991097126800132 -1.0903891435722843 -0.7597443716904495 0.15722610352234298 -0.04215030362248147 -0.147445301041029 0.009649556763949022 -0.5664557690714358 1.4732000120135358 1.2345881349485859 -0.1678481036687393 -1.2199402712736396 0.7557100673605162 -0.057765291895183216 -1.232967617503209 -0.6468167166310659 -1.2339489987815857 0.5732606960061016 0.18156808420444143 -0.9663517698986135 -1.0899143304416539 -0.4559379980813633 -0.8721045919335889 0.34764252664029743 -0.79819761841486 -0.25714303421231854 -0.4693198105472785 0.7446758941672382 -1.6061273769928939 0.517302559283628 0.25078962547056677 1.1323037453389941 0.29654706341322795 0.792728078706615 0.8786023827896132 -0.4600822369074587 0.639405134384288 0.07004811171267972 -0.415545844309512 1.1798763915634112 0.9410566774030708 -0.41836886378223287 0.9959104136313257 0.15899535057082081 -0.5130618403265413 -0.41149718494161713 1.8622765656237397 -0.06774910722525138 1.0313976464938979 0.6805584281927396 -0.5456119997842026 -0.44451916871331315 -2.1850123855499475 -0.98974098692647 0.5010227300308201 -0.4957449781776631 -0.6258652917193044 0.5761219889089544 0.7069850070762174 -3.4634647994911947 -0.8750273456447688 -1.1451954148165653 0.8898116377542787 -0.007590666215617981 0.277808427318824 0.12155381192752873 -0.7147362469893471 -0.15651353089511644 0.6617807340043933 -1.7131873292984383 0.3114466825534722 0.46484458312501603 0.2881155156665398 -0.7174535418787235 -0.33794474717919 0.09636599569944167 0.16583656910750652 -0.9614462928944995 0.49477931520089646 -0.10980448485562326 0.21687957924001444 1.4866607854954395 -1.1022112966410011 -1.5112565467012145 -0.526465202011461 0.7624550922395303 -1.0195128283146717 1.3424784843204427 0.18811982431589594 -0.06935875841054565 -0.8175944099952329 0.3146030561707635 -0.04194971726596236 -0.44040810062054275 -0.7490120197622377 -0.45309601936181515 -0.6627739525803282 0.7420493208694083 -0.45193047166698763 -0.5563541189226766 0.43737705325567494 -2.71117315529972 1.324069655388866 -1.2141247571505756 -0.9882762882093962 1.2390557217444256 0.45270591064916177 -0.5151262206336248 0.5916343408308317 0.7898040099097028 -0.010376189417386663 1.7017417801940602 1.4825476079509639 1.0777203987922017 -1.5933307552304683 -0.9988940593289086 0.6846848826284465 1.1170341957363683 -0.23546415956508582 -0.49212538885770285 -1.294093836707338 -0.9479054563259517 -0.07534974498927818 -0.6188240383671769 -0.2337149752945425 -0.9129553795881005 -1.2331624281046785 -1.919667671114081 0.9160661879443178 -0.09797509385969891 0.004875562975979644 -0.958995017113167 -0.35608110792974623 0.0917219777407289 0.9980424971649041 0.15251271039676056 -1.8297697430860083 -0.2144109858983349 -0.16130254611993355 0.42356161436311857 -1.3157581598550958 -1.9462176063725984 -0.3171160344339313 0.5081987021306563 0.37630341765196745 -0.07788846121347537 -1.095073082814217 -0.6800424775820333 -1.181668949074109 -0.9690761898828051 -1.530990975495571 -0.39491226751179925 0.1664441579968621 -1.0457906377116484 -1.038874632741623 1.527194353005853 -1.6012354878098807 -1.0637465709155396 -0.9261350365717711 0.04301932647401475 -0.9901438855638603 0.4253645309540549 -0.4820613466205204 -1.6300305618087507 -1.9690045149113584 2.230701024628884 0.7068803210114847 -0.8709765777175933 -0.4088917330922226 0.49732411915189073 -1.374664789863035 -1.9071938805525046 1.0685875112469276 -0.2948198792666025 -1.1383072345885774 -0.9857304051451296 1.092720928217814 1.6970782272299028 -0.3119617175537868 -0.6108687787183086 -0.23969522218460737 0.5541240117629115 -0.44035289341730155 -1.0601989755010843 0.7149973660364665 -0.22595535401250993 0.12681139458720406 -1.3709173797935144 1.1628871870490378 -1.833655116444006 0.03174628688937463 -1.0059606236571792 0.1345870269725142 -1.3937129095052396 0.4315412040660798 -0.14492062044516296 -0.31457178215404774 -1.1550336081250172 -1.3210112289845513 -0.9828514764839864 1.5210603252281378 -1.6150955202808939 0.44560581717592523 -0.02704838298069538 -0.6770466227220168 -0.5911068135373592 -0.1316038541559463 -0.37684000074732643 0.3149236202176496 -2.0776200549688686 0.596430265028448 -0.6175995433601925 0.3630374519504941 -0.607725733532892 0.9591210999267189 -0.3004835986341848 0.5530509387904847 -0.012806088638268872 -1.4180487955609697 1.4751443902700723 -2.1039474259539657 0.3856580392352627 -1.273423959496767 0.28145502952088497 1.1049603286695022 -1.5285401438280868 3.112717365577683 -1.4042864297085504 0.908901457649876 0.6544164452912794 0.5241076954183008 0.8388723482582364 1.4470301819996643 1.9276069077467366 -0.18650250713735117 1.45106300986187 0.8107368968602109 -1.4851409361812546 1.1607966101912381 1.0156342545157095 0.9731509607145488 -1.678970870972491 0.6262150802652865 0.3527955840108374 -1.2316029229289127 0.22843058280304768 -0.014654837891688362 -0.45077567621141 0.20139279111246822 0.8176551589250913 0.786099547108877 0.959927481075506 1.555063675620151 -1.3959131079841176 -0.184049177995181 0.20684349197848728 0.36253869482840256 -2.5812525949757457 1.0870247251400933 1.4555926708611202 -1.764873117069956 -0.6453648902020414 -0.01802692287777789 -0.020188359273255324 0.5160064749204859 1.0256795176398776 0.4351414574345944 0.19819066817977912 -0.18621122220348257 -0.027425684409964006 0.25838671266383434 0.16638896824602334 -0.4631974174728745 0.4945105045732144 -1.5557247909381942 0.2520963325422625 0.27759777524791407 -0.1416518194790809 0.9349214728001392 0.9809438778524335 0.39847623812861993 -2.3028689867022902 0.3623657684439446 -1.0858616954796871 -0.47434544420777425 0.5467681572498296 -0.40235141826456156 -0.1507967849284012 0.3244943382265457 -0.4084087706965876 0.11692891345347747 0.5485425914921449 -0.32428148972379417 0.7097256771354 -0.1338859222084231 0.6032515628883331 0.4540517201272246 -0.7681804154546044 -0.4885592254596031 2.0024015378723905 -0.8705293958196205 0.7618568502235348 0.5149465936732273 2.2771425640065144 -0.6929517575336435 0.17797239030609177 -0.6650497013176518 -0.16220400956044717 -0.6647864257802604 2.1667621067733824 0.6043243789704957 1.8715295793949405 0.7658749699516192 -0.806290526633869 -1.7146225785061318 2.2712474569778682 0.536564068058144 0.3527806494750388 -0.6636283910345762 0.054788650727883796 -0.9419100410705078 1.5605839279500233 0.2913445388555119 0.6446489866984498 0.2628193382489752 1.995063723489682 -0.28318842006871653 0.03083181778152276 0.07626093933399937 -0.5656766626885075 0.17392986503246527 -0.13738541184001996 0.9022620246788886 0.6313222070596287 0.15068875806854062 -0.08700215867337333 0.14143263403025788 -0.6467363169783356 1.4559846470008047 -0.6731987364437597 0.8556691170445714 0.09467785992283498 0.7466906494677357 -0.04835588948593629 1.1950868229018203 0.0029672965853026374 1.7724681614885833 1.3710532761419867 0.4867128072994033 0.6651918939546981 0.15772065969306584 -0.5971249645848872 0.7224908492151938 -1.6773349743165005 -0.5390138498209843 0.5580919062984654 1.3575692553753467 0.11614128645863903 0.4260509803669293 0.4767855705304314 0.0874519681449224 -1.6744039929959456 0.24813705676283582 0.6749700192926646 -1.431962768451536 1.5418772841796966 0.8948150506804703 0.287487066923836 0.7305655100891291 0.6012471360584293 -0.42464947077139914 -0.39833121112802405 -0.14452739904985126 0.09521579738523253 -1.389202840118283 0.6223948339501919 0.34863892125386 0.5985109857592046 0.3063181427347864 1.028257294717249 -0.40232017132348524 0.642559353351493 0.6445274133309389 -0.22595553464190332 0.9184570412060395 0.1335446769484054 0.985707393081521 0.17645644253640996 -0.5367193834670339 0.17466539360404276 0.45788465920661486 0.8305967856864069 0.18286203699440906 0.026524175693408307 0.4645270082640975 0.058992760528729635 -1.3710103078325764 -0.9115790735007879 1.1883916322634331 0.6601051192840688 0.4054194248873897 0.7984053958095456 0.03582386879569576 -0.6552402564003169 2.5274608071666855 -0.6678154206006679 -0.6910446008146492 1.617472903633734 -1.0320002722149626 0.5823624255923512 -0.9814681130580691 0.33454689934410237 -0.42515422815185777 1.3350473622918413 -1.1367138898664106 -0.08683003907658682 0.7782449770053421 0.14767613775898109 0.9779837723353318 -0.011858767741786541 -0.7557694896019308 -0.800832415834738 0.6718796292761804 0.8538468532445456 -0.09476563726051503 -0.7428082759125897 0.3212273162189747 0.41381722468883936 1.1628865935986386 0.20936330032068345 0.7291984226593707 1.154386431908273 0.5387187159846073 0.4418122687842937 0.2683248030872261 -1.0984967085227109 -0.029846035680092073 1.2182208335217208 1.6257522590458051 -1.6286779894516188 1.1410241219449064 -1.551879732415532 0.760703614946991 1.7423375118939326 -1.2856327480312784 -0.35649570446835444 0.9391034088590952 0.4346579564848527 1.0839710765931174 -0.8103888834888111 -2.15426663410209 -1.3984803792786213 0.32510730459966675 2.079369620692147 0.09271001884801151 -0.9873872620288884 -0.2347207539380038 0.2902262955086435 0.2792733824698411 0.6186344057699676 -1.1457391653198397 -1.0364886537551579 0.17629830646112915 -0.24933899278573324 0.4552193796905598 0.6390662874810445 1.0452795413359863 0.5307667709654242 0.08882680942615842 0.9717145844321344 -0.3877551206490681 -0.2936819999963188 -0.6274978407436917 1.924753166490065 0.41873932526296964 0.20913824836753742 -0.8158289285656243 1.2688986976629055 0.7915098418854607 -0.9610114698713543 -0.5216499300062848 -0.9392497365395556 -0.12441799563761083 1.0033100148060623 -0.4750173401895078 0.6963814010780759 -1.0263739505335048 2.3812382902218845 -0.23916439172567155 1.1136785987067475 -0.34490721209225716 0.254326235030193 -0.5547330785843817 -1.3468449122014172 0.7661332851931684 1.3374133167936602 1.1401645543363403 -0.4883534027907239 2.5692228602517098 -1.001302494205531 -0.8541458531207874 0.7082186482027272 -0.2492734471155678 -0.3935318082453401 0.5603756048918899 -0.23994376723852023 0.2540189898930632 -1.7304146787214185 1.4164185788452923 -1.8407938524015754 0.26911915427354816 1.4441400843531418 -0.4989166577017721 -0.18396057863244616 -1.898684485095598 -1.1783182613340868 -0.9174121980415205 0.14154581944465172 0.23422147705428376 -0.26209609749872964 2.375470036885793 -1.1609103692856064 -0.6273242845440347 0.5768936766540003 -0.6178846647093681 0.19054376525522002 -0.5607755485380617 0.2447389514358147 -0.2501733970136552 -0.3067831242778219 -1.7168187930345191 0.8798720268939434 -1.201780857088066 -0.7558085626055946 0.08424000741851055 -1.622414625651535 -0.2756120180117296 0.7411506241414582 0.739571810265353 -0.5562033725815563 -0.10012233136450702 1.0963789377887523 -1.9105358679282092 -1.2994091956139042 0.9874380622175721 -0.09308423056600325 -0.8433650291428416 -0.05094449203165513 0.5565944831999938 -0.30261950637140556 -0.09858587218565548 0.5416009821712408 -0.46824462492760915 1.275929243817812 1.958008745831523 -0.427292204578638 1.0505585898655432 1.2798801333455432 -0.14838226966033563 1.5490320206062678 -0.14013403809107255 -0.31275521392792993 -0.7926880147159384 1.9734753565059129 0.8614430663541247 0.8812230962531926 -1.2707836621858666 -0.26572201033941745 -0.59382375042128 -0.2591007764870378 0.6418198256595973 0.6581711161756812 -0.8644592845285162 0.9450217691900542 0.8248361522381346 1.7062504157417735 -1.708889448762106 -0.37692379251255026 -0.14878232471538483 0.02375047344426166 -0.480942331185402 0.0027701296422214094 -0.3092913773251024 -0.38389391610213014 0.608700358690117 1.2454138918766953 0.11734627959684597 -1.8451507496736166 0.3803421798137297 0.9065232965491083
Label 3: -0.8275122892119201 -0.22822393799592258 0.20746921371971258 1.734505403458219 -0.042837560740262154 0.012928200497298793 -1.1017192104787112 -0.09345187192210448 -0.4412956066389405 -2.2766704339821784 -0.7275479640680348 0.7317731945987738 1.3547096127007192 -0.8303941052231691 0.5152257736920248 0.8670888993778421 1.521978051458945 -0.263000322493212 0.05307062242383495 -0.45968608260317 -1.166071716987592 -1.6655083048616508 -0.5927385412728502 -0.3964589982270612 -1.1202093629688956 -0.20797174864675647 1.015006778640021 0.661006829938721 0.8135072657801499 -1.9628386899986023 0.8303956816674098 -1.2396462878114267 0.4206712993858949 -1.228726998014648 0.6642440735660703 1.0887069144476056 -0.3597023306067345 0.5803736525613818 0.06907502968832033 -0.33427728363593273 -0.514195941383695 0.30912079058747804 -1.509195574431333 0.2683478657456519 1.6884407537816735 -1.6566794515026801 -0.4891631721015013 -0.5940213246854112 -1.0663870240220226 -0.9818168376688301 -0.36396594787051795 0.8960167911085063 0.5825494585818093 -1.4569040968645584 1.0571106273021902 -1.5338976794875223 1.5670628112301241 0.8842329727398224 1.0695570922464785 1.3765111770385299 0.6620618576011897 0.5144167019294005 0.2599663685511782 0.4758054608941529 0.2519991656586117 -0.5471038626564989 -0.5966184175723668 2.0892925887264324 -0.5042198239837427 0.21727149351458522 -0.8522775003576661 0.8811514457900246 -0.06063016036856032 0.2960885671483069 0.8588681290188077 -0.23385373012757044 0.22643250475958474 -0.1351456161769228 -0.1527399763828458 1.392215891386285 -1.2688625521205115 -0.9395369491625366 1.0737270327121708 0.0951282821926364 1.1385836085637298 -1.4227563865124109 0.5083517510949875 0.4097274880951849 -0.052747427528892506 -3.4196211355264006 0.6700098422890987 0.6013062165876693 -0.8930280969862896 0.03774806231022579 2.355973958604404 -0.6218027492450152 -0.3149839574099157 1.100348961200992 0.005690682028079543 0.8953597765281063 0.8489845355179254 1.0529159335282203 0.21212127008647821 -0.4451439287853871 0.1680296508592543 1.0760397434836046 -0.9661447653744154 1.765006498552943 -0.5059455451252552 -0.8593539162228426 -0.33878035184615074 0.22972541818397 -1.1058492401835975 1.1732370302011093 0.9539344995467686 -1.506019767534005 0.945511611232831 5.289932370967226e-06 0.6709227227764053 2.054060506748801 0.8175231662463125 -0.9752807955341046 -0.11049202439619525 0.5209825604062103 -0.44730231798776865 0.5552658715799322 -0.18988732844240716 0.22547829550484622 0.44548197362882935 0.5845174770747794 -0.8029926143161819 1.004986952391527 -1.370025834500224 -0.4951440760464999 -0.7411593883609677 -0.8049923070615651 0.8930999976298978 0.058750292689438495 -1.7752353548801507 -1.376637810845128 1.1285560329223765 -0.09290482412406932 -3.0213783401111445 -0.6152036602467607 1.3358971286794943 -1.3873339787573937 -0.06721322346183833 -0.008498006265100444 -0.6902189589724192 0.8171702487212583 -0.9166432156800842 0.2307432967317909 0.22856898143615154 -0.29416784830808096 -0.7999449686586155 0.05661090185846084 1.1476904242002441 -0.6189524389532154 0.4221674578189031 -0.21459510447100597 -0.7575092284825848 -1.310328194728486 -0.308348983526451 -1.3250720164111958 -0.8780207191134742 -0.3008023615398328 -0.563642090146328 0.4193661356202524 0.7035791789745066 1.9426364598330597 -2.855404141634911 -0.010669776325569036 0.4711479174764752 -0.28515534927749575 1.1362677304282556 2.1231685207905544 0.4249843534811379 1.1013233821369055 0.16772603996371804 2.0189317898966377 0.39053284259245286 0.38891100350534497 -0.26617231058760094 0.4742684959988411 1.2022756040817488 -0.2499948804666225 0.2405050371120636 -0.18198167241363922 -0.7722180607273742 -0.43621322008393915 -0.10781666231535005 -0.016790834770638738 -0.5258813769296486 -0.3012541918151877 -1.2742757238503732 0.773530268406214 1.5897642231076041 -1.5864830687870013 1.593564870913353 0.045326305337611936 1.8917181283739215 -0.4674136023021941 0.002675260160095913 0.3641366648903987 0.47261578325368775 -1.154829833257079 0.5739063072167753 -0.9941884824705924 -1.7249789623556266 1.0644206410058532 -0.6830699294954565 0.9572813970208982 -0.6894973450024041 0.36839518201596977 -0.2657896575665482 0.45092975562826315 0.8399630504902994 -0.9209725599699476 1.8987222180993306 0.1010780948888619 1.2460716538127576 -0.2774004914302784 0.21752977710340127 0.3750414409759121 -0.5919799773000328 0.6542802605944497 -2.1323650941653556 1.2153029777368693 1.0069416240351559 0.19955746197818386 1.4397210413981 0.3507558883852748 0.43109073785234164 -1.5478226065354819 0.280499293929926 -0.703714888882795 2.1269021282089007 -0.57026440197209 -0.004031660729845444 -0.35718601362007685 0.02940604159527893 -0.19748567443826984 0.9925839181920024 -0.39267313255157366 1.4614866023101656 0.4247601753210718 -0.4248690883896174 -1.1868367469708068 0.899355902395179 0.9199752709533099 -0.293227680471393 0.6378237616482545 -0.750914809778441 -0.46528615274504803 -0.710650103807303 0.24465056249634884 0.4396999258280637 0.010364335906021253 0.9105159773408413 0.7899497254950465 0.1314917807881606 0.7843165164890711 -0.824656405370895 0.8953126230267147 -2.043919470106246 0.41098832414898623 0.6746137850132035 -0.8531691203608064 1.184820003067814 -0.0545950979035969 0.42576077852274613 -1.419948492511849 0.2060905276364878 0.18310567489704863 -0.42703873445349255 -0.5903701850531572 -0.22682659626566137 0.8256682559849653 -1.048490283470809 -0.21224863219463322 0.4837220506464977 -0.42947971482368863 -0.17530856721056595 2.0289432726841805 -1.379275154372974 0.8975522953716949 -1.3163699485081453 -0.044267090472047826 -0.8462204228985541 -1.094145002794271 -1.275583927820102 -0.2527855016563223 0.6108512797335294 -0.4911206133526014 0.07244856649137493 0.44660421097280306 -0.13430897717565374 -1.037410087340505 1.1038128632989617 0.8580693685183564 -0.9662623576627123 -0.7274741248883224 2.1974385822220395 1.3467074585809875 -0.028915050567836068 -0.4342499957516827 1.9566375615292393 2.0383359052010355 4.244092638531105 0.5091691434581069 0.16875297353927574 0.9839633834347077 -1.2703784281726183 -1.6016871296065316 0.026659258712014286 -0.8677740932902458 -0.6083871161150162 0.07540823667910335 0.08131312263052004 -1.0089504442850952 0.0704787322531322 -0.47768599891329383 1.0958524621539139 0.0032190848159946604 0.7548746400046552 0.7524942910212175 -1.1325738870561848 0.3307327996840386 0.9783767195016518 -0.16271684225864408 -0.7554138908138365 -0.2508853494541507 -0.47645416651951544 -0.34981853439686555 -0.7491899538198384 1.2480221039812327 1.0186497327731132 -0.5529787381205311 -0.16104397965803496 -0.23946485554926905 0.8224093451892046 -0.9283012998468483 -0.34915082451989055 -0.21389382818676755 -0.776096534984383 0.1354044601835877 -0.7086723820706725 0.8526851144458558 0.5514217007578996 0.7322657011989454 0.37007782324616895 0.4975605638659902 0.3747521539285075 0.13949077216920405 1.8986325001804831 0.18763458123595095 -1.645695387386979 0.7745584226350288 -0.6020529402074191 -0.8319772817378406 -0.03186882716172214 -1.2872589647842885 0.09204881384171246 -1.1661297821155883 -1.925096432839571 0.18322946082808836 0.1973772168420625 1.7742650948305836 -0.24770879623931855 -0.12726107449696974 -0.4448040557448942 0.8733573190737692 2.137743128555351 0.817817746087429 -1.1750508891245508 -0.5770693715924701 0.1234807747569524 -1.2020368261123453 0.6292482502638769 0.6073165916377111 -0.45028742841477 0.7188327086671078 -0.5915411429383645 1.3330081570452625 0.09939922751152934 -0.2542843710576224 0.322425528505922 0.2701025253934327 -0.22968804713534427 0.8942372809170148 1.3635167654033467 -0.8214069391090885 1.0711474875920814 1.57387003443156 1.0627148469062562 0.30893019823686696 -0.09265980482426407 -0.05588329563134519 1.741103998329385 -0.13957151823719838 -1.6765250924433819 0.5271670397171307 0.4423614953642915 0.055600030660653166 -0.5503563250479465 1.0041511862872086 -0.20005448490254374 0.18762464169792312 1.1818865044261713 0.029335812157956 -1.1321449131619394 0.27677974959722235 -0.40209296912891757 0.14063927794401376 -0.05495341176936123 -0.9789459938818649 1.542996185845022 -1.0109809146394828 -0.506361981205229 -1.3158359597671576 0.10351040219151103 -1.5039621980979074 -1.48242402217362 -0.5998196205427596 -0.09652198806867394 -0.3546754038652263 -0.7819565746030188 -1.125478632948802 0.009466122691763723 0.3102300263502264 -0.0026526607726583603 0.3738302177774956 -0.15387421234278248 1.2246273648994472 -0.09360643065937774 -0.1582958338928347 -0.9246091038766737 -0.10700969616260309 0.083985548596615 -0.18442088219944308 0.6792894031560389 -0.8997549404180084 0.6193946290505502 0.20307342893516026 0.616053671249013 -1.5105122183068345 0.17799339507809378 -0.16239924459431687 -0.9971408656729516 1.2614306373353334 1.6965206224265896 -0.2845470470145403 -0.09636227607870984 -0.839615729287338 1.2451686234913384 -0.5556235617866947 -1.79506501773851 0.7556132101164714 -0.6890085374677355 -0.7930959684881174 -0.5675087743542366 0.5580821508259295 0.02983026560270466 1.4814407184511156 0.283683776624512 0.126144983893 -0.11068209009948514 0.11604238667927236 -0.44780408553083634 -1.2329596244181293 0.10918729465358666 -0.7796052970758771 -0.7840459067481232 2.1504255441805404 0.9837499166363968 0.7300517189497512 -1.104949428445401 1.0708712981691353 0.3466897068168895 0.3002617533779761 0.8141957014695748 -1.1629697870554097 -0.511252157788103 0.24734665440581916 -1.0824210528965914 0.04733788236634485 -0.924405844173563 -1.250460970431312 -0.2797221407639426 -0.38130889185887024 -1.0801963355454713 -0.8987012784127826 -0.21934994411330822 1.0104582994877962 0.4175275393509597 0.7027558199917839 0.8592545101962556 -0.7654706640939721 0.5232538468940021 -0.9669692789458174 -0.9272179296025381 1.6507903714529828 -0.09912994366481298 -0.21217185040158457 0.927841686721528 -0.9977472795169104 1.5646819263248346 0.03327470567007061 0.5505819713175765 -0.3021482258686271 0.9750196504256589 -0.30764590881987386 -0.02143350483491428 0.36437858169290194 -1.5990986970923649 -0.05716455219861022 -0.27084999122248016 -0.12490258458632908 -0.46804490480347494 0.2144841716651018 -0.24772674307494608 -0.1713795475869513 0.5521231463319924 0.7410189309385016 -0.17893448693025377 1.424511164527802 1.1722974359456342 -0.8595460455004751 -0.2345808642987982 -1.762759269877278 -1.0926981737301524 -0.6794445605456892 -2.0193225483047685 -0.1744550170053318 -0.891418367357044 0.565340849582702 -0.3699537891898241 0.9712687327954934 -0.4844899649070552 -0.11865282478751488 -0.11275416214550255 -0.39773426061132144 -0.3452645442936274 -2.207679219536612 1.3177545338510575 -0.6038235994548136 -0.5587666356314958 0.7685109852839932 -0.4858483767849408 0.6072686238704735 0.25391935377187164 0.05776458025615082 0.23657961459298865 0.3257381311105414 -0.7156367044688524 0.7913584229981409 0.9906959715252532 -0.2734077909187266 0.45793347749757657 0.9935175996731268 0.5911572684857824 -0.24598728972000777 -0.8647450520722456 -0.057693445359495554 0.47868566099886184 2.0864915097927796 0.21633980871610156 1.3016027264016914 -0.06635436391183702 -0.0005502584468123285 0.9168228457014108 -0.6577906522244681 -0.6603632488069932 0.3321567472562973 0.08978085130822389 0.014875426193391189 -0.024588149288608828 -0.5078990662544594 -0.12257992080464825 0.471556131392408 0.1410054649311156 -1.2206903861446985 1.003018900439691 0.1333035887878405 -1.041143140722418 1.091257853154628 -2.08854168026895 -0.2127143666786227 -0.8860054345991336 1.0162742150954545 -0.3124967461891843 2.43109308609495 -0.15588772759695613 -1.277370838717993 0.8793269071461401 -0.48446002477949596 -0.06527137516690107 -0.5838500408198285 0.10272812763535094 0.3778833466833977 -1.2314389776387153 -0.5302343162038351 1.241631607299207 0.40383883092809547 -0.14986272463309153 1.6784279053826834 0.30271704070154226 0.5292268930821097 -0.3079124313720806 2.270069093246143 -0.8027025564071715 0.4062798060434807 0.36834376070805364 0.5220351025471595 0.04450453060682397 -1.9648405291803237 0.3921820997091092 0.23172565143575038 -0.2936684831828457 0.15575874757914368 1.4675278473972817 0.1630066434878531 -0.9536391172020877 -0.045659694624697135 1.304225990084103 -0.17207404463468307 -0.621342687111108 1.5667830928602238 -0.7100922303860694 1.1735159831829718 -0.8557306878975326 1.0205305123512538 0.5408582615271286 -1.3097659615373078 -0.9192829110370999 0.2876819396003022 1.7050464895180806 -0.8506086159483217 -1.4936712998383703 -0.3180808814040689 -1.1100992604158484 -1.4219747007582344 -0.22922410751905536 -0.3515146708493935 0.09700840000187233 -0.3180823261966838 -1.0166740295870709 1.8181118435039443 -0.4668959900817959 -0.10123301843165328 -0.3773318127305144 0.836066805591539 -0.4365362508092852 0.42698005096821506 1.2547102902179899 0.11159256079036647 -0.12629849623973424 -0.5751477497261038 0.8260189300841656 0.820627820271689 0.288735054327977 0.951601784480264 1.1019336420283325 -1.1662324716759727 0.00854288201300346 -0.04809028323524102 -0.7401489155603354 0.9063955699383289 0.6210543199923616 -0.6347499032640881 1.835154262450436 -0.30083794500901545 0.21539171647005279 1.3823825360566253 -2.76851557639963 2.8189541779009404 0.36285677192363747 1.2822501460261382 0.7844548612684383 0.4703491531548892 0.7557040638307159 -0.43469343103455077 0.6226729633607828 0.7284699626024023 0.21137632445061386 0.6708039780238126 -0.5426736705464342 0.7713204569384335 -0.4353412976510031 -1.1897833561409252 0.26148664549108663 1.4223532357729158 -0.8601261270904321 0.4531355113540253 -1.000354540545291 0.25189593605012417 -0.6032682413138561 0.009757776515119098 -1.6643094422755447 -0.8721492975942235 0.38697052424121753 -1.6025817765686312 0.37576663584056735 0.3145121847075658 1.233894341402211 -0.7188289393864927 0.5956537098308273 0.8396086499799371 0.5942245916805529 0.5111311348660189 0.3421700378205908 1.0189665944031223 1.059316513100513 0.40738357589214624 -0.781014214233436 1.9491407386212218 -1.7769973041672718 1.7249125979938038 -0.2264185639776954 0.7241106680338284 0.2872461973836381 -0.18078039456097394 1.1983583433870306 -0.2382069530239585 2.0431189461070374 2.229336386700466 0.13536871173459464 1.1727575834637625 -0.4109033526105094 -0.32177831658319656 -1.2943906693929832 -0.8592901373605091 -1.2692544922682591 -1.9822374385964392 0.9089469706996854 1.0031191884092285 0.34590442570725954 -0.7343735432005264 1.3533031827578843 -0.4584622046210446 0.715186149819811 0.21875847711259339 0.4800173431570203 -1.4591704494273527 -0.05558755084419003 -0.8408713602985645 0.8258412882555725 1.4841769481820275 0.915563445665983 -0.7071569367665212 -0.5701669283618483 -0.9824603813891685 0.23623368983365048 0.36661452650366727 -0.43250290519687407 -0.7189879072845684 0.4076633930092407 0.3947076486417609 0.12737084440149693 1.7122057925308332 -0.7808800484284897 0.5482522594390901 0.4948886732161615 1.6779448521393234 -0.148747938021738 -0.2136373524382494 -0.11791745002007299 1.0858345273306242 0.8605202963855836 -2.335183644237915 -0.35530057575595303 0.636148465264264 1.0587360908596148 -1.0139193856974287 -1.2712087055948662 -0.109424153227491 0.20990396591031027 -2.095350944821416 2.1655792619719323 1.016714972037106 2.366095464574168 1.326471154921391 0.6210700299597223 0.3296776113924216 -1.1737167661858892
Label 4: -0.7473638749629867 -0.24119373398305502 -0.40725547740016893 0.0014206808774498297 0.9353834390557856 0.45043626443144724 -2.5874759749684135 1.120175257626734 1.3506288612133788 0.03482128013470422 -0.049745070972524875 0.05164191310400822 0.7351825949128984 1.6465249120046495 0.5769264407294702 0.5051640558837162 0.12878150468420727 -0.6812438727272588 -0.1903567891315849 0.2894798832789275 -0.6635811528046356 -0.02975883588387357 -0.13471684995758543 0.846241108887771 -0.5331003896115284 -0.9076307646980946 0.14377597134283981 -0.10932643876656108 -0.8374443910229921 -1.1803082689644848 1.0598343730305761 0.39574006949135143 -1.7065926402182423 -1.0458781843145109 -0.8637580987857854 0.5027107505080696 1.0378391591752105 0.4613551890105771 0.7107526702474309 1.291290369103721 1.4011455222016624 -0.5390415151515517 0.056325298930133334 0.553399280272723 -0.7775000770372518 -0.9369583315145322 1.0717168220642745 -0.017106235667584513 0.20153033317675106 -1.0658231508033909 0.3047808249405803 -0.5360532041932683 -1.0252724232520616 -0.17921583279419875 0.4879665657987353 -0.24320203913209287 1.4186762937982447 0.08396164108931514 2.495900706070469 2.5876122427698443 -2.0532239235868186 0.8399000435594095 0.07943678497598611 -0.039396148077646936 -1.7863993578369795 1.6537701352620207 -1.6144591927851728 0.2463768843053193 -0.03664701559432151 2.016519441934708 -1.1465323471023685 0.5958103271494466 0.3357941911443215 -1.6309072242419886 -1.014917738543164 0.5011389121731582 -1.0982000303203296 -1.5448792706396566 0.6931386035499383 0.47531212450125737 2.318053876169668 -0.12118274916094691 0.6788000064169821 -0.06445929945414826 -1.0372662704020952 -1.3609717503794176 1.6526534718127015 0.8645154592672929 0.8617169486497007 0.000740736963210185 -0.2363230982102692 -0.49430769511817546 0.8447137667177372 0.049954206622569504 -0.666960576011605 -0.28499515946004284 -1.1858025615854737 -0.7903739502045437 -0.27330375896743586 -0.01695208197582459 1.3059460977084578 -1.26220057699618 0.7586620491172869 -0.18320769347598045 0.5894324622950012 0.93178158616453 -0.250358358839896 0.19026060891004998 0.4230567297531581 -0.21000377800176556 0.17455722664711687 -0.3750874494319189 -0.06317764300869287 -3.1315260457157046 2.264422241091508 -0.7446491964532966 -1.8671563290725488 0.6173916689738427 0.8122249803082724 0.23922123600646494 0.2721232046619052 0.4985879358771133 0.45862743646347354 -0.8050570318827878 0.23084381084498357 -0.8774531029322049 0.5164916681251951 -0.41009498579291476 -0.16404068641879802 0.04111752344150682 -0.729749223095326 0.7185495788806675 -0.16349267706284237 -0.6171287178459479 0.3305492675475454 -0.2096763255298044 1.42300529241582 -1.6013329719367613 -1.025902094345512 -0.7385230473578372 -0.23567498615050178 -1.1910391731984953 -0.872141756946609 0.18283150784080715 -1.2149032466500906 -0.2222902224476181 -0.7366591793695417 0.7858801192205617 0.4372000603565949 1.1675049127774972 -0.2563623535105536 0.39282718510846126 -0.933195247905293 -0.4678992904405734 -0.732381502096858 0.22051752882390369 0.08966972021498912 0.07465378010704268 0.2557556061383876 -1.3592782001978732 -0.13343062071825063 0.5160463028622396 0.8366673926862559 1.2428295676282308 -0.732840593990436 0.3417123641659935 -0.11344580045019817 0.7782639707155091 -0.89155340902826 -1.03974219471725 0.6230443976500801 0.8703348613255424 -0.24655081015443003 1.0486561708959954 -0.4593263846239354 -0.6132477818321076 0.9325895049107101 -1.9025888412839975 1.8832747649185961 0.33098498760188994 0.012293372870931372 1.2079391812782325 -0.9958510721589279 0.27534388982594454 0.0622217803021633 0.5060400250999223 -0.7927684124097351 1.055022803137435 1.2644471864046014 -0.33722909461433404 1.2925318461079318 0.6184502228678486 0.03185643530684011 2.0884715345660045 -0.13100750529989358 0.7994433191586812 -0.7588085837913339 -0.33871596371426516 1.0509195261463138 -1.073581722600206 0.4780374381692915 0.4421108179757596 0.5383544605577838 1.6113098836308124 -0.00019779482432632015 1.3824897484993595 -1.2186774282348505 -1.1825817627023467 -1.2937138305834608 -1.3778041092396582 -0.5819015361239565 -0.11921204892849968 -0.3051769439307611 0.5393547361861929 -0.9897124863717345 0.29033665700934813 0.6319375364402081 0.049612951573737886 0.3556081225870481 0.8752800693585202 -0.008155010658820013 0.31686735854794523 -0.40101489468383406 -1.0300044925695644 -1.7882359549450764 -0.3286345557723164 -0.2734227469546774 -1.6003564930050918 -0.6806813430501667 0.15197080262732873 -0.11915302497071778 0.139778341046087 -0.5550850509088908 -0.04584761236875487 0.020564104786326486 -0.7991042102792922 0.19329046546707412 0.37414627750796725 -1.0643280192655271 -1.3108239701535205 -0.019382626163715333 0.225825984975275 0.544751314346098 -0.12520171442539096 -1.1578822093586745 -0.35133112807618 -0.846124734563961 0.15550730406057203 0.4958614867285442 -0.7309741728660005 0.3849531363641844 -1.2915156687163423 -0.9426526611627056 -0.5054990021594398 0.2127662342658253 0.4781238985655445 0.27909651542998437 1.6431822758861188 -0.8371020111208404 1.1234682837323584 -0.5510139085121718 -0.3206034984901687 -0.09207397364914055 -0.03687970801022747 -0.11391462095730781 -1.6043576698263968 -0.06854423037922769 -0.7657887026843355 0.44649797882532893 -0.6901847404395918 -1.0603936630860353 0.6298183404632159 -1.5284643533876763 1.8456368525975841 -0.46758892868423707 0.648981360197182 0.2993512946164096 -0.1401841277855744 -0.1363092941065826 2.5183311544549363 -1.6012232225646705 1.6611878714194523 -0.7124635134176323 -0.2938118507944162 0.5839539041081223 0.08888753947994768 -0.47715614422007235 -0.48012997115816125 -0.04077397858378223 -1.2123602217715854 0.6266376377126692 0.21185206789605965 0.09331676786129985 0.4348203466957146 0.519548414798191 0.9368288885124132 -0.07732355853608527 -0.925174042510611 0.8499432172510171 0.9935398329687363 -0.15572007799679774 0.9241034753449111 0.3971328794065228 -0.3963652130370708 -0.706927021179529 1.8300049097005238 0.16129995854481693 0.6948003957037401 0.9051574847757481 0.5141032741659227 -0.3901329183477743 0.39875018531721457 0.23156465062598847 -0.7689880506606311 -0.5056845459665734 1.1318196539679484 -0.33424048357946584 1.8179695728834229 1.4817272344094858 -0.14667052684117268 -0.9676988731779197 -0.7201797495003258 0.5829717352354937 -0.4324372258008631 -0.6003708007609391 -0.18715675633729018 -2.331172472153349 0.548194075660063 0.26372047539172144 -2.1652307921581486 0.09016119318730109 -0.6582189025716796 -0.6341455962732936 1.5733954109639035 -1.0981072301408479 0.8383548456670544 0.9401443986534342 -0.5894108350547389 0.076637308930325 -0.15435415398422098 -0.0011931749400733347 -1.353688123613343 1.9990662645450588 0.7370443733848168 -0.013105723686468274 1.1688062292988735 -0.29322726345621464 0.0426064779630667 0.9382830258276926 -0.3100065728527669 1.0269997094121537 -0.3093652818533459 1.992796326515965 0.5072107628216486 -0.6881596051999863 1.1433917659246042 -0.4431137181694217 -0.6081841926910142 0.39957956067048367 -0.6340858405904449 0.08827078533883988 -1.598093858865586 -1.645477708599222 -1.13414753013618 -0.6276344626327942 -0.3808106726554197 -1.7955425708684216 -0.9545089645739213 2.017639244005899 -0.8826411155134711 0.5745746965275221 0.6816043035489235 0.9798976754074429 1.0266287988307479 0.6221359510836214 0.9218458702685228 1.3968634046692687 -1.1965404083744158 -1.592166053937511 0.3301270293319665 0.6494969474292673 1.9164366497054623 -0.9014301276379932 0.3958352853259869 0.4677299849513339 0.48534248795624535 0.2657509339742224 -1.2469148583840188 0.11202578413999287 0.6521193637719842 -0.7262419357461478 0.5469757615376367 -0.710514806130014 -0.48766969302471463 -0.6235985105417732 1.0379003598214886 -1.740469371349238 0.627091738661617 1.2262990339538573 0.17887101098187366 0.11334853648276777 0.4092857625195403 1.8921488878095643 0.05618175973896354 0.7088290726351568 -0.8927761339066829 0.3942715846125252 -0.06948098142082641 -0.9562790699364078 0.5185288377174597 -0.0324867210852548 1.4784392473362378 0.26059533830686515 0.44064114652430103 1.0754289345276893 -0.8690432322915685 0.747446121607368 -1.5594798369033176 -1.1196906320164244 3.439428834216629 -0.385967774422875 -0.7194782324764949 -0.30287644474684083 -0.4702942624951631 1.0574678331149205 -0.744146193986913 1.2365125174868776 0.2056050839781417 1.6985184659683832 -1.4989998174192842 0.42653164777900554 -0.3666934031655605 0.450762550095262 0.38954691592681645 -1.2869797256040887 1.7209728311166734 0.829284973304422 0.30889263215561064 1.1461500600175172 0.17613444899273456 -0.1415524445837667 -2.2321179382657883 0.8967948100591077 0.08900894447632643 0.32478447090922996 -0.9148041677849242 -0.5997303672652051 1.785163707576975 0.8466651010067472 -2.045131032704264 0.06872922684153303 -0.1838028838765349 -1.2263602779665819 -0.10761332167006243 -0.018601483775853946 -1.0250372129550696 0.2057947911534943 0.9535290498416836 -0.13940140201409756 0.5946604351533876 -0.3420700484485807 1.2673907134377465 0.2993304041663084 1.5446942123767902 0.18173231789052732 0.15841469833749894 -0.9184578490540443 -0.502862262464405 0.7438310609006626 -0.5818132465309642 1.7453386383528309 -0.2995394174409235 -0.7595285496484743 -0.9136866093633952 -0.004436623662779036 -0.3596867265881713 -0.16672180874097564 0.6136672494364708 0.3241977510079551 -0.5124573167358201 -2.203164392176254 -1.5486811924475763 1.2575639122365445 0.3981778665178556 -0.6694760009990286 -0.6014958304969049 -2.12290779745796 0.41446610254388827 -0.3935235722705883 -0.22007595193290547 0.12193147683309466 -0.49792557497178164 1.6433719290596478 1.2190946712235973 0.32174971727932183 0.5585868142612725 -1.0988841782841123 1.0350668981317515 -0.061150416774972946 -0.8851034599902112 -0.03913107092000466 -1.1457257934391765 -1.2950299353281023 0.6476875872149636 1.5986342553405035 0.4925555318611155 -0.7482711025549237 -0.4466576063039218 -0.3366099946205587 -1.823269702901865 1.095623945865004 -0.7170061325835012 0.45560561015312345 0.8567241777390779 -1.0539959541835142 1.1503737977252662 -0.25400494956800057 1.352882182327254 0.41154024606009 0.9034953348219075 -1.1273869820936584 -0.7417535376070701 -0.4554731752131414 0.7744321217275959 1.725827239060449 -0.7513089941851088 -1.0678302625248122 -0.07476203247645713 -0.20285888066719024 -0.6886797848124434 1.3103003538787035 -0.1676616525318326 0.8325014740481933 -0.04166833018997105 0.4236946108247606 -1.4895647995758112 0.29523653625718804 -1.552826412215369 -1.136129671257281 -2.678053520167328 0.9862529186704743 -0.16762553121920132 -1.0483129068427484 -0.011860929007240228 -0.032605613092570984 -0.7970402320766207 0.47921402712607275 0.7180920945922394 0.18596669894927273 -0.8358624978605487 0.40015840853459694 0.21727342129966967 0.18754734602222517 0.0315349660392496 -1.0933937981378934 -0.5497521262455206 -0.355580010807687 0.3112978976432524 0.344512176753233 -1.1551825553128812 0.5988208290937151 -1.6143102104422975 -0.40794381916244654 -1.9865073604559607 -0.5636357528264494 1.2448376748092345 -0.5127773894423614 1.2785556804544167 -2.28376981035055 -1.080760475954831 -1.1745894872974472 -1.035380132449034 -1.5524526412194581 0.39424042606655063 -0.6735122382884108 -0.37478925664111457 0.6164664989330833 -0.22394337894764388 -0.8495569110952834 -0.8350306403201733 -0.5319322999626053 0.6752063502388601 0.545779379545969 -0.6893052851871733 0.1163761120161576 -1.152978846737273 1.0864200061056843 2.1044405990463044 -0.291397642256666 1.5842427774327863 0.784897413566109 0.8941373930407056 -1.184773549990242 -2.091032608809076 1.0403741307787484 -0.8786924960140992 1.357289048624061 -1.750227934595932 0.9993080170853298 0.3143274704435429 -1.4963990143997852 -0.6281967604281252 -0.23077399880768085 0.9016970231446128 -0.6568981652033675 -0.3953158812846889 0.8402427988629623 1.0858115521801774 0.042598923585925506 0.14125957167906056 0.3579361470307537 0.23630369751516173 -0.5979999187808912 -1.286270358008879 -0.9453912224119363 -1.993239371854414 0.9780586551776561 -0.8553506484957305 0.911225197315749 -1.0646891618239747 0.35819643767469656 0.2523015797610557 -0.2629102413631066 -2.12743557592127 -0.2754331307527726 -0.6636445111510476 0.6637207511794468 0.581049052365673 -0.7685129474108481 0.7693643301661715 -1.7454695122679396 -1.23621283351844 1.1622944038702672 0.6950804731193831 -0.4648294535139809 -0.0035558969831878625 0.33308499286048077 -1.8173232927720937 -1.1251280462691395 -0.7937424931752997 -0.04192209908676764 0.4610047938967972 -1.3977380447988907 0.2565730750810869 -2.25316752001825 0.5367496257391816 0.08535102196594341 -0.07953470490429487 -1.3574795091104856 -1.6623618525042168 0.7169845750738957 -0.424417017906389 -0.8769876831038361 1.131400170424526 0.5764959183376342 -0.8171075150149141 0.12015179501638118 0.7873799108977383 -0.6819353651299069 -0.3164806859523387 0.08716278101515551 0.16871777505516763 0.4761078798959616 0.2786883677340973 0.7008950927063784 0.46012164655076937 -1.2046982483155877 0.038396684672882805 -0.3109236225896372 -0.08621048612447252 0.12558614728271242 -0.5515233075449112 0.27357448664064216 -0.36290737937651635 -1.5482513449380173 -0.274835656824249 -2.824055258642804 1.7594468148166733 -0.6373009028359883 0.8390792274269941 -1.0455568917374383 -0.7267408212623253 0.4511370912684026 -0.39020502002570145 -0.14699525613090741 -0.2045081198298179 0.6501667496061058 0.006245022641370719 -0.7349892941028173 0.45693459124878755 -1.2922224361598948 0.08468209254503622 -0.5907272381001689 -0.5693530641741071 -1.6113156679050193 0.16473812383432837 0.0013192884066839199 -1.4728945519981884 -0.30799905264433236 -0.7199625329697417 -0.22627965334194552 -0.6182317277566691 -0.782757785945687 -0.674827956489146 -0.38538288826325684 -0.7024260465963071 0.5490931771786647 0.7564512136829532 0.24921405749347847 0.09230823487580671 0.19752947393992099 -0.7798985948393597 -1.044408144886808 -1.2300725045500582 -0.8741857721030144 0.1653067830750785 -1.4296505897488434 -0.36995419862768036 -1.121303016162684 0.4988386607976823 -1.0398561983597168 0.22820194645612335 0.5436287385349725 0.15747152525922414 1.164609127731003 0.8079712807203504 -1.163678696757918 0.4330173231692051 0.7350252044155928 0.3761993325006726 1.1404169113400056 -0.4374194640532455 -1.0619646358927377 -1.2827224382659648 -1.0836699568219723 -1.687075040990203 0.8824111144015102 -1.67294641655117 0.37495942919551906 -1.4089567860847578 -0.1975839526961413 -0.11065856061726553 0.1764926012462767 0.10368842389229221 -0.025698820051508385 0.6277275880223526 0.8403775182432418 -0.6291596995682551 0.3978523267035284 -0.43054119866576085 0.612994800930619 0.6109387541375977 0.19815140556116917 -2.220821595821059 0.10424151821958479 -0.693252396768448 -0.061119065303029574 1.2741153627097574 -0.7978840485225486 0.6544734199292469 -2.8630063010191322 1.7622524682835516 1.1698620495004166 -0.3934393885842665 0.6097266448700966 0.7806369712729897 1.6508727466184947 -1.2340006452314025 -1.782888993641614 -1.1949561314139385 0.5771952339898705 -0.3639790636904576 -1.4542120554781854 -0.40435767402357475 -0.16977348041544207 0.18693044654381524 1.3069916354603137 0.9378043550263397 -0.2866224075547003 -0.4975190155814828 -0.3563727934941579 -0.38381082493293744 -0.15966869603256392 -0.7220545927929399 1.1505745119581603
Label 5: -1.1045642708102386 0.2471308074046233 -2.7277703732694607 -0.905358728465683 -1.4449203338379137 1.1889249732884115 -0.32849859671970866 0.568978774001409 0.9850829631769064 1.6851163811024927 0.4693517916848992 -0.1564655560413807 0.2361817257058847 0.6337591860702932 -0.7094249420087366 1.611364510126737 -0.4380934123443053 0.6506873941044095 2.2076631330496785 1.1088833381569254 0.23254189681953552 1.4207469847659973 -0.7767271676819442 0.746658969068865 -0.6798187943001472 1.8115810430379957 0.6334578428399876 -0.3178036616398823 0.27490001005882664 -0.41165368883180514 0.1340401572971934 0.8936405014501368 0.20807889248440412 1.4911351839195262 -1.4648044095441348 -0.33337419268490065 1.5455713903694546 0.2471004492667952 2.2556193166840726 0.6693198310809064 0.5733113457302528 1.7767090504216456 0.9483208488293824 0.14465140702123697 -1.1754324875789632 -0.6272195014994488 0.8782256122762486 -0.3633549760935373 -1.4553406532680653 -0.7742451175671071 -0.22092873283165962 -0.397566258914014 0.2258688531295155 -0.06143175772359561 -0.722895849381682 0.9526726525860305 0.3334376653209292 -1.312454450485446 1.5408627134848398 1.0309604065262086 0.017211863834615718 -0.12605053441979092 -0.15141898478501611 0.13893413686133466 -1.4996065151231701 1.3451702557874046 0.10249714398415613 -1.0339265013523684 -0.028948543532398695 0.6322400754823003 1.03741721767372 0.3082224292817507 -0.7996224539743274 0.06962375159154689 0.43702890785744014 0.7023540157005256 -0.18541301176042102 1.7035107316908933 1.2093133825298743 -1.9271074790386677 0.6145882563356322 -1.1001439610861878 -1.6604895520639282 -1.4117057317491217 1.0893755872773836 -1.4158027561560687 -1.3320610360564902 0.6185729368613501 -0.46387686885889856 -1.571122087484427 -0.1388169600980618 -0.07452269441759951 -1.3303121315837436 2.502560185675557 -1.6730744734697103 -0.14608115324586007 -0.635008120756832 0.13347323158635618 0.5946756255941796 -1.2542626383731619 0.3728065677283688 -2.028225772737849 -0.9605535244188075 2.1122155300696615 1.047156091852426 0.5222833133574629 1.3026161461721073 1.2300077814228025 -0.09274183106949374 -0.44371406569001043 -0.43673269302358025 0.24652089123083354 2.408983385059609 -0.04702201138276535 0.20536375608904237 -1.5114585026787952 -2.0516641844224823 -0.08780750313377336 0.43372694379156773 0.9003054739523473 0.39428070166891505 0.5906273178560657 -0.13636995100018265 0.9629739737382741 -0.4646273741360398 0.5172633049591424 1.2272750902576868 -0.14846698031461433 -0.3013057138579949 0.5801444971295304 -0.009841364355636872 0.386918282560006 0.7620491645516946 -0.1777139989443867 -0.9647511906975146 -0.38598288856908897 0.7685354898847107 -0.29498654335010016 -0.9620665485703586 -0.0451375906528516 -0.48072934304213666 -0.07817927920387431 0.014995183357782787 -1.8559275153461914 -0.8469339516802439 -0.3635655813950571 0.2873596414839017 -0.3401021298668676 -0.9071285022972558 0.6462772432763005 -1.221155922751688 -1.0634509973896233 0.3908596145493643 -0.11789632941555486 0.08008712480187485 0.5097887069102516 -0.7920053546164647 0.519199794460981 0.6247890545757397 -1.0196966358907802 0.6101181794435434 -0.07096072186276273 0.7013818968972938 -0.16631261024394584 0.6832998977351049 0.114837584991351 -0.6932565260527815 -0.2310010081579203 -1.5759733347178182 0.13006995088251128 1.1658819091015646 -2.726646365546076 -0.051499988589406576 0.005884453862326854 -0.6637262043749784 -0.2470724910547655 -0.1838762702025314 0.8098465233708696 1.281430380816334 -0.05873829462760566 -0.6515343028220328 -0.17042258435403435 0.6852604958780396 -0.14346910262752605 0.09427277570198106 0.4662272942764981 -0.32432972531829896 0.9255185939221858 -0.6248444059709283 1.005014865207779 0.5082172229514726 0.219540362235187 -0.6808694862580634 0.8297708482261712 0.4446123054699454 0.7992262586356732 0.4961578608711103 0.6029265037626285 -0.9828612729103261 1.9302438330049112 -1.7988414358194145 0.6918648199016421 -1.6020907077037787 2.328294902662565 -0.8759788952973494 -1.713039916943534 1.034872001365986 -0.9409700476111861 1.1655118526209178 0.6012370907924659 -0.14332161713392416 -0.6660249896477961 0.05011881535015998 0.4367078307034213 -0.5308963491527251 -0.22396418342746988 0.9527585856899513 -0.5711142603944903 -0.7558511151473405 1.3745027446724096 1.5068222940827805 1.184146926596024 -0.14382655354339652 0.5712324898663383 1.5484967433211487 -0.1859060024736863 -1.7937571426595083 0.8640587609822519 -1.3228672819623097 -1.9585527745700944 -1.6249230668612804 1.3894838569797296 2.398937089724345 -0.3073377682060924 0.24214767381408742 -0.14123267373377235 0.39980138548912464 -1.09429364092577 -0.09590475092555964 -0.1869620887712668 -0.030153571267631407 -0.44889875144054464 0.6628673052637285 0.19732105781166542 0.47266299505679443 -0.34592427438245765 1.0478747649617977 1.019511544581807 1.825328740813193 0.5249916047705394 -0.7818228618687519 -0.23218757411352103 2.10939102766604 -0.1388428171035709 0.016002510938340146 0.7086101704628425 1.091550179400456 1.184791351707894 -0.7754357423653113 -0.06962866109471127 -0.43650029730885626 -0.6819303926602112 -0.8190095497354185 1.2203768892358033 -1.667647224824893 -0.4542918829507229 0.4936836295085869 -1.7073395846004653 -0.15751769189409368 -0.46467642488039296 -0.20767968659677655 -0.6314105843761414 -0.3943248738177708 -0.0887828845350419 -0.3156913690391873 0.13827912262067613 1.8514231232731952 2.290155259560002 -1.6434240112008083 0.2086922931273304 0.8038617727791604 -1.10735021167965 -0.7382452416819754 -0.7750282310881461 1.518422308802683 1.396319871923399 0.014994495739025334 -1.7337420584400138 1.3655924839354256 -1.2963874400997972 1.039168976859738 1.5074831358010314 2.04019065676051 1.3668216372766908 0.20884892108304187 0.20806575090866125 -1.7194276949170044 -1.0168030382249549 -0.08546027566819658 -0.4809943796845348 -1.9610043207730932 0.16659657229173339 0.5848108155312741 0.4976897703466127 0.6588493584949322 2.4452622620957927 1.7242450595308614 -1.303227738960877 -0.04941398900298717 -0.953589940064682 -0.07945899365842071 0.3784002636609066 1.127049116868688 -0.5532027569889905 -1.243519092412847 1.2932486522646547 1.230757684545379 0.12045716538445222 0.25237419690712937 -0.48712464593957905 -1.2608961748808498 1.069342975298028 -0.5189053244794244 0.7719887787348213 0.06665409374652584 -0.31739487834862534 -0.7981446263181164 -0.40082770561903713 -0.9718833927926372 -1.259718597050083 -1.1198391863472394 -0.5521345981520035 0.42403490223441287 -2.454095284164379 -0.060667603534665424 -1.0201770485044719 -0.23961447243360734 0.6778228353781287 -0.6701814179281353 -1.4346410536359593 0.5627012630255683 -0.6726763816094367 0.9669607606972691 0.37958061225194356 0.08649923589228496 0.8429136414300316 -0.45559819105617044 2.027877208954497 -0.05578598699046955 -0.3216263789895177 -0.13152035362147318 0.14328388679750031 -0.05252813571586483 -0.009142298385314964 -0.6125111635382983 -0.6684076810231625 1.2219003268884896 0.047713191108902375 0.4403844259598242 -2.156215614522192 2.0420078905057566 -0.6387665633324426 -0.06728174694599946 -1.5644815039781308 -1.3786370784009678 0.8726285252872669 1.8389390195501587 1.4261243540924073 -0.2609404278287263 -0.6003097664719702 2.3002283336555225 0.32720743550195447 0.5293740526286023 1.4574307705595415 -0.152876430818393 -0.6996809621305503 0.5425654189261943 0.08987506477607776 -0.54147763837346 0.321086018370902 -0.7163212243450113 -0.8476310853898266 -0.2905615078043208 0.8370428011990688 -2.14088320061285 -0.3302665982291388 -0.5578626839509545 -0.8285794948815342 0.2770663884818329 0.8270450639613549 -1.8041825308711275 -1.8335847133950263 -0.2243312007941124 0.9728200538376345 1.11806748697186 -0.8215174672087828 -0.00560588307587583 -1.3206790026962116 0.43451506781666965 -0.547106732406654 -0.4857232820874123 0.4537274519029701 1.1299593818608353 0.7120797918505126 -0.04483488756262063 0.3727809053115123 0.7404568400219028 -1.6193944604476609 0.48997081409987064 -0.8003777826930026 -0.12951847399290933 -0.9676789962339444 -0.7556391787619273 1.4407274429666217 -1.0621181544128793 -0.272718132346167 -0.8399068831113014 -0.8573484100734374 0.23712777951122857 1.3704362824562073 0.7830281844670778 -0.36034619740551954 -0.6718276537148381 -1.0969157231739906 1.8561808008694227 0.5015267800612304 -0.061178955102688184 -0.6867034309727571 -1.2369042355055662 0.9872789262714416 1.0837130629613798 -0.3349283045182165 -0.840832611959364 0.2465529487857429 -0.8943352166888696 -0.698520674213516 0.8224825374121223 0.5166027601789032 -0.09395362451753084 1.3491403904091213 0.7633189686400782 -0.6633763280938194 -0.1621926027832766 -0.7118666279127552 -0.6524196069429498 0.527852583843103 -1.8576367633098434 -0.5947231444903436 -1.7479951036196015 0.0016415739428637388 0.5171115398463169 1.6817551045897856 0.28928382121094803 -1.2099501809268598 -0.3501537862043724 -0.43396340839643693 -0.5509968213126628 -1.857428698818843 1.4933744703810108 -0.349876725903245 -0.7991514091150279 1.101442607487743 -0.6774897885147448 1.0528695646888975 -1.3468148389497518 0.25495977605766634 -0.7535975881345096 -0.27835371138879805 -0.13280169010396597 -0.08211246012320444 -0.07248350036418079 0.7427022856805962 0.4787919681487479 1.7650723359342524 0.6906453707131112 1.3269742363838837 0.24873456907699748 0.19915631404634881 0.04833424076389417 -1.3026493663155716 -1.8210729786162883 -0.7844602900366574 0.9795758907624416 0.29254850874196725 -1.617259786299669 -0.13774355326102286 -0.5021101993281277 -1.186963201720707 -1.6439975058702474 -0.17169196578632123 -0.3917687286874855 1.0394078197348235 -0.22741535954884068 1.0897227652576107 -0.6898155868967487 1.131191068271014 1.502812282378323 1.3136547760467852 0.6191384803349017 0.7842344868999326 0.4734164764360891 -1.797604430745142 -0.39639430428896155 0.5965712798611494 1.1336683040113535 0.40278745497006335 -1.7890604146785645 -1.0586965098934062 -0.8369865990568817 0.17352143412101012 1.2769209895692442 1.6771431773674426 -2.606205585521934 0.7167288550107721 -0.7953724918485665 -0.11108685130121598 -0.5153605835675436 0.1394544051508067 -0.3841826833854322 -0.25801839176519603 -0.569830092784374 -0.803454975433771 0.7109983556741207 -0.01301473060968572 -2.019574445931953 -0.4557075728362018 -1.0854454499249193 1.0472822417223964 1.0014506032952175 0.15942396647536006 -0.36635036710681956 -0.3814148810867741 1.116364435524061 -0.3118187076007079 1.1012517948966425 -1.6298357221989799 -0.6098037376396953 0.7871874032872771 -0.45465863708401805 0.29883055501345823 1.3147121395521937 -0.13274158701655167 0.822124676646332 -0.4677743122948629 0.5985027576678504 1.0554551656658269 -0.6366113878777546 0.23951355646822797 -0.2326912687690616 1.2351522668517305 -0.16964441259876967 1.0004722372125823 0.6930777316073348 0.7205528730647427 -0.2068672176689102 -0.9986874683215771 0.07492097321107637 0.1318240121626901 1.7762299223341225 -0.7776379387339578 0.23275788699801744 -0.048323198548068616 1.3248364200325184 -1.835186218591019 0.6473073704667405 -0.37483175925804674 -0.7371782636464657 -0.4581132413690031 0.4701324882858071 0.6021576127605621 -0.347807388863537 -0.9569467502746132 0.5834332407730801 -0.28915921800871625 -0.9676469178917039 -0.28687297127408196 0.30166521571545357 -0.46771820623512167 0.3097546872731958 0.8073405447068509 -0.4797487242489253 0.027952394354161803 -1.043172881234474 0.2848040752529849 -2.3195336560484727 -0.9424038889768593 0.9026033345690514 0.2534077726155597 1.1019920431209655 0.33272994461715155 0.3890843342032024 0.030726066902224083 0.46165172546826516 -0.11719186421402017 0.19592549594121647 0.2174421248034195 0.7992347255485497 0.6984920418829028 1.0832449613822934 0.7128043326207276 -0.5324883747328844 0.2756056919920518 0.24015352094666387 0.6245308193719289 0.6054543664422195 -0.372691849946404 -0.32978666973101883 -1.1290883119926964 -0.05853548821951482 -0.8013289908538863 2.1545202889515145 1.0388750108171159 1.5111187228690428 -0.07403824234934121 1.1214010335515032 -1.4922256095816182 -0.5766662715918918 0.711609141823013 -0.918360019502121 -0.46520369581362797 1.383646188126462 0.3259719488500546 0.19302452722356403 -0.07130277082157255 0.6833142116082428 -1.7533813074323679 1.74851672431894 -0.7064720501392676 -0.4155538707502315 1.6504905703371053 -0.24633950129394644 -0.8647570766108742 0.5436949954447541 -1.4267716154534797 0.08854635935835485 1.4639331241759321 -0.08778221281772464 -1.0177356686597256 0.002128869205739285 -0.024570102829217566 -0.14779777089293336 0.6528059757200625 0.5105465638118417 0.4665338448393424 2.5009221443705054 -0.594525195677345 0.3794524224777711 -0.6538113411282449 -0.3520317521332964 -1.3089719117008065 -0.011348542066489078 0.33170669687072646 0.31115721434950694 -0.133115173800633 0.8559251825560564 0.3526131364825551 0.44236998400377403 0.7486574895750411 -0.09060389054981989 0.33898496860264615 0.11305477023981779 1.537058878958361 0.6380202942287566 0.03898666370636328 1.674495220579142 -1.3380945335990024 1.2086405323457603 1.7881282497775288 -0.470063091493897 -0.09086424081720998 -1.615926302401953 -2.3247548873690973 -1.721489537718294 0.310236263347955 -0.007645825673519635 -0.1337448387372594 -0.38630071932260435 0.7466322488168295 1.9092261451154826 0.20970050052480638 0.6606008490310292 -0.5769540911892611 1.727845259657193 0.17035156737046053 2.083126354157068 -0.1741299214436507 0.5209909989128888 1.3218679733360474 -0.7142908182153824 -0.9046803943612204 0.9404238238855335 1.3543855525823594 0.3814193714056463 -2.636767979423491 -1.6383460944655548 -0.5609210779877148 1.0205348387754904 0.574971089387167 0.714562523196055 -0.05269120087501533 -1.2747701982788595 1.4183508319534515 -1.726751470587876 1.3313662061824547 1.4521336066501094 -0.17574753910297725 -2.4655493805505393 1.0189102208236498 0.06742714349591172 -0.20802021426733674 0.4567290698985672 0.5487483543309636 -0.9841557279858585 1.5379078336795344 -0.09067020313718788 -0.16042133313335682 0.04201768871060742 0.4301664438759848 0.3272928354513695 -1.3124396593839698 -0.2894046875317663 -0.48159086209617397 0.4969234231397789 -0.888392806897154 -0.22912836273053236 0.3489913408259844 0.2795099707202359 0.27820136488547537 1.7922015974384573 -1.9217012462524854 -1.4897938917111448 1.5670437986884223 0.5073871644249601 -0.49534843067404316 1.0374508484319749 -1.4533642921718883 -0.3122555918341772 0.9334988491503086 -2.095535008628952 -0.05234534534563999 0.35596094189003097 -0.26486432608813176 -0.6513510084377861 0.33460586294129885 -0.9956403796580889 -0.6149441443475769 -0.08043229608909783 0.03465661039795978 0.05024535262136219 -0.22872477555423712 -0.13663252270637635 -0.16459526357005363 0.07206952038445016 1.0863515391618097 0.7147342406985195 0.2918445637287814 -0.5580818245842407 -1.9062412320340563 1.5808768939487625 0.22389650626530308 -0.25271970651691883 0.953545143131768 0.4666263256424215 -0.35859500679358486 -0.6035672677382884 1.0736113703507215 1.0056172853242469 -0.030590778247368063 -0.38522082937929264 1.030781936675993 -0.6668823985159876 1.2833251701667776 -0.251273804106381 0.9174689709932984 0.5278451745861032 -0.508584373945119 -0.11951223130670598 0.34679578434826974 -1.3748169881549197 1.1862916497055307 0.11331842258955509 -0.2067748842355117 -0.6100739170002887 -0.3370037592498706 2.4977713576995177
