-269.15805502212686
-1.1551337996102881e-145
5.398057224672028e-145
-6.3663188091967346e-145
-1.5262726751742222e-145
-3.8305297315846976e-145
-1.3046056760228267e-144
-3.583208828807671e-145
2.142838454818397e-145
-6.428505059522025e-146
-9.159322555046057e-145
7.513742411745579e-145
-1.0038780748745134e-144
9.628242583381463e-145
4.761549722936471e-145
-1.0545423468424806e-144
-2.7065581168849116e-145
1.993051839267218e-145
8.257542102141018e-146
4.148146746478217e-146
-9.627679418630887e-145
-6.17794198195816e-145
1.5838466916027233e-144
-3.36846062741774e-145
-6.667746768492907e-145
5.496919703991161e-145
3.484761576473703e-145
-5.5025036755698715e-146
4.6261261420240125e-146
3.4523142048174616e-145
6.680263635159848e-145
-1.139152696605102e-144
-7.733422799190371e-147
-3.371971745724158e-145
-5.207010669314363e-146
9.388541246794174e-145
-6.097842198776057e-145
-2.901706655976955e-145
1.869720793365574e-145
-1.0949298615469013e-144
-1.4404006651748337e-146
1.2974987071338097e-144
-2.219202072158567e-144
3.1167706291377764e-145
9.574605782104368e-146
-3.083095953674539e-145
-1.4856895820219704e-145
-9.480349404709976e-145
1.017715978290704e-145
3.996467841596701e-145
-1.674631403686876e-144
-5.397844121042075e-145
6.708960191381237e-145
-1.7752382096717666e-146
5.979641133874315e-145
-1.416991354400663e-145
3.308370092565204e-145
-1.900642977935249e-145
4.1210770818362675e-145
2.359343019910713e-145
8.568176830898163e-146
-0.007000623274276706
0.003769629781757107
0.001503141978738064
0.02199632811337872
-0.003063070060285272
0.004514496258512646
-0.0038447222457583057
0.014292981888643369
-0.0034143582996988076
0.00039408768711782596
0.002561194479859881
-0.01563422655805113
-0.00021171470758764158
-0.009785904321873038
-0.0034726840472537675
-0.004099189512389944
-0.0046036351372156096
0.0023260160649102106
0.0013492100768595827
0.002279358566382839
0.007839699488765423
-0.007874873842385284
-0.023952081363949607
-0.011986676551330788
-0.007190947847739741
-0.010110257569336503
-0.014920964838305273
-0.002758725911698791
-0.013417419814668274
-0.009774201258692944
-0.0013844574828681094
-0.0018780619230428076
-0.01577013594196067
-3.0560527756933335e-05
0.008392118423653427
-0.015066781243812109
-0.0019658000757654523
0.0017907194491423742
0.002523897707589974
-0.008287947505758354
-0.001951233294020471
-0.007892338615744005
0.013134543615032608
-0.005905939841281918
-0.0010908434177849926
0.007108588969047811
-0.008646179778815951
0.0051010670138999644
0.01636678203821335
-0.003653805545472749
-0.0002221848273835323
-0.002728683396996775
0.0008591567971925447
-0.005139507860843136
0.013194058309900863
0.016686590789095384
0.011413101974395327
-0.003276104185200115
-4.9608536621251114e-145
-1.7827892111022828e-144
0.0016479109623006364
0.003960540588685868
0.015225510956668974
0.004955607266241982
-0.023637879929830175
-0.011318202313796528
0.0021630386307145235
-0.0096395103360203
0.001188791995505385
-0.017503918570573963
-0.01860766805527279
0.00028627424358168975
-0.0032293093952272664
-0.010318484717296912
0.0008135148666059801
-0.000483389553877974
0.0028165377186746957
0.025838691046475567
-0.0011987024029634149
-0.0046441600713083165
-0.02588014918309164
0.0008474017379779955
0.0175079749648969
-0.028420593538447805
-0.006600230415020194
0.01189975765608191
0.005599046133356969
0.01927453033146631
-0.0030509328885607832
0.0029635048897120584
0.005305145337749896
0.003358912788972134
-0.005096024127434243
0.0007509812959502432
0.008364432919976286
-0.003274636708941271
-0.0005758230801450174
-0.005897191641472204
-0.0169774435819337
-0.0002752931481509407
0.005513510535714963
0.0037884299382072
-0.0021905559867354415
0.0029740699121079896
0.0008813589041546153
-0.015047805307578087
-0.012848425301570805
-0.01145676834644935
0.009061534002669793
-0.017767164632452436
-0.012048960632802131
-0.00916437381057945
-0.017563470980295762
-0.01813425977725982
0.003326598929211964
-0.00931331702229273
0.00014567276612755008
0.019801950474494002
-4.195240874946023e-145
9.071782656828562e-145
-0.008854379262242857
0.01720203851146696
-0.008113425719022663
0.011178164697026299
0.015549700293737773
-0.012588186687764213
-0.0015436246973227167
-0.009444443263192931
-0.012625345543744167
-0.03275754819692864
-0.012018176261980547
-0.0010877189723686952
-0.008410859436147597
-0.013433257818218523
-0.006741307354352336
-0.011661894957170302
-0.023192460623955455
-0.009692357547904297
0.012248826608733025
-0.003826567857027496
-0.0034615256451545717
0.021177739495028276
0.0007927492938580886
-0.01442512325359207
0.0032964490223071482
-0.0009122294508616134
-0.008232157279095063
0.007730913504680969
-0.003454245631604448
0.005522295455906185
0.008234807769792522
-0.010270890854818096
-0.00866711072980002
-0.020513435007389696
-0.013598835658823836
0.0027349964163910154
0.007179306698749348
-0.007008590439561503
-0.02885126071381722
-0.02035221339474656
-0.012138358832776228
-0.015117890234587634
-0.00315878944618799
0.0015942986802310885
0.0044076917189166225
-0.017398900588620453
-0.00398074576319459
0.008029633666570881
0.04535252416845009
0.01771576781404532
-0.000533362764888379
0.023326009861473228
0.009731238320042133
0.004692403782248132
0.023837332817246155
0.0041869842574076156
0.0028053744171880656
0.014536959626376966
-4.980206617113716e-146
-5.164261948329814e-145
-0.0005373334866133456
0.0013138267175771196
-0.003629684046358451
0.002311845992020634
0.0007380684520990506
-0.007089494549584946
0.0045080417396254294
-0.000349886239448131
0.018737779691326964
-0.02030532169376993
0.005975714172753516
0.01043718595744414
-0.008641261812319537
-0.010234944212963365
-0.006546510933194614
-0.00424523985866337
-0.006770334786490916
0.007702907455329342
-0.0015197345954084207
0.0015190866997221697
-0.0033099134125459282
-0.0014685648975369032
0.005030993279104912
0.014658649314815777
-0.0010530713836527977
0.0008036342337463074
0.02456823297844714
0.010523487776171646
0.01235958763764516
0.0023565678798813175
0.013503562434200776
0.0037057085583620895
0.00461374440770146
0.015760489196525965
-0.005520773410590766
-0.001447752174515235
0.004370032589157248
0.0015767256445299554
0.006672696954143024
0.003943927244216053
-0.0024176447509429632
-0.0017734774416150526
0.01985454446757647
0.024352293405974747
0.00996612978457419
0.012435739483402295
0.02093597260442742
0.0016122844843444763
0.00704750142735684
0.009066943951435825
-0.008971371787152578
0.002851189150749235
0.00841399522498939
0.023944504955366073
0.00733164502607603
0.0018772069425775943
0.00280044575795798
0.013981545743147094
-1.2075544565458167e-144
-1.4775926943796883e-144
-0.007513199456064694
0.01895440903404109
0.00998536311756841
-0.005767713649045912
-0.0029480091658919618
-0.009667533082336421
-0.0037569112344826966
0.019871675942388298
0.0053580942437984206
-0.0035858348068978176
-0.007378899750792412
0.009507165952155453
0.008141931928867932
-0.02125360239076149
-0.011143218871680717
0.0050834076426933645
0.01269230192508115
-0.017780066615179876
-0.004529460668505608
-0.025119491111714756
-0.015193283331546625
-0.018986240782636665
0.0023472187914092444
0.018161533000453433
0.00892727401738036
0.0065901031069190135
0.0036877114957686525
-0.006254946685074506
-0.0029149775921304163
0.004000014651246164
-0.003653402365153477
0.01494070684006828
-0.004842731765501246
0.011650862664345292
0.0013464007903415327
0.0060409705872414635
0.015245673974695093
-0.003426932429129555
0.0020576916576105697
0.0014265105309319947
-0.002890655338570904
-0.010485437625439369
-0.022687896739440157
-0.012181314871161445
-0.004165833860671987
0.007344269859926882
-0.005412671923565234
-0.015681270682938685
0.0058390384253486525
0.017753384305231754
-0.009702267905693349
-0.004876299923482809
0.013385404991536034
0.013922361769266204
-0.0002577154407293143
0.004543396841254398
0.002203502365810397
0.015946776830119008
-7.251804258592867e-145
1.1669768401521185e-145
-0.011064363539712971
0.0006060997604051383
0.009714754900365176
0.007555423562309434
0.008623734843066439
-0.01643654354074483
-0.003699508628006311
0.02035820489347923
0.009155021809920736
0.006529117652747902
-0.00029856111959801056
0.02579389184894027
-0.012201446525416984
-0.003238253677532787
-0.008976079830108275
0.005244350634436873
0.013436527833655008
-0.007371446131537755
-0.0016409275506897422
0.023204151254050814
0.004760606743344337
0.016159824386761782
0.02015246421675227
0.00422445024685142
0.015348325924996848
0.007485087876832224
0.013817807996758925
0.002538189333704854
0.006652372900083934
0.0012509506594442553
-0.004839780771497757
0.00877708474405211
0.0016642266392327314
0.006396564156591423
0.0011511517330193403
0.010568005105694521
-0.0013220170151047191
0.019264431098083144
0.004917641579823025
6.483944431706123e-05
0.006002185072885425
-0.01821767338098565
0.012895755019589429
0.026797138511536422
-0.0044462739829892245
0.007946442457665475
0.02013366750369265
-0.007561438280864532
0.003935961917712595
0.00489397258114435
-0.003980510369995437
0.0018653886602972743
-0.0018784542626327715
-0.0068506024210811065
-0.0037506939956719497
-0.016127282902935726
0.0006585558636165607
0.0003147375751425246
5.0549545988256334e-145
-1.934065661135852e-145
-0.0031393118787424266
-0.014454194148117237
-0.005954488381600626
0.0020318709586967195
0.0018862373503568182
-0.012019753614466423
-0.0001560872466466707
0.0019559154238827105
-0.00880052459231688
-0.017069976535629628
-0.003610881101998363
0.001619403596154571
0.008991870167274468
-0.002910734609634649
-0.010455738995864843
-0.002845878152922009
-0.001728544216426281
-0.021512635861567656
0.013156921478028306
0.022708437459333725
0.008101096374187707
0.007216449597508725
0.009192278318123744
0.0026344470775547693
0.012447652831278333
0.02779145211643962
0.0077298841509210675
0.017187815270923612
0.00876292881530728
0.01265041992860805
-0.00039058120956478835
0.015015907569759759
0.001338901079499358
-0.003419393371101081
-0.014450840248491399
-0.023508485921392052
-0.001653365472070976
-0.022252363932291828
-0.0015766195879604926
0.014640558056651183
-0.005496487851873782
-0.018730292476548706
-0.027946109889863322
-0.01243822310329123
-0.02195931209450829
-0.023665373882603605
0.0028263235686969107
-0.010854713521733379
0.002804475979497311
0.012973621772479346
-0.00026734117289268984
0.005487028799597361
0.01719471877226651
0.00879870328372785
0.02353950193602296
0.006241421634318364
0.0011723399018894382
-0.00012405638185516605
4.606278659076779e-145
-1.8397938646561325e-145
-0.0008773972179251233
0.006004574878477402
-0.019106092197725938
-0.0020314829979445055
0.01472113229990434
-0.0021983586005019946
-0.009431227479994376
-0.007868048816333583
-0.008035422879680844
-0.002807458021177952
0.006621442845556826
0.008106894822529409
0.0005441277384593467
0.01578512641797626
0.006949016954120482
-0.014160139903626079
-0.008543084284383131
0.0020060061235315637
0.010776199890183299
-0.0009042616030831599
-0.001630458823404245
0.003972495764882227
-0.014152283992678531
-0.012220765224347164
-0.033626229326146284
-0.02558137572155729
-0.04452128793013206
-0.014692636564124421
-0.0028808690986846597
-0.01724613318622239
-0.008717726308337188
0.005026682360006133
-0.014515466723273676
-0.0005579799474521202
0.0033484714049024024
0.005900357428617866
-0.01803153276479176
0.0012052250802491974
-0.0032043770732392406
-0.016861902962631778
-0.019846112462800703
0.001039013330105742
0.011679758769311073
0.005792304287768086
-0.002462584951795611
0.007812636099340818
-0.015013598523413631
0.012860216494353722
0.020531586840924158
0.005909476119993215
-0.012521039061123304
-0.0171179889177076
-0.0036447571712409617
-0.02630001933830236
0.01235301643500827
-0.0022771690861652857
0.00010090799992240569
0.013819687759800893
-1.34162074724823e-144
-8.509260884928188e-145
-0.011050316704757488
-0.0029178429282903855
0.0024334496383456744
0.0013466452844796447
0.020651679081359498
-0.014231051518321339
-0.013819139261595323
-0.008987621628057607
-0.014692805661123043
-0.0008752732987420583
-0.015676042319321872
0.0029111115479392696
-0.012140253287479448
0.008727447873799503
-0.0076128662209187905
-0.009998861755010463
0.020066136606058296
0.004264792191596607
0.005282793957831266
-0.018422947847746698
0.0007248138440154838
0.0074326192306553105
0.01692306521583923
-8.595929620246367e-05
0.0021679062794962766
-0.0009777447397736224
0.0017825406441188435
-0.015597884136985238
-0.0007554137667682555
-0.00034468005502404347
-0.003611527327701645
-0.006323177137369467
0.005945353046586068
-0.009154809638147281
-0.004894110589306586
0.004393519945985854
0.0007621318975085762
0.0010689813522392554
0.018309638145255352
0.004234950464794116
-0.018676576426550177
-0.014927204854843107
-0.007516883501471967
-0.008482528053227386
0.0019179660749525141
0.006210613033777676
0.0031482082233246144
-0.012026668587466361
0.010358232561373148
-0.020499481698602356
-0.0064953308606556705
0.008109297771962974
0.0053606750404177166
0.007302872679442288
0.001326422460998255
0.0074665846622817625
-0.014655043936611493
0.014131055884482087
-4.826184711457188e-145
-1.1994841683236742e-146
0.010773952744925114
0.015269806788249102
0.010418568817794644
-0.004099477067501048
0.0123044178328442
-0.008388362161773322
-0.003477130241106313
-0.0014739020640073786
-0.005141651741128258
-0.014365592608298129
-0.013947062215640117
-0.012118170716312788
-0.023135788485225663
-0.004997717212427579
-0.0054007975370533095
0.014245440231530852
-0.0007010225235554523
-0.007282379570024227
-0.008280542414164356
-0.009939357203497699
0.0025975673882356804
0.00728460001713465
0.0026694198134556576
0.007593442987430822
-0.0071511579305608445
0.01214008860393046
0.025368522246651825
-0.008894555435042674
0.008595552244444315
0.00043482253578335905
-0.008561283967149969
0.016593236572347812
0.02648408498863361
0.005629646432488453
0.005228267493035276
-0.0012973867829296417
-0.013587128170342888
-0.003698372571661456
-0.011117610320023664
0.00998087576480309
-0.005730175472766658
-0.009044822602183237
0.0017396460046284988
-0.006122576993317866
-0.008874378033480441
-0.009125883319438833
-0.003243001176295422
-0.005041736957762739
-0.008720132302192783
0.01309995254855378
0.01365583319822323
0.014537309749523285
0.025718198487641255
-0.0015183630646383338
0.011879833076670385
-0.00804672375308929
-0.015427642068305363
0.022133262473000057
1.0369052836662865e-144
2.425894841008603e-145
0.003753044733605628
-0.005320479275230998
0.015555457540129986
-0.0019473135701182473
-0.02007954943673248
-0.009958141288050669
-0.0055614855901251325
-0.006188922783076473
-0.004138103873110387
0.007776307925128967
-0.011967522567514766
-0.007442609212973794
0.016164802806471222
0.0004378874107046272
0.01231115178583249
-0.005719522267445546
-0.01722070812318801
-0.011060852896812719
0.010620192632806016
0.008463777709422618
0.0028582619726182992
0.007236120135856965
-0.017350808795209328
-0.018052879241445944
0.010045929532079523
-0.00018767497848544556
-0.0015924524207564068
0.005654344588859857
0.001180400876447536
0.0124467981326019
0.004930912333878145
-0.002585948218085749
0.00010680482788396534
0.0023222189373883974
0.012262347849473738
0.004378248374517685
-0.012009758358233867
-0.014290373763204077
-0.010063318649434994
-0.0033621673566071202
-0.017012848848098026
0.0018445517887196044
0.016281613485935008
0.01422949587121804
-0.003141075398862789
-0.0016732387985670966
-0.0032828447245439687
0.005483894053943409
0.015169135818652719
0.007307079700474554
0.016217435195435816
0.00028107831917500737
0.031912984924978675
0.024339657192385334
0.00645158207709844
0.0017977804575437766
-0.004911537938216563
0.020910365925170305
3.238907253180301e-145
-6.079444085037884e-145
-0.005646888416043114
0.003315517837861629
-0.00631919697621181
-0.0016401383731261382
-0.012305447145647425
-0.0018057929968469993
0.0008430446944557793
-0.0037139791828582243
-0.0018925989967734109
0.0010716225799130494
-0.0001608298111357401
0.003481773749464319
0.01782718967605794
0.0031025129176506685
-0.006828882180449078
0.014996073883693959
-0.002182296869615902
-0.000449985495574291
-0.002551438483024215
-0.010795648201904423
0.0235270842679894
0.013849943279873527
0.0003662354015948338
0.008331494865407641
-0.0008670786289151484
0.014347898593531076
-0.002120248832705708
-0.005162087757710509
0.001498428734670644
0.004294898536889194
-0.0006744823080477567
0.014587054577159492
0.00775939539417937
0.00999818457493607
0.011764384892515939
-0.006470400256685585
-0.015003799349457225
-0.009767567215075061
0.006162620713220471
-0.0056373176188092376
-0.04281482737385304
-0.03176936726577118
-0.01556831274109824
-0.016453668594562505
-0.011865579932484683
-0.01161596174413699
-0.0038512443792226084
0.0015874545838538232
-0.017702204714987894
-0.008825608563848095
-0.006414634353704474
-0.0007576054411394788
-0.012655400619831633
-0.002023302940566048
-0.019162753978347075
-0.0013396650662927789
0.0018794566162227055
-0.003572582554459136
-2.2198040584678824e-145
-4.446908321973848e-145
0.002218414051919079
0.012634905643303877
-0.011034077353078068
-0.0033026845194945717
0.008896056252492852
0.0249495034291847
-0.01340387844183128
-0.017353409381896705
-0.01837280953661033
0.0025530421738191034
-0.003012141931790475
0.009080463741964985
0.000616397137908186
-0.011811465715696037
-0.01097121004432828
-0.00925088990855533
-0.011872592777289838
-0.01951728396972484
-0.015069235146507508
-0.013100861024687467
-0.0008123158583509624
-0.016498782532713047
-0.03123527528156919
-0.025881796015017056
-0.011671374965183818
-0.022029941348755022
-0.009183052087635576
-0.007985188326007359
0.0011224868564011416
-0.01387368691435522
-0.012843634683647078
-0.011907791843562483
-0.0022659551151358627
0.008148752895585193
0.015714777939585735
0.02487386614757859
0.013372370029822736
0.033758906108551236
0.0038139001930044
-0.008117575636892027
-0.0026341358645610934
0.0010834129397656687
0.012079423457949837
0.0006782124061482079
0.01032655628496524
0.008958477116428793
0.012719270366104422
0.020894158601050376
0.0008150253478705753
0.007855913474606202
-0.013972933511197471
-0.014000764389746604
0.008479538292368102
0.017489665687398907
-0.012524239371625898
0.015730773242185202
-0.010427481373080322
-0.0025796655228887246
1.2316782439174914e-145
4.111623723730033e-145
-0.012061117532501404
-0.00934108233403782
-0.030934913967727108
-0.016228890273278264
-0.011223970448732374
0.00021817773352435753
-0.007013397711993572
0.006095799086950396
-0.0042951098334677255
0.006716108416929913
0.011684269376200046
0.01364452945482782
-0.010240076818659677
0.01133538659101555
-0.0003136642654119162
-0.003825247495886518
-0.001997232129294628
-0.006654703314490515
0.011040203458418869
0.0077921907684771075
-0.013249832866143504
-0.007366101934233289
0.015955557235964684
0.005738376612627264
0.0025824923520474663
-0.0017546506199281663
-0.003634086761880767
-0.01922540110517229
-0.019413133114201588
-0.010082236239028016
-0.012776340544041523
0.006403850804020068
0.0038973727872992944
0.00948770952896033
0.0050940236377981524
0.009056688942953067
-0.003311025532506964
0.013595959574371904
0.011963907032120573
0.01751661049338517
-0.019363934142186463
-0.015316217039670437
-0.005626239670235697
0.0012799013211872684
-0.01194200510444099
0.0011260985425194548
-0.005100416427700995
0.013807955855878292
0.004727038162774505
0.013663163091462278
-0.024676712175440263
-0.0018150103478856963
0.010904252206633193
0.010788244128925553
-0.014795801382368391
0.0018449748238867118
-0.005080129136203737
-0.016490537782467195
-3.713606294350329e-145
5.413262863032142e-145
0.004100197426699775
0.018779370001436094
-0.015786037362496872
0.005521814805958655
-0.0024683353955713004
0.021455715693793648
-0.0035819295673838176
-0.0057727430255328
0.015760269793716624
0.008149408225960442
0.01722655259888733
0.011057205165304528
-0.005917438083146291
0.0218846788987032
-0.0008340363313440857
0.0028952481737983637
0.006978241549592751
0.004947433718863116
-0.013089290967431116
0.0019088863404654647
0.0015374840422420072
0.01609506497931457
0.014461122616068257
0.009479723900978879
-0.003086367249246023
0.02304257203116073
-4.59206316287679e-05
0.01742046423348423
0.005755527705076874
0.0004327771474157403
-0.03170452289909271
-0.004113315702072428
0.001255714144080166
0.006079887023778992
0.003639528236287158
0.004511693071997705
-0.0006744856868781238
0.008386636210668506
0.00876839033240962
-0.012888546745181056
0.022812159504484574
0.005933777057087124
-0.00018472484679257333
0.01782276723297115
0.007677163336116783
0.0064628700008532575
-0.011661625654366032
0.00628031318174013
0.01878573099758553
0.002173810880119098
-0.01900940217557504
-0.0035919527422535367
0.0042670958423944
0.015341475361596326
-0.008146769249050327
0.00893750961519296
0.010115526687699215
0.0031085698306257854
-4.892797509102837e-145
6.214165969100718e-145
0.013360412147627225
0.0111112410193853
-0.00821632350471258
-0.029301813363553936
0.016353430154439744
0.016282961478668416
0.013901102805124991
6.914570597599895e-06
-0.010186658922015411
0.006383245989848776
0.021623337754508212
0.007371460382088511
-0.0011088350441741423
0.002003698173592308
-0.003190289043050441
0.0022687171679995196
0.005486036506512147
-0.020731482760947034
-0.01631214110916245
-0.006359533293901874
-0.007679568604054666
-0.009648267498143934
-0.004347951878252216
-0.014520189754066359
-0.009868286930443611
-0.006438518342224492
-0.010171135957135983
-0.010814576251280721
0.0012578244211439349
-0.0002586198017388735
0.0018607468403263293
-0.028317255538365393
-0.00426442746609495
-0.014641387900822138
-0.010201782461508909
0.013831809287566891
0.009162975135429517
0.0033051830693900143
0.02788078362537751
0.011281795909843998
0.005591669474755
0.0017867505666823735
0.015251789791210349
0.0042741311464648025
0.003723341885949969
-0.0022476863758835583
-0.004308264205075592
0.001664972474094717
0.02991439709237157
0.005130351838431678
-0.006226351573447015
0.006610373502709429
0.0016333462660779955
0.01443288247861471
0.0011946309337154057
0.007447951356635948
-0.00365623970913927
-0.0033899308780203003
7.828079741546943e-145
5.649862952687129e-145
0.005124150838478049
0.008717012985317619
-0.013162617521032803
-0.0221347129767879
0.0009483717307383769
0.014728330688154451
0.00037909225608784465
0.00275290049635689
0.0026984150429024494
0.019327417210197043
0.026182958706615776
0.01885872734408272
0.008417087487260342
-0.019463655489188863
-0.019094411434773122
0.012950014724924899
-0.006884186567805579
0.009519585840782139
0.006157981822447709
-0.009592461033791926
0.00476583520568692
-0.0036188623618067925
-0.0199560499100429
-0.00611431519003014
0.01364209480231247
-0.003421751573561103
-0.002006747852350565
0.016330423280602732
0.005219601258506191
0.010827624045804953
0.00038068850746777983
-0.005573649132816836
-0.0009442585892865869
0.010919371854479552
0.010732636144365733
0.004771664827976965
-0.013587821304305577
0.0035316493477459015
-0.015054779974089778
0.017532374963047544
0.0029791189805219733
0.00589709544014152
-0.0010672561880570503
0.011854966276262202
-0.008181516791248428
0.018538303810353075
-0.009463702651245763
0.012699790909788825
0.002324425536444713
0.017917475546646484
0.01190626179228181
-0.007422428136197697
0.010208586866574361
0.006544508058271918
0.003161417297504752
0.0050390507512241885
0.003389365928015568
-0.0012806563786619725
-7.340721023792657e-145
1.5562736217484415e-145
0.0005682259698694684
-0.008876379415651902
-0.0025316668643847796
-0.004846914382004284
-0.0037796361834801133
0.0029847510249436434
0.04497050890827304
0.0061157221906507865
0.020730495508296674
0.023181353781884267
0.00030767811022110625
0.021235306913101236
-0.01448222904644461
-0.02515991160581697
0.011370151148318151
0.01232075920351935
0.002376562727294366
-0.0002214538961501783
-0.0075274366923334494
-0.0059216365784768065
0.0022370567626505454
0.000686725308238814
-0.0075132979873374596
-0.013833705004393715
-0.013814435100502143
0.009115227132248225
-0.013728191565586289
-0.024625348382622085
-0.01750379616697419
-0.005679176881666312
-0.029794133333249484
-0.0014250267503042161
-0.0005726304142465353
-0.008346334072100683
0.00670380375499699
-0.0002859960161327472
-0.005842519672108569
-0.009025381921746036
-0.028205182045991324
-0.02306026497051998
-0.021527549906329855
0.008958161939467144
0.021380693325487976
-0.009708852149256035
-0.016673760260452048
-0.012867934713238353
-0.019203427627759447
-0.003925819725424416
0.017129080945586628
0.02459139149708959
0.00840547639390637
-0.005020618610532748
0.004202088398925699
0.0068555023384966485
-0.013217526843654442
0.0012024435067993057
0.0036257855009524894
0.0021834124351182726
-2.1394785969112483e-145
5.505314843673006e-145
0.0016935923821463264
0.005073598469887183
-0.01179055593734454
-0.004204848741974523
0.015677921264689903
0.003789483078709416
-0.006175194092915127
0.03601256915149372
-0.0026753268149350166
-0.003162764697389582
-0.008124762045987218
0.006821461128744784
-0.00329983621095351
0.00591385928799278
0.017900623393397076
-0.0015729474756744355
0.004654293192104494
-0.0062929190804779525
0.015253089746256797
-0.0009054639633828441
-0.025919838342221342
-0.022689609838474057
-0.009260197379324885
0.005949080273135103
0.004609635748466773
-0.009861264942091198
-0.0016698854806966948
-0.0024143439924606586
0.005857596471057055
0.0075388844627876945
0.007678454527561796
-0.01946914673043512
-0.0016975417369122572
-0.0004837975224192489
0.0014723362328299579
-0.010619688231234188
0.0104487930687514
-0.004267729087930268
-0.017276242409240992
-0.02070221312167293
-0.03159610603189686
-0.00013158426632636604
0.01168440155571129
-0.001817585959410575
0.015769586207032716
-0.018192576074633007
-0.005593241755844637
0.0018583672490530554
0.025874319537812378
0.03607208048072861
0.021160690446061586
0.00012566813350647508
0.017326340822986043
0.014087540811608925
-0.0038508212102922467
-0.010309589416142824
0.005678057379511016
0.00483568836439597
7.477201236752866e-145
-4.693914049415108e-145
-0.00034246359212145776
0.00530829977175203
-0.01308398615563287
-0.00024274137794247282
0.005862455622293116
-0.007841846721753304
0.012095514761232464
0.023603028173429318
-0.0170964415818591
0.014672287533564234
0.011873735085650438
0.00714618449001078
-0.011551823095606432
-0.012359042003005163
-0.0003872253914099042
0.01616087026548413
-0.003210696945427246
0.022662384115252995
0.028708750290066976
0.015072680109197874
0.009021436223154596
0.014535921225566609
-0.008299097965708227
-0.0060596413942583405
-0.00033908645482535083
0.007770004032990579
0.013237827463030054
0.019403949051049557
0.00801192470295635
7.317251461973461e-05
-0.0031712982472003252
-0.00901916784126266
-0.002187840168704384
-0.002720959092833271
-0.005084931073224296
0.010841227759669851
0.009341229988931193
0.02122715706209659
-0.005985300777484564
-0.025624644990099973
0.006411960960340912
-0.007887398983966351
0.021146931284566763
-0.012628454060689055
0.005560796595403405
-0.010838120155042798
-0.01736446706820663
-0.008645512530805984
0.010069322814121843
0.01834585423590035
0.04014699118348365
0.0029804683573830685
-0.00908319963808564
0.024063884052947206
-0.0024355037309342032
-0.027191772551709622
0.026951940449864042
-0.006942480109555814
7.208948249357383e-145
-4.270447458121822e-145
0.007668950388927683
-0.020653180824939037
-0.014937788871777154
-0.02121233114715802
0.0008766673976835579
0.004383626851763224
0.02152115844111674
0.005990836111556083
-0.0016406848359154104
0.002303750612130627
0.017768976506665864
0.011927152807328565
-0.0028506153321227108
0.00909042718001366
0.005483502498650484
0.001447679561353629
0.0027192524075131826
0.025621216182581716
0.013826611396126062
-0.0005311322166743692
-0.004351436705169899
-0.007465043723327088
-0.017631880522467284
0.009280471160523924
-0.0002596936047477023
0.001595276790064826
-0.0061060305185082955
0.006270563190811491
-0.0019951608873108617
-0.006364054339808223
-0.0164917517679769
-0.01899373412678882
-0.007309029398223801
-0.0064545043178968475
0.0032373203517520196
0.0044226712466612006
0.012884777650825158
-0.015023376752963233
0.011498427291562151
-0.0073388862163993335
0.008748147898711924
0.00720733588054212
0.006230301220670049
0.013311492519800546
-0.007246913697058501
0.007385296088883093
-0.014354292606338807
-0.00994838590368022
0.00997289668581284
0.014013656212279827
0.031837291894719594
0.00253945415732261
-0.013958205280468467
0.014507420794418994
-0.008946085623096468
-0.012245657325292845
0.030574258328099468
0.00945184886114453
1.2744648828114948e-144
8.876459661546926e-145
0.0014750707231240322
-0.007912252644502588
-0.008248533187672331
-0.007301410850158732
0.00868519232777006
0.010439240832664079
0.007377975024717832
0.005756061530607131
-0.01178014074016679
0.011263672204788858
0.015614052566760423
0.001904663349694126
0.004278604355973328
-0.0023252337963403117
0.01248405900107047
0.012411661940704971
0.009920548657360863
0.02871882601140608
0.009956234735041062
0.0074338991251055465
0.004854312754070066
-0.02196452665672012
-0.0017008756904409506
-0.0163297134205304
-0.012494363741671153
-0.011159935349003506
-0.006115687613655655
-0.014299073588775755
-0.016571059425552523
-0.013734969235738526
-0.027443676983563484
-0.0031341057964812983
-0.005609552496418185
0.010654517870000357
-0.01565445211880926
-0.009202219957639387
0.01671093097082503
-0.013873092145416653
-0.004763354679704086
0.01115812388300245
-0.001598293952038904
-0.0023926053155446866
0.027863871111942336
0.028077451166360377
-0.015267611895088318
-0.0011395773701657493
-0.012011981016368049
-0.009784317548046928
-0.012038135929902273
-0.019737216010469308
0.03427453494802112
0.012638860601822741
0.0042493424390647565
0.027332814888269677
-0.0112243072935418
-0.0003680246354142654
0.00995666619925786
0.012111227534179288
-4.9049586998873766e-145
-1.2958284877746373e-145
-0.006988298226637498
-0.0009441244835383683
-0.009381680315251007
0.0009202044778138943
0.009408907208027742
0.024792059263534654
0.01034382112062955
0.012042563484195995
-0.02385655841511068
0.0073401456254083616
0.0011760618206484198
0.003598059999848646
0.022364143140308188
0.002771309622194475
-0.013374592402058313
0.022664681779785294
-0.0037443837555230885
0.023458377274319514
-0.002860042839689108
-0.002153280877539672
-0.01373903708662609
0.00926225671620941
-0.010430571902095918
-0.006547480178295623
-0.013279268903284562
-0.005042267601897672
-0.0006589129773591454
-0.002020330742065488
-0.004920520375316844
-0.025556721455445245
-0.002228646762007397
-0.0006782452003596503
-0.005389544634955821
0.002702595890434516
-0.00813210640232183
-0.028456618844830098
0.0008287227509287227
0.008446708179472876
0.011156457663068046
0.010641850916663944
-0.0013074890665569782
-0.017086823173227003
0.011177130153053867
0.015540027057948519
0.00026087310180913204
-0.011865617353869725
0.0031471659900669433
0.007214301520826421
0.006266630600856139
-0.014105355408145103
0.029847978989010863
0.01263457256633109
-0.015327703992472345
0.01680727618175492
-0.006218115494911571
-0.004468683853835127
0.002259678889175435
-0.0018122948889521765
2.7424458623553082e-145
-7.08300480865526e-145
-0.0028993419401672784
-0.009082862919880514
-0.005213033012110567
0.0014073318022161717
0.011473288517111737
-0.0023143600791588072
-0.020867507711980038
-0.010519643306476353
-0.013405603855209261
0.0027664357947509675
-0.01178477851274424
-0.012086722550918451
0.006065759355799209
-0.007686307841617013
0.007888960058106588
-0.00435727839630751
0.026331476395872664
0.000937430150998579
-0.030561278121325124
-0.019387136246975304
-0.02139223678714972
-0.008932729161886928
-0.004944341608266552
-0.024600179873570244
-0.0360765037181044
-0.0036498225971100867
-0.018963007190376295
-0.010933507846795117
-0.024497867123483476
-0.008314247844865069
-0.005808972907455421
-0.005479393345947974
0.0070845494463378424
-0.004786778707026323
-0.009374658498063414
-0.029563069645575146
-0.0074757780375526274
-0.022325867498913084
-0.011298407244133012
0.0018093989845893816
0.01881472747021899
-0.007237695196409161
-0.011580926240128332
0.010030356020389108
0.01213459370832604
-0.014972066755185382
-0.013705305971066388
-0.0257736673375892
0.0021949743596780674
-0.01102406610422638
0.024799753308811928
0.027313549936991744
-0.0011114566795319934
0.02435251704514309
-0.004507896217172525
0.014208567092693946
-0.0011307752356293239
0.0012582674914108014
4.328443952748701e-145
-9.393142016324736e-145
0.009251733966689851
-0.020580538398182625
0.006418653323257537
0.004912078546262011
0.0006964994216867175
0.01334754823508077
-0.005510312805955618
0.004252705018382441
-0.004313678541459859
-0.0038889400207406857
0.006166212847239267
-0.010359382085074012
-0.01673565274117712
-0.010676940080405279
0.010632341019783836
0.011370462788446244
0.015466456445613182
0.026335524476706056
0.013866699755937134
0.013342105748217646
-0.002918183658729387
0.0021665461363436075
0.0062816725969199036
-0.0029135242632380076
0.00695944098968227
-0.012511007092765845
-0.013073801472150466
-0.006605792466280555
-0.0025789361719358644
-0.005186251774267065
-0.0287888920286871
-0.0023072057060795938
-0.024503737055336153
-0.00269746536445527
-0.029212571878432493
-0.011462929337630814
-0.005424449311119838
-0.006687723941669667
-0.033151989214878066
0.0048302372334822
0.01710286741652088
-0.003411599462497162
-0.02666386557177658
-0.004523378978117014
0.013652616620449774
-0.009603140151760661
0.01184038153038494
-0.026937534470751857
0.020282076274089202
-0.013207718193115
0.03263154489530432
0.02015113457889532
-0.00809461176564457
0.01168000765217783
-0.011220617116060937
0.008659350433868066
-0.009029881581091363
0.0068439830478802584
-8.09142162582471e-145
7.043512072037404e-145
-0.0007095342496167534
-0.008210783149563217
0.0022341337443776577
-0.0022598353400820185
0.005827529002467627
0.018614386935015423
0.0037266856832362423
0.006568540396966332
-0.0016538147865549024
-0.00932445653351513
0.004595877311040465
-0.00945414867860146
-0.027822416769766226
-0.0010073614973819473
-0.007010727493883279
0.006113864073252167
0.0015810878721601463
-0.003212920019842509
-0.0033462991660117665
0.008586034234141475
-0.013691043106880605
-0.025719842495825533
-0.001932337574315832
-0.0024162108421664314
-0.0034127665688204667
0.01258029234770752
0.009032261285560594
-0.005934096040381052
-0.002072779150780367
-0.013376576071869479
-0.02282898893804702
-0.005271743399887387
-0.0037326185397185204
7.960419795742143e-05
0.014343817323830702
0.024818000407134458
-0.009841761681877923
0.01772773159421427
0.0001104129568366034
0.010418162534284545
0.007275190906268208
0.013686420143134106
-0.010081748969626339
0.0027335338227522945
0.01704829856854069
-0.018951695289176257
-0.006694512283983286
-0.008817825530563874
0.009276486208877586
-0.014643353704398699
0.019102087643238213
0.032183912307227856
-0.020004238572152163
0.022805224314682307
0.00020261124372811996
0.013709993483552953
-0.012635374513741167
0.0034795321727893007
3.29185169421213e-145
7.92784386904451e-145
-0.013757542140070148
-0.005031353540626481
0.00880210016522051
-0.01901704845682474
-0.004244236435254004
-0.014545323085268541
-0.005105768209892778
-0.005847573781333228
0.014016578130714543
0.0018473911917302058
0.004468164041359497
-0.00869800111768088
-0.03412719589496755
-0.010258946241771288
0.008049121398362918
0.032043737821476896
-0.0012933672807225642
-0.013826791808554088
-0.0007366494618446392
-0.017998145261132036
0.020429901121919065
-0.003998170683998019
-0.0188279356738715
0.013188284157504901
0.0032853404822075377
-0.004267254447356696
0.008639124648465757
-0.0011734924307678033
-0.004086746215511471
-0.004917707034402436
-0.005944231370105901
-0.011570745504033307
0.020164112010324853
0.034610586546890344
0.01907715849223777
0.022247620442211593
0.016027577996262202
0.015482862838994598
0.03255274611883237
0.02639500763286451
0.02164952672965511
0.006624250845874786
0.0065050154336786245
8.037277884902737e-05
0.002687767748478532
-0.005215907225038083
-0.009606581629173277
-9.294044366093556e-05
0.001946963768297616
-0.004275242328246145
0.009135351661639528
0.012652027491374724
0.003526301227639349
0.006857600830070176
-0.015014728140928994
-0.012182670169618989
0.018009022049142093
-0.0006297128549510277
6.386926589839761e-145
-5.510814115395351e-145
-8.691770516153928e-05
0.016443216148394293
0.024938839410687585
-0.008665204956973024
0.008744416006185139
0.023526782621752357
-0.009262001119582891
0.027454827711773017
-0.0032841508093265893
0.0029710208119982902
-0.025832145024526177
-0.01061428534593092
-0.0070652059082382005
-0.0017959820842504022
0.018701034961845907
0.02413010906020935
0.00012391941209041954
-0.01488030982476938
0.0038556447182074567
0.0033555855201210594
0.0006929244884316643
-0.004438441723142906
0.016734042241070453
-0.020929853382701702
-0.001865467738896974
0.013043453509367217
-0.004686924524045279
-0.015549889488866077
-0.012184810709990689
-0.012693188226937924
0.0022743748651728153
0.029151406640305324
0.0035384074075858855
-0.008238188721511818
0.004719837432206806
0.004576901033888118
0.0025150891666369034
-0.006362344927183045
0.008971838520758715
0.002740510483228898
-0.005909599687432006
-0.008697127393535446
-0.0015749005963970452
0.013018093979529754
0.008038076130195665
-0.008837357146233434
-0.014676141364876785
0.008998561799222498
-0.010230806115410081
-0.0011307899041488323
0.004056946305010179
0.01563151105503585
-0.0008719927721828266
0.024301018445212888
-0.0013269320931039977
-0.0025853502973889643
0.013420740718772329
-0.005813292291831209
7.338386429046606e-145
-9.980070725151146e-145
0.017724431081116085
-0.00038802292798685936
0.034880340635540984
-0.0071648615689157025
-0.007654880010988645
-0.014357871630938213
-0.007935333475481787
-0.010288490523035236
0.012966122151077649
-0.0007144473022857043
-0.007882040924242658
0.010308951542479782
-0.010119095204477176
0.002130795608790396
0.0040751693642876565
0.052120866559012095
0.0006348021646259661
-0.019309730013219395
0.023068571587666967
0.020539363601931346
0.024148387598667772
0.018551309323837514
0.0010347677909853103
-0.004064051053852335
0.006975521606496189
0.031029143609332278
0.020095379905741364
-0.0022451104195682914
-0.006788441463199399
0.006401712666792545
-0.013137073522658239
-0.023207945086098605
-0.01310821788295575
-0.013930178323179656
-0.013776306867406076
0.0027617584766631287
-0.0011009916842150077
-0.015407179194620828
-0.013806941709993088
-0.01965681608308539
-0.012878955634154391
-0.003369435615379483
0.02425952597486868
0.000985959511000483
0.00598506221008507
-0.016804679581349555
-0.0009159100828641988
-0.002149145437191335
-0.028719204699853985
0.00023946169969271913
0.031461352895828014
0.014830283531007751
0.003779105893614412
0.025009558155510852
-0.00600691812845275
-0.008710946625293451
-0.006294327790572735
0.0039062065685509084
-1.8764194202411086e-145
4.5971464349268335e-145
-0.022581323166746298
-0.011349489336052412
0.002585268763603578
0.0037622554637437074
-0.04226596822705132
-0.016032095502212778
-0.006846093633182519
-0.009467133834604933
-0.0023343039814777834
-0.018192538782675377
0.0015735306610591907
0.007803533964431349
0.011263983909646126
0.01060490440989904
0.015855716168087265
0.03350873673992486
0.005592670290075283
-0.0021929135941923797
0.00469295321844666
0.0073234495348512675
-0.0006993253425702016
0.01242521296627121
0.012733777487789404
0.001987440796369924
0.0021950858286324875
0.006206952208496416
0.005024367305733511
-9.744506471382725e-05
-0.00539031003587667
0.015233245588710104
1.0065897773637033e-06
0.017891434366249383
0.02077080776954126
0.008979629723355927
-0.004606992439286435
-0.0019552683992916007
0.008374734222971686
0.0013469203557193107
0.007222572910821151
0.018814915985672552
0.008623582356661125
-0.01180180307029458
-0.002903305191080155
0.015296849467272555
0.015096255789705977
-0.0034641698583350792
0.018197198476517528
0.005711244430719616
-0.015414504200313352
0.006294022336309489
0.03290732562040676
0.007691474832812138
-0.00698137113836342
-0.0009070470735830129
0.0019858054125304124
0.012224518074293833
-0.013885257091609638
0.00477212366277705
1.2202698259395396e-145
-2.678047384746146e-145
-0.01648440522994081
-0.0004393223990538927
0.01144202848707939
-0.009629848685376308
-0.010515133616102554
-0.012399994904150696
-0.006372262902302524
-0.013344897031892577
-0.0011749250576526347
-0.006404088454918523
0.014513356049944495
-0.01848353246595845
-0.01633829810141326
-0.011887681460071495
0.01701509414996231
0.02134927596620521
0.011990024090795722
-0.013108904549543778
-0.018919346250211883
-0.02930560077471902
-0.012210395775350652
-0.015422078297069482
0.004250828425165584
0.027432830220636136
0.01256918813360938
0.026832299285401533
-0.024272583974054678
0.009120658645192507
0.0028002011348519564
-0.02117010103519975
-0.005624918443026793
0.014002635426951932
0.020566859034352996
0.002188292802389534
-0.014582401275101088
-0.004539079296421644
0.007922634296902886
-0.006386949990494645
0.021986159649708473
0.009257325756820511
0.006937313685080213
-0.016235643108670515
-0.0008213713176052302
-0.014368340475525857
0.012553379118033739
-0.008708731434045708
0.005443023570855862
-0.0013994049810853396
-0.010797478122013737
0.0010567510934134875
-0.006356467772965637
-0.018649743500016566
0.011484278043975263
-0.008282473798009275
0.01283842698307752
0.003553063803370458
-0.018355033877383596
0.005434265316559895
-5.953239856142215e-146
4.26480299235262e-145
-0.0214075064985786
0.011403277581775957
0.012123222271826313
0.002991121639185605
0.0027525793978140072
-0.0013771330321947848
-0.0016812897564685062
-0.0036602980910800434
-0.0083159005051638
0.002158689919192373
0.02332908421117545
-0.004838413868700402
-0.0249446855109315
0.0007995994903981998
-0.005962363310654141
0.01807793474686411
0.0032253304844692076
-0.021505131070006032
-0.0018486063271518605
-0.023644158963268012
-0.007768210351015289
0.012605196053244547
-0.0007954423914610984
-0.005709116119931426
0.01691538205312347
-0.015062416372735808
-0.025051411098632338
-0.005296335767246769
-0.0034936473300804295
-0.011381403617346414
-0.0025916049349757786
-0.006903431538659729
0.002224140508894268
0.0313308548125983
-0.013674921823630922
-0.02025374197577569
-0.01879735922978932
-0.012686793415312042
-0.03097927463659667
-0.01940655102083372
0.010971472419598711
-0.009334527032188084
-0.0005286359910445076
0.0005710711212416724
0.0053866411686538775
0.010086623710003852
0.00850797593157396
-0.0034825209664823137
-0.013350676533459001
-0.028196889104715673
-0.009364988690713954
-0.0035743993287457214
0.0071250938904517825
0.003491828000788998
0.008914382569683662
0.0019782651344213372
-0.003941927793096082
-0.020324635063236476
3.66441008989482e-145
5.1756460782095826e-145
-0.004297881715749004
0.0254148694908855
0.026366033818187584
0.009293846260142359
0.007255495937406239
-0.01150443191001167
0.0035460319916323806
-0.008934901308695823
0.022737144542300615
-0.0010026337094538882
0.02945168440829607
0.01400603815625321
-0.014988882002916593
0.01908233053030431
0.014281958802883831
0.0049073972093207135
0.01654673306495659
-0.0022113879026249214
0.03284952514807661
0.013480402477024898
0.031990365997581496
0.018744191297526202
0.021059694710926495
0.010792833774307826
0.01982484935008073
-0.010505909957416605
-0.0014632063266975393
-0.0036807104890185117
0.000491554493952402
0.004566355199299795
0.024444700198451148
-0.004302319949105081
0.019862561063248685
-0.006574045801421115
-0.011025610312406125
0.023139525852839106
0.024897474110990508
-0.004470101839151786
-0.0030212311668475927
-0.008022694795675567
-0.009750334563261985
-0.0028933738901138653
0.011515698454546875
0.014451951730628895
0.0007391133606505871
0.002152422059659556
-0.0039298653930361195
0.011946899317995458
0.006189042265096742
-0.02065867641943685
0.0072838366622648065
0.007397964871667272
-0.01023734682934729
0.014623957894939244
0.016115325427861
0.006016613497862287
-0.0025238336803552986
-0.006566533994526373
6.0233127409563294e-145
8.148590351405036e-145
-0.025467943690257573
0.0076591851303522505
0.013921777546491597
-0.00045547152870979794
0.022900185314430485
-0.0007442571797552623
0.003447966661171028
-0.003698724783824276
0.008833057084960218
0.008863425344940522
0.02133359275180291
0.0012806186084447847
-0.012404467394485775
-0.020740049734381795
0.017765308702772258
0.012552374382825925
0.014077784217521774
-0.001931758405611661
0.02186368064884591
0.027988116198855374
0.016660043781841896
0.014602008674656419
0.002430185079028882
-0.004862650626984984
-0.009431146778990027
0.0006054070244617581
0.011231712520544111
-0.02835631077829015
-0.0003395145342363338
-0.015415994071625255
0.004001270109516542
-2.3524010914866003e-05
-0.014935739454685862
0.007835525061935581
-0.011951781887297883
0.009992124409727396
0.0010729385540479708
0.013043019430691612
0.022725720064994955
0.0009794500386855064
-0.012026213617566728
-0.013945398734770728
0.02020597630341003
-0.01618965651260125
-0.0077088809693494804
0.01846679861619402
-0.024660696004023208
-0.01810784759798015
0.011523262660068371
-0.009056049048156684
0.007612428160778246
0.010515959488188655
-0.023269211046076127
0.008983285839277438
-0.0033196494992028336
-0.021574341819305478
-0.005101757784236836
-0.008515175269824884
-2.5435275862065705e-145
-3.465873113371812e-145
-0.03060731917947599
0.027408202027964568
0.0025536121533140605
0.010196630533604376
0.013344792152792006
-0.009200150396923071
0.007046162678590786
0.02135674222368875
-0.014991079948157399
-0.0066810600249246925
0.010265969064924194
-0.012448850482873326
-0.010435737600302107
-0.004025079815828235
0.013543714213670292
-0.01704371988437005
0.004778057042140535
-0.016053891558249975
-0.010178411537007027
-0.0167727152503847
-0.007327224189071436
0.00026899936481890666
-0.017571213733529066
-0.008730934366172364
0.016159513609777073
-0.02651490964105726
-0.029960382128445137
-0.009067488118382906
-0.0052134696130188745
-0.02431902140179605
0.011104930183218283
-0.011627850251164315
-0.014772652226174743
-0.01793254836829253
0.009735151731835484
0.01188596751771593
0.010098546344703755
-0.0006068184237953463
-0.012047217797157183
-0.013252126334472382
-0.015802371233037245
-0.0006953839953037043
-0.002168924917998379
-4.659346916063285e-05
-0.011582710760592415
0.01359935958651799
-0.003020622540395163
-0.0025549299595540873
-0.010662402384655155
-0.017774576491525963
0.010944966817090526
-0.011410318793732237
0.012426806703770435
0.02062821144082319
-0.0019568067662333235
-0.02957790557195081
0.002786442631813661
-0.005980543036663467
-2.175689181786039e-144
6.214817169898395e-145
0.005028963198634087
0.0002882468788431576
0.010003063950367904
0.007315961144500974
0.002415530893385788
0.0009072305071710009
0.01362516856146656
-0.0040953827737019895
0.0060772002701485455
0.013988818860810024
0.024299665001899107
0.012661867622327155
-0.007482155684025589
-0.006651566837655869
0.011919639712455198
0.012939327808773278
0.019154714582576726
0.011151705766705704
0.008834046597432471
-0.0374063490641045
-0.02432842492251999
-0.02278046920430653
-0.012159978912609752
-0.010857687846773746
0.01998586362839432
0.0015414165338695576
-0.0040340156354921625
0.0002789151321210659
0.007850101137277991
-0.0018384924286049553
0.020155099627062363
-0.004524289970783881
-0.013306072839984036
-0.009595113824682156
0.013063549956440972
0.00673513947045203
0.005572298921032224
0.014617163010909123
-0.005728194795118024
-0.0014698258914205321
0.0055378782201321065
0.0035729591860321186
0.037235329830803396
0.01609375822555407
0.008898142814233784
0.021746824488665675
-0.02016038099823774
-0.005001243351976084
-0.002685526168299032
-0.012420406915763106
0.019135731307135983
-0.010103010845283549
0.011002533293983884
0.00030132577147228473
-0.007542436891708176
-0.012697610204829552
0.0066779244321386365
0.015903582939592712
-6.617008525789887e-146
2.86299864682274e-145
-0.00657514667655027
0.013844987421995603
0.012191335216082982
-0.02184989054215597
-0.0005307449430384326
0.005882503086261089
0.0134401732506879
-0.015410880192628965
0.005783050615708019
0.0069715704206619765
0.008438438805528602
0.007081487940467025
-0.0015326656284826094
0.0009621621357165273
0.007435263732713885
0.001580227389449678
0.008078858531410802
0.011312047218922313
-0.011736454419558473
-0.019690138098749185
-0.011436476772436028
0.00624663213102395
-0.01929521218214923
0.0018354756794543945
0.002731506957978426
-0.010218864467989253
-0.008770730667130073
-0.01140792439613447
0.005576219304455447
-0.010158867532876802
6.747064389426305e-05
-0.022281508374874012
-0.027555593749284884
0.009049339882748818
-0.006647412175915763
-0.0001304560754309069
-0.013215290024534802
-0.022194510698411777
-0.013347368933631771
-0.009281794976930964
-0.013163681776033127
0.019719173536709503
0.015453413612390424
0.009324745415114086
0.015855581921357574
0.032325884495595585
-0.009348482723970764
0.0008729527674803259
0.00473920505695333
-0.017117525907749967
0.016370740166804353
0.002044747856620156
0.019801127197773903
0.00800178041838783
0.0015920084170961085
-0.006581159061580925
0.004551117252623928
0.017652332558948665
-3.4672319208624526e-145
-2.326436250545135e-145
0.002120663376939689
-0.003796651886139923
-0.007160655974698846
0.0011145143434631512
0.005275350841996155
-0.001227640114968814
0.010213493485468112
-0.01998527340107029
-0.007358350602240167
-0.014924917856537925
-0.01678475964187989
0.025527595738709635
-0.01491118663232046
-0.00829932517173788
0.002885793183814381
0.020002548192786216
0.005168292734185991
0.0152679237560855
-0.003566086533365454
-0.019719581971509897
0.0051279699702965215
-0.007118575950178403
-0.022253436379365926
0.01235426248170434
-0.0011638110307461448
-0.008040276827913872
-0.004396776949479559
-0.02571299397530804
-0.009947121957252015
-0.01149591459447907
0.024245382910907432
-0.012925127649292547
0.004329168372984928
-0.009724227423263081
0.0032263030276023412
-0.009060613381136003
-0.012651634371034564
-0.008459822815773989
-0.02588119152780528
-0.009794843707660586
-0.008553211538653642
0.042797357959278075
-0.02143018861331198
-0.028194139133816215
-0.005573437044915587
0.020101716861671445
0.009823769739622845
0.008699522139702457
0.0015749667985397332
0.0023981102349553635
0.0032555418881178295
-0.0031737347880400222
0.01569004042142878
0.004699261052481253
-0.02044516219473179
0.011164171672575515
-0.011185124427033824
-0.0029347852572421105
-3.749648012914239e-145
8.339076538458505e-145
-0.015796148053868274
-0.00041108533232061227
-0.007110563522679987
0.012564891391327953
0.008781116144447406
-0.01575479487495831
0.0027716679568723273
-0.020815358616546664
0.013846233947888784
0.001686842807519786
0.0016538895910741533
0.02416969549952265
0.018726701803640403
-0.00022800321154238079
0.0005263627842496898
0.013808359345054987
0.015101374082965687
0.004068306408285447
-0.010709686341727984
-0.01539885943074213
-0.021506545604937012
-0.004302389116636398
0.001706680535220796
0.008574535559164166
0.008234281611229119
-0.005917493825048543
-0.026143343970156094
-0.006250866416196038
0.004045849816679723
0.0036731970651404317
-0.011619079984826256
-0.010068859942964022
0.006013354495131866
0.007313357717242114
0.0043569469135790306
0.0008716988290966255
-0.006316999824253084
-0.0005928242501427059
-0.02126388755513731
-0.0066062609452727265
-0.007220333123757449
0.03986405753180978
0.0008145495122948316
-0.010613163293954302
0.00697752901269472
0.04623989407837372
-0.006591142501841604
0.01005846430322466
-0.0024893569293315447
0.0006344225173922234
-0.000695462148497019
0.003897511304205283
0.013511355708479517
-0.011218229101301415
0.015490590934053474
0.006971243307062475
-0.001761675234182697
-0.002589757478592573
2.3331557838616463e-145
-5.730413170049441e-145
0.004207213294030783
0.01970869117355688
-0.004885804700408739
0.001841472629645792
0.00465148202049784
0.00292750475807178
0.011514987667292111
0.007969122680858193
0.01805006394096926
0.0006182047040622356
-0.002788757803768725
0.015024531369304992
0.008091786646096161
0.004411027874969755
-0.0028630583817569753
-0.011454251498812658
0.024148069414528107
-0.005881337938992817
-0.010491217329196969
-0.00929875913727098
-0.015020029663666909
0.004594883047348532
-0.0024942019590457024
-0.001504438297517319
0.00779025816730162
0.0055422688902032075
0.010926640938301308
0.005740389110623165
-0.0034359936654824166
0.01638532979557574
-0.023825093347324106
0.010885351861688413
0.007984278242815081
0.011672632788981462
-0.007789058667710829
-0.02013137275215538
-0.015096809056565064
-0.004159833436487428
-0.024604027511333306
0.015404865635608127
-0.011260455779572909
0.033117482432608154
-0.009959459966324224
-0.00267921804388616
0.014518764546482842
0.02742647280534689
-0.0064761831090190515
0.01018134913027684
-0.011742116380309838
0.010594542854987397
0.0020710841406332095
0.013622839275808894
0.003371415239359848
0.006653579713460183
0.007086352158560875
0.004536141877723274
-0.014003660411912353
-0.006539687698129974
-5.0687714715148826e-145
5.04018056329948e-146
0.006777772104550538
0.013962523239194325
0.013003144303500132
0.0069549528463105845
-0.007026912983263895
-0.012601161946114665
-0.013175326992203829
-0.0005555576455316641
-0.01607364673668396
-0.01703048236851102
-0.013202599703609466
-0.00735438548222812
0.01284862847930442
-0.0107693545861886
-0.008367908765893403
0.01239431857290197
0.01478427371421921
-0.014382958841983907
-0.016513738832809287
-0.02951101134606607
-0.023951837737643082
-0.02919040367997823
-0.031840927467905976
-0.016188354437354818
-0.012734042486524235
-0.03800854791763443
-0.0021531481978686227
0.0013012497985455916
-0.004296176427220174
0.019762284558193576
0.00449293287581059
-0.013283770439927713
-0.000352185259954816
0.0013343323906754006
-0.021100131695291915
-0.012864232044057676
-0.025859186289244586
-0.04124206202848141
-0.022903863865274026
-0.03432755392442624
-0.012068747535576572
0.0012543006655213757
-0.010036297156084333
0.0067679331210747885
-0.01481704262971038
0.010332802779671208
0.026143978031579067
-0.0012032905285200054
-0.00568818693317385
-0.007853381121351442
0.00029759514224480323
0.0194422475620038
-0.012188657319609992
-0.0024337902705697627
0.001151189159634941
0.0020255976437286833
-0.014143724657881584
-0.0030377905502394515
1.5187080580817142e-144
2.3645444168353572e-145
0.0063045117770059965
-0.006377558026315672
0.006654176856695618
0.006781928327360431
-0.00022267043987763264
-0.0223869488798063
0.00852803045535983
0.0009364915477220237
0.012827121888946408
-0.0037629666734611206
-0.002215002662300181
0.006412592765182188
0.01650247658604549
0.006746494784097038
0.006396440788281228
-0.006470026220306435
0.016082382635048426
-0.019474409441143974
-0.007071825762963044
-0.0033911028896358303
-0.015138982701106292
-0.015995232410128568
-0.02000548829094245
0.006933190965452545
0.001133023993419538
-0.011911677019900656
-0.012650727876782768
-0.004563570269033169
-0.013658660772086854
0.008651509920698287
0.0067921908540615845
0.007442921704495383
-0.039218509204573176
-0.001655920354354714
-0.011544424488768374
-0.004154347905385593
-0.013530434580794086
-0.0036512036269990256
0.0005181019088956081
-0.025415313452696712
0.01377044101191636
-0.011122098129260188
-0.015393192091747148
0.024149344357860154
0.019057652881846934
0.034174562285914874
0.023651472125969582
0.011308757656570712
-0.007522783292713881
-0.01139295160378261
-0.0010304339924006242
0.019548651070755374
-0.004885806255798552
-0.02170659207006808
-0.0072150838562557865
-0.00208315054582763
-0.01666772348495385
-0.0028651732777947823
1.0621210829062969e-144
4.23087020146182e-145
-0.006608216607972351
0.003396254456685541
-0.0003233601891465276
0.004341166663427153
0.0030052026820383345
-0.03097677063426964
-0.003079634415914103
-0.0019116447289512144
0.013711056997031817
0.017149667112289713
-0.014823043338204497
-0.011428158750702739
0.014395395039756946
0.006870665778599386
0.026575011974205056
-0.011875801259132008
-0.004531278242429412
-0.014531916888741565
-0.013295903172404616
-0.00790433593015873
-0.013763558117013274
-0.015365951722403478
-0.015713324171606893
-0.002664470515625015
-0.01437923919294605
0.0056385786353708904
0.005772625658583223
0.007736509944318993
-0.0038509751875224424
0.018449920502963048
0.012922148652412525
0.007415054703399062
-0.013941769366073827
0.00823790946391793
-0.0023551427841358758
-0.021097713330501106
-0.003973752071727706
-0.02840056158788258
0.0019972694949992368
-0.022433831905248454
-0.014492959264755481
-0.005447650864638236
-0.017792510109923765
0.01759582037303356
0.010456517232641111
-0.012063411806291783
0.01856031580536126
-0.012747267354669186
-0.007697254302289649
-0.009775015463012926
-0.011267293424797634
0.004477508000473261
-0.04355630119055136
-0.022188503075634518
-0.02443953510085646
-0.006290688257875077
-0.006752539719556042
0.011491521540289568
7.038237438130147e-145
1.9647186650851435e-145
-0.007378465290436459
0.014380252519061247
0.007942615011242543
-0.004238210878138627
0.0017445492848914973
-0.0028375529023136454
0.012611765413392251
0.004760053166627023
0.0024111521999381413
0.015693853715386695
0.01393703085195747
-0.01653620512390414
0.010340398315981957
0.019140961650849418
0.015128415272636989
0.008767940053296118
-0.007175900758198217
-0.015497685214770683
-0.02045018578303525
-0.002372966664246254
-0.016915034381726753
-0.011007844789649928
0.0060790794266340565
-0.011138715162389165
-0.019781896622780293
-0.009837066975880758
-0.0020901990338716746
0.005642663468275087
-0.0025088395882396277
-0.026634655042289457
0.0012170337042016841
-0.009506006958811214
-0.002447559757878336
0.002638134549460689
-0.004027243287940237
0.0023416039244855834
-0.013738851824342806
-0.022527369488502036
-0.00037064171356279745
0.010669469520653506
-0.017843502893394966
0.0007392536291933309
-0.0013444969896850196
0.0360353774135451
-0.0023156470160634107
-0.005169762813692387
0.0006887285113954637
0.008512387016944768
-3.664536296455098e-05
0.003954949348378758
0.001967361070154182
0.014022664356694838
-0.03890340357686351
-0.020584133130164627
-0.013036849446712523
0.00430315201163248
-0.005716735791870391
0.021893662970553823
-9.027775506226982e-145
-7.19365756964814e-145
0.004897705752175042
0.001175511589432695
-0.011688237507286602
-0.003974347691356584
0.010394683905442206
-0.012269050770909107
0.01929736560279261
-0.01699904303443334
-0.012348943249489677
0.01926391105823585
-0.0035423196898298854
-0.0030896115056647795
-0.01580323168229669
0.02077698232352949
0.02942883440938888
0.02286437771134543
0.006957763126324147
-0.003655041148295549
-0.013575636976400384
-0.020259182559119248
-0.0004121850841230962
-0.0063810263202329475
-0.011986336200932455
-0.0076374097462758115
-0.0017999141922801695
-0.003709212484284929
-0.00048728205608668273
-0.00286610619068862
-0.017502817965274958
-0.01160941037141403
0.004533526493596777
-0.006576640425277336
0.010607238198299195
0.010282112965271335
-0.011454759829103286
-0.010826082636660262
-0.014709128379774311
-0.003067521142511624
-0.0001227359479781094
-0.00957718593157753
-0.02836335088424963
0.003682954811729562
0.01060625960684194
0.006618231160566808
-0.002680852205762892
-0.005127609625663521
-0.004764659806288892
0.015888891432014877
0.02110068621779991
-0.009083838461675525
0.013252799786705023
0.013663751293316427
-0.0127063647965211
0.006603009674593578
-0.0019154885182154002
0.009337530317750666
-0.00730182145179105
0.01847610899608762
-7.184161535757027e-145
-1.8065034316430632e-144
-0.0035589813899693096
0.011005306733749087
-0.012649586965363082
-0.009682579490374526
-0.009360599216083145
-0.013694466967006236
0.010515544644028008
-0.010953704487451693
-0.009809783131663594
0.01400119988631483
-0.01357097867823084
-0.0024544744139841455
0.0034943603288795626
0.022347791208799546
0.02515983131790537
0.021105730083441254
0.01030638387080139
0.005113974961118356
-0.024613848236801784
-0.023849453790217797
-0.011909324997143336
-0.011457629312677563
-0.02144695530007133
-0.000518792426872463
-0.01865161591648771
0.012427381502692488
-0.0011310483829303241
-0.0009485213796749206
-0.005646290963991569
-0.01511445038355234
-0.013250436982598432
-0.01878274280606583
-0.018562244911751673
-0.015163612076248697
-0.02461719211225267
-0.030331179182667194
-0.018112794513693957
0.0013903214769031263
-0.007821274132445183
-0.009099891803881214
-0.006987315434246747
9.89969086986345e-05
0.015324557995713776
0.022791371301968403
-0.02316887461598972
-0.0051390696509476625
-0.011946049900007237
-0.009777056751243261
0.011216133775033603
0.006772291771601367
-0.021433147446004913
-0.004654239519593102
-0.010929359154056172
-0.003045813380950534
0.0012673595696220748
0.009518617663804322
-0.01131138446687157
0.015368248759610995
-6.201589374630685e-145
-1.7173163020717892e-145
0.0048399850044496505
0.007174612295862878
-0.008066731006848819
-0.016276552938413288
-0.0017189093388918647
-0.011955739236944804
-0.01394436656493696
-0.01661480977472947
-0.015503225010548603
-0.001315502381037253
-0.007618932255312572
-0.011603212716487607
0.0018139008718001065
0.015915410234192087
0.034290471122293914
0.029308433058167473
0.016938412922084648
0.022514414004644708
-0.01135866693689907
-0.01396732556903204
0.00014556056469434265
-0.006917646448500317
-0.02156872993789792
-0.017264913706918853
0.012952362368920625
-0.001333849799934143
-0.016016360237368955
-0.009221338014850906
-0.024470669266356347
-0.01678529719939917
-0.02092910509057334
-0.006368296388748236
-0.00020023231539463958
0.01904436030842414
-0.0021268234377684555
-0.005678305257106589
-0.0031694837709137337
0.00979011228856699
-0.005609890044913061
-0.025944724189374224
-0.013512075335459497
0.020294487351390965
-0.006883322097812643
0.002719771234242152
0.02029202293098783
-0.018177548992201
-0.014325183550675207
0.012345438410060491
0.017436395947030912
0.022793368116669585
-0.023184696080753346
-0.005176368239892852
-0.0011386883920483748
-0.011449764965184777
-0.011465638593622459
0.0021860516496476435
-0.002528586536906711
0.015352074507357321
7.781363469006542e-145
-4.9747332728151145e-145
-0.009948776004281817
0.02678221548926127
0.0018677282659161614
-0.018289681080858003
-0.0009242362464799495
-0.008977468829663703
-0.016145441224076913
0.0025273704828256177
-0.003709865518787119
0.003821828205679699
0.013796657736132045
-0.02362463441346702
-0.004865182927373033
0.008866413676124082
0.025073249410878316
0.004592193317875147
0.02653337532358451
0.011318894732474077
-0.01548176381536538
0.006831542009153924
-0.001541790308509015
-0.008623651839470756
-0.0313592339842555
0.00973274764748266
-0.00807040423880633
0.012258705353790493
-0.0033104757606113666
-0.0010049478073937042
-0.005137556990798779
0.010456679366771906
0.0056011570581931585
0.014294953502638524
-0.0010266652656035795
0.010893300465389843
0.03006027712501236
0.0010814694280408877
-0.00422144053699609
0.0069670355043375725
-0.003905861568675388
-0.010625077696147442
0.0073326479064845405
0.03190868602341256
0.01464784823762413
0.013782751063735868
-0.014624518079836328
0.003013307544301179
0.008893230926587083
0.009561834504898656
0.009030560267323353
0.016409965965590273
-0.007771533667178826
-0.0029535454569296973
-0.011663039208079042
-0.005672749337932593
-0.021177259687609896
-0.011714603145151924
0.0013409507780450618
0.013429184196790159
-2.4108601102379448e-145
1.4524524899901347e-146
0.01322224127620535
0.004859284905979661
0.008254508288620371
-0.025389742023613
0.010969528257834456
-0.002945721410657141
-0.011599560792184521
-0.0010421359417493187
-0.028549902505730973
0.001731357938113933
-0.005644701200098078
-0.03109969633533069
-0.007908832468895583
0.0009286397311527497
0.020775388910417216
0.007790376109749836
-0.0048077429901107974
0.022686996111259614
-0.02775117478139664
0.01619383612678145
0.011502413162908063
-0.016188489772080292
-0.01263262836302199
0.009030428720798064
0.006038101845723625
0.016242777655560897
0.022367470445526
0.002041893114341496
-0.004335024833946747
-0.003695884941083353
-0.00707730541460553
0.007433492747948149
-0.0039019163283541694
0.011564760433454498
0.0221593628095328
0.007145890044985639
0.007561352632758976
-0.01149425850675282
-0.016368555244877615
-0.0076480043474505205
0.03070999178352168
0.01963489623087093
0.021914759639396958
0.015054737162882097
-0.012674716790374184
0.004358531762006627
0.0003221069630012046
0.008151500148719008
0.02263161972205143
0.003318342437836212
-0.014777680219317278
-0.0019902372855783394
-0.005870760562545654
-0.005669994325461868
-0.010929948177267845
-0.008266281753489237
-0.0004216912948560579
0.014674694733874559
6.072565047754968e-145
-5.489755797050733e-145
-0.001106448528417691
0.002845736067145374
-0.02487620597426694
-0.026660712693251674
-0.0014260368697597361
-0.007964908967119499
0.004142941606907158
0.001112686540727112
-0.008699147150714017
0.02140538889271363
-0.00532971606908074
-0.007498191597086052
-0.0001686547027836057
0.009975144877773621
0.011224537494209055
0.011325639200801662
0.008429049988931554
0.028439434763865012
0.003988122188422204
-0.008326284298462943
0.03053729089794643
0.0009843959816960798
-0.01574553703709204
0.012495092473067813
0.01477635472958415
-0.02045123023462072
0.0061942412665008375
0.0028734625772665044
-0.010921814891109334
0.004324740009700033
-0.0032934525193992377
-0.019454323776186312
-0.024093422837444867
-0.03147659240211241
0.003222471966179405
0.005458556360017535
0.01071868378439126
2.285815539244869e-05
0.006254280433081244
0.021790131285895246
0.01667968219057904
-0.001383409104373775
0.00846791255168587
0.0071021205668354345
-0.01852265114614516
0.0037351329948753136
-0.0023332560109922836
0.02438098071426431
-0.015370603084908303
-0.004707264252275575
-0.01098783523523947
-0.011199322426227787
-0.0059833600765822155
-0.006117416802737859
-0.010533071656349317
-0.012726487033840056
-0.014869028473225578
0.017039170753032178
1.5731208796310243e-145
9.035145042639423e-145
0.008459269959446345
0.0030749841850353744
-0.023865644849484446
-0.010317874693640748
0.00370864980902664
-0.00359219343270509
-0.004759149321266343
-0.00806607754594204
0.0184500925357078
0.021014860836255277
0.005458960657539246
-0.009903066686486316
0.0024723783386371503
0.0015646966578345507
0.00480379741911434
0.01778438376461323
0.013363389923741737
0.023616876044764024
0.01836231304829596
-0.005325742275820941
-0.00028545829293872963
0.008560210036791546
-0.0020899639018052453
-0.010116516191933227
-0.020276685477549638
0.01595715201567543
0.0035105748764194204
-0.016668340420016393
-0.031235399903949822
-0.020258058375585496
-0.01196548871352009
-0.008211624992442285
-0.010461748047086527
-0.0065381486893075595
0.003709431399955505
0.013053979026118259
0.023439706298595174
0.0026472416258031253
0.017980101519354637
0.01668066302212421
-0.003189402113252401
0.01083132647864166
0.011295849281909907
0.005275863994169506
0.006888470450446708
0.0033537916527248256
0.0113053410158544
0.019225124755525548
0.02044872139788714
-0.020015926737828187
0.0007160317002579217
-0.01255423631848474
-0.014236017937769008
-0.0046100107786261274
-0.010044166471667084
-0.0037354685992952927
-0.01054669151802362
0.010091177395180145
3.1190347517668575e-145
9.576273283325219e-145
0.00302635735862642
0.0032040857102795636
-0.014918786360713924
-0.022720357620841368
-0.0015075656729606865
-0.009366269429673873
0.0019377996967118159
0.00020986632287683013
0.005932640188659522
-0.006654566727367303
-0.0055111822122463705
-0.0019434215651751323
-0.017752174969330403
0.008906763382013261
0.02522680064597864
-0.00420868175180611
0.01704264451222046
0.008174601736560714
0.013296107391310095
0.007356230944202896
-0.005135764366084522
0.004354840814247618
-0.019095323892288747
0.0010450849000657606
-0.012425751050269038
-0.016826319399653594
0.0003572861894088814
-0.005712907320944463
-0.011094364819228108
0.0059797532487220525
0.011307196614361492
0.007103077540679532
-0.005769857316342511
-0.004395384898350977
0.022306801164360405
0.03001689042123944
0.02118878391031722
0.00626867787524616
0.016359484596224924
0.00841174590729644
0.013406673440470755
0.021319514090162396
0.003456521700119263
-0.018209804914589452
-0.00522553616955984
0.024270721673295397
-0.03684773745968918
0.02698962439139263
-0.01269842929244994
0.000606496678533212
0.002793185724866553
-0.00557230157574822
-0.018456068473428178
-0.0018874867839717526
-0.0006886664008503507
-0.01751143103590224
-0.01936546370231919
0.0054958037471510525
-2.663674771796301e-146
-1.342424645184324e-145
0.01736347571763182
0.002005784349907341
-0.006590296098457573
-0.009086611270080295
0.006092828556568217
0.0029622751786507204
0.0036000051798131664
0.018307616218822573
0.007599191305838331
0.015871376364854268
-0.00217714555464275
0.01436667861649545
0.002571046900318999
0.012826198482212349
0.02286541376932657
0.009544502827810736
0.009717861577471811
0.030590445301130347
0.030264502027370428
0.004891328130616058
-0.0028929506197103503
-0.008881580630363374
-0.0024843604258004514
-0.007068717894294137
0.016503192050404146
0.0015381509972644104
0.0012447005351475559
-0.0027605081479305962
-0.022201023764893246
-0.013013673288250968
-0.017445518831046898
-0.005321863508345459
-0.025008606252789778
0.011468112016472385
0.006009780213867292
-0.012947072145248826
-0.0030207432362488146
-0.014445054828741455
-0.003924435527763094
0.0059152597494498
-0.014224512446794828
0.017482158888106083
0.008902974479078899
0.004996162251606833
0.005618259339007821
-0.012115084070733195
-0.009938851501289378
0.005694272790562783
0.018965717986699042
0.0024812025402436177
-0.007956104939545327
0.004461042451054103
-0.018823203826918967
-0.0015017205135394872
0.002289056354240652
-0.00890080768725592
-0.020664010505859157
-0.003180547063921243
-5.5099675694083765e-145
-8.442509556942815e-145
0.008794322577457749
-0.005354507643885142
0.0008463334097157367
0.006160248721343112
0.006353207783353224
0.010745336266686925
0.0031198965907232538
0.0016768833938000766
-0.004917527830972613
0.007258747410133752
0.002498146556539514
0.025672092658885988
0.01030021886923793
-0.026399272917618816
0.014745428882081045
0.0013655070310593992
0.001744115078296195
-0.003575223813525877
0.01207036077659868
0.007985341601945823
0.0006881277271059478
-0.031484255391413994
0.005141023754071281
0.007133429903987865
-0.005892445354880015
-0.011724514609209077
-0.003280772650444363
-0.02381022065512458
-0.012667607143579705
-0.004831384701000588
-0.011216242300453658
-0.0021349100882443964
-0.010090336773799695
0.011894010442855962
0.015676673573234684
0.006223682332771998
-0.026175755001050162
0.012439628884942109
0.0036091993684976773
-0.0007509748145955904
-0.004493130100174994
0.007161506466248467
-0.0032045844778000984
-0.008357285916368954
-0.0018980252737961787
-0.014388123917591448
-0.02022221184391928
0.015968163083738197
-0.010967793031307802
0.0025861313371907035
0.012314695021430866
-0.017437860771912044
-0.007186502231060364
0.005308303491086705
0.00328732219050695
-0.020635149910682715
-0.019237091313146194
-0.0120009327803346
2.4608862488635784e-146
-2.264051067761979e-145
0.013790254369439663
-0.004720351695761838
-0.0026846699803006425
-0.006463462400729611
-0.008888446982732414
-0.010664142849771976
0.011016225017913456
-0.009982952423447931
0.0031393315991314684
0.017534378756442873
-0.004621182246231223
0.00883358650587733
-0.009974511318176607
-0.0035068888608900083
0.008344316993548338
0.016670736852086632
0.013417024222576138
0.006364523618459264
0.033480142223965885
0.004521529847081413
0.01475653647446839
0.024068021741041803
-0.002179971012435895
0.013585527387764617
0.009675981213331424
0.010042364192906224
0.003936801477038933
-0.008304963981339827
-0.014666614867609349
0.01406989059295261
-0.00015939569828636954
0.03402077592379822
0.005909159825933545
0.009207441449929864
0.0008805236375823537
0.0015099090926731363
0.010815042863997338
0.026624187447158304
-0.00012033058471590849
0.0012869493192459074
-0.0009198825190650458
0.018263531894994307
-0.008914818564701445
0.003879273516158826
-0.04127799955650854
-0.017198712678835253
0.0026838062454918113
0.006761313546345628
0.009358897412186316
-0.012408402680189194
0.011907767652800891
-0.0034771146079461777
-0.030678503732092244
-0.004677636805938586
-0.002945305914885742
-0.011256632656152503
-0.023177381937711457
-0.024717431905455698
-1.3720426164931656e-145
-3.6649810473890796e-145
-0.009321933695053181
-0.012057452041717674
-0.005615471895706781
2.673948685682709e-05
-0.004976702434216542
0.004401735385343766
-0.010868301492356059
0.030211268825428433
0.019485918477774727
0.008761118269080775
-0.017844530095620603
-0.0012593586774571688
-0.02005096306707823
-0.0249995398698509
0.0036379184665185655
0.006938753073881224
0.007692706956051325
0.012426914208582935
0.05375812401877228
0.009917475319252985
-0.008802273681099922
0.027812924078829727
0.02457986642818576
-0.0071650151655247764
-0.003557123495363493
-0.006188509250142891
-0.0015874463147306683
-0.0009088900922807002
-0.005718771019815729
0.009372201132322193
-0.00853880387372853
-0.007082427112082387
-0.0018402901869300466
0.011119743335132588
-0.030588480817881333
-0.0054419753915612365
0.01772681657880261
-0.005918474600568125
0.00020824189552910585
-0.0024613337787700623
-0.02140454621086453
0.017048804389832646
-0.0026799422664965274
-0.01575415497167497
-0.004166056332796902
-0.012236181141099516
0.01301709048061392
0.022024703955729558
0.0074044847974383855
0.0024402942715159794
0.0029642343291126742
-0.007634989332195958
-0.002763353070059246
0.008209383983229578
0.014260590877529363
-0.010635873134744211
-0.025968424838872878
-0.015375932494249995
2.7252032362822094e-145
-1.6921026198443987e-144
-0.009695553981996532
-0.008847218887020338
0.010139509839375687
0.002092406606119321
0.015193143885855341
0.008987001674068046
0.0013831297577806838
-0.003924904922084404
-0.020139672678533258
-0.012027780004504468
-0.01016489935528545
0.007895078185328062
0.012729094119874699
0.010058532619302615
-0.008232519069099588
0.01265933952853143
0.003640203656053459
0.013267077157262186
0.01025190013562795
-0.002029835692648821
0.005417004804982454
0.006285681865259087
-0.011603221844208067
0.015601335583584595
0.020472204465465577
0.005083097132303913
0.0048963279437046385
-0.0004745679844315199
0.008210368243783859
-0.00015321976495104135
-0.007888028494984888
0.0078707787271007
-0.005192847374227421
0.007650397917110725
0.02241757506353775
0.008969787377120448
0.012570261337827897
-0.005613606727840002
0.009955468225713242
0.0022962556956276623
0.01948898695729551
-0.016819647481010426
0.005665140066707787
-0.008678524780278857
-0.003618653050714584
-0.009187224723504351
0.017688952993960245
0.023402510344150355
-0.012055158420181473
0.004227555440615723
0.005289644045674033
0.01136023764311035
0.003406535249217264
-0.005448890066873297
0.000413244510850237
-0.02396096574217317
-0.023462806082262304
0.0018746395766289802
-3.016491258209864e-145
2.6065368229236925e-145
0.015650841365447584
-0.01030350341443748
0.006433814500088425
-0.010154905617596672
0.007713246070850456
-0.0014206471975661836
0.007913902930443766
0.007525695469303076
0.014543275325278791
0.001697950522307124
-0.0037847532699505034
-0.01052445140884848
0.022407384923267604
-0.010711147055424596
0.0053056562105603
-0.004537363476388777
0.026204187661715977
0.000640653869014503
-0.00843530423573255
0.0022463765806535313
-0.0005077923271992987
0.005306340911176412
0.017161237348474988
0.01200791384349882
0.007172500392219097
0.020609466057221304
0.023699601189746757
0.024942666921119745
0.02068837154300069
0.003979474347135652
0.0006765640398571866
0.02160626445275859
0.0012726650460717598
0.006107010507569149
0.01798068923199319
0.012287397885582883
-0.0025247582230143156
-0.01248814983253084
-0.0009155444329894976
0.004397193593916809
-0.037665067915755315
-0.02218484489489908
0.004167174464044651
0.0024812482628739276
-0.0052160324741688
-0.02822505379555369
-0.00037934360916097267
0.011890782540885644
-0.01822933479669453
0.014765865276428208
-0.0017890863359391615
0.0011061190637044794
-0.0017998638146376426
-0.007167282407906107
0.005010361208000049
-0.016353704310663058
-0.0019696315539677782
0.011169634282391679
-3.511035166364461e-145
3.781162905774449e-145
-0.006980507617793141
-0.006204554164705152
0.011773281666441725
-0.0002259510635184859
-0.010508427614887206
-0.015664770008633543
-0.008155845237455803
-0.0051541382372306006
-0.010590644050950839
0.00584797279165881
-0.01256804155155164
0.006323342933871643
0.010252127582592934
0.005815197911597034
0.009710441728867763
-0.010564151641840476
-0.027685068813716553
0.013756783371190056
0.002807868779294488
-0.005769407198152412
-0.026969764284170236
-0.03649742940651832
-0.012653354873560434
-0.008396717159374015
0.007561655112612493
-0.007872985343113186
-0.009662243482607783
0.02129448222264188
0.028820925650267545
0.019176901350118535
0.006519794531783899
0.012145706875506663
-0.0026686759357523004
0.0001332674409357879
0.012169934752588136
-0.0025895998775256218
-0.014252612925594725
0.0286707074076267
0.008986826659764377
-0.013411029352289874
-0.0070834209817298805
-0.015472394557181864
0.004486312302431952
0.004037477272200064
-0.014132551341940969
-0.021785262049589454
-0.001203819895141385
-0.002528293307917097
0.004794631478464692
-0.014496439572025928
0.0012653424769102294
0.01791668999902444
-0.0017700822374305623
-0.006854711410304061
0.012386419647674481
-0.028281160386974192
-0.01776804161644666
-0.008473353116659131
7.243911773612007e-145
-8.908313087396563e-145
-0.001295796000130302
0.009669462555556736
0.005886282882387695
0.01769762028358195
-0.007829143701904573
-0.00040042217853379213
-0.010883986524556513
-0.016920825144918276
0.0013497264987624334
0.017537934599652735
-0.00778212948216808
0.015632964594568893
0.025946544722211643
-0.008874767179370316
-0.011268299263827001
-0.005226087145772692
-0.004619194744009236
0.007146061479184285
0.022996572096012403
0.01437830681245442
0.010364867994884067
0.0001949944329481953
-0.0037637661079237116
-0.015260408944741746
-0.011102810722996004
0.0009715292493572004
-0.018867905779443413
-0.009367362556062662
0.0013761738310116235
-0.004345960607757616
-0.01752495965108313
0.0011893533433680282
-0.005983854477991114
0.005484802922565945
0.00653399792583494
-0.009055968728782688
0.006985970205229225
-0.030694437669866712
-0.02275414802291497
-0.02025054709977391
-0.015183820069010477
-0.011546495742257629
-0.004717317383274236
-0.005024690603287097
-0.005980219630610184
0.01618305392683236
-0.01898263992338898
-0.008239181416110066
-0.023022198154164716
-0.013053638273909495
-0.020726544901720517
-0.007606569819887344
-0.01879161461678827
0.008669979541504651
0.030429057552832227
-0.013692311923324213
-0.003950698637939598
0.003878338456064865
3.2573244196019674e-146
4.865407580580155e-145
0.0023618677378273944
0.0021220316982773478
-0.005960171175731693
0.007174615577606254
0.004912037221972552
-0.00026196915599867136
0.014642238441376404
0.023477434828742757
-0.0036650300932310484
-0.012304592210685698
0.005103998767232163
-0.005286044810765203
-0.0024992496620290733
-0.015297697572608269
-0.003796176834563383
-0.0026693863606406247
-0.006065313947110885
6.883532785480403e-05
0.01766784913466142
-0.009912366021754606
0.016644014889088628
-0.001751594290092922
-0.0004601441550719632
-0.017398304975415512
0.014316595778834212
0.006924715492201198
-0.01688386483814931
-0.00928427349843782
-0.009236593761683665
0.0036324317687725584
-0.0202905287873851
0.0006987421307129561
0.026389571427042246
0.001862354504708813
-0.0039396907486301145
-0.0038126397621646426
-0.02414651300715936
0.0002950076225795724
-0.0060881155632100704
-0.0018154632079432583
0.013782273256915238
0.017896803785914395
-0.0020580875605480404
0.0027443229867565627
-0.007037488562586824
-0.0026537758129699038
0.0002932720157289079
-0.0010813461991889557
0.000704220774552796
0.014282662174026956
0.010027981853392527
0.008195846217594966
0.009344096535916705
-0.0017616126544315622
0.017215126260543497
0.019398231459401272
0.017082647175510158
0.0071952894551488246
3.793668985755256e-145
7.546712211731263e-145
0.004724712968599762
0.006589606601354758
-0.013587887216803358
-0.0029308594198260425
0.026088036561509095
0.007815104759310482
0.0016538617867926948
-0.0025877848212081727
0.00550742833201895
0.02388561209384661
-0.0009515194340679228
0.003861838443417095
0.006788023330713243
-0.024933082660338727
-0.01571018111278123
-0.003650364732007211
0.004056461030727345
0.01906614489097363
-0.0089481569291862
-0.023997826986299042
0.011400165269006723
-0.03308843192490451
-0.028516251339999632
-0.02609582022377368
-0.03983539880848768
-0.006876996513973193
0.015104729036685369
0.01517907434095113
0.03670623749735649
0.018109710792653066
0.0028140678092253143
0.002795737166644915
0.0020938225083107415
-0.01782474237442414
-0.024963859539300394
-0.015718904246508833
-0.0061592516691154125
-0.0047608810336532605
-0.0033547733707552136
-0.0017302098646959998
0.021871467462486582
0.012004315133449428
0.005159686518192461
-0.011028109187126272
-0.008024049778402197
0.0034533365962613415
0.006552699489753194
0.004117147394565472
-0.0067032049150130705
0.0061346077373623355
0.00030959698702669126
0.011778587524136054
-0.002500224105586531
-0.0031522113982040763
-0.006053503713190145
-0.006934806595520808
0.01238997555881171
0.006091468500495994
-5.843874844658659e-145
-1.148562603444972e-145
-0.0018608978385808612
-0.005361455011631168
0.004837750031604443
-0.010356419243146236
0.019745785226826587
-0.0034404133351921174
-0.0038134984546078473
-0.028217929903419224
-0.0016102595552455277
-0.012460267135109683
-0.013027572430344749
-0.004717298975502233
0.009839316462506116
0.013938042145582053
-0.008492872723792936
0.011557260991701918
-0.012932513074447767
0.002833983876720004
-0.004316611297784049
-0.009715476722903758
0.020454248192400718
-0.002092031028894098
0.005866204593744528
-0.003895370838375521
-0.00236346579603135
-0.018717580005784683
-0.009616098079374686
0.009421310924171212
0.006670048477547899
0.008318247365228201
0.007523343312240928
-0.012952601919691826
-0.005321198856351177
-0.0077182992165412715
-0.010383821652655207
-0.010881800679709234
-0.0004201926557137293
-0.0061892024598224635
0.005110249014342809
-0.008504339926228384
-0.0071197896727829705
0.021981641989292398
-0.00596842108678837
-0.015894237617002125
-0.0012848122462408608
9.836115452528198e-05
-0.0018637292720881276
-0.019134064284761443
0.03321182519615714
0.006463109746461886
0.007145048367551491
0.012807661770210381
-0.000303084474657776
-0.016847633251134923
0.006681739406990514
-0.01303593278757855
0.006603551703284817
-0.005822114880007728
3.036719928983559e-145
6.766383934647459e-145
0.01237188172531466
-0.00034484165619173645
-0.0063963016241813195
0.01844800760315303
0.011702846370569803
-0.002117464440273845
0.003537227794559788
0.010803809129748683
-0.008470925324197296
-0.006639023387689066
-0.03424581587532911
-0.015003507500589274
-0.0020080829772754147
0.006341007841821603
-0.013985955385848382
-0.011171722012603016
-0.018085053083187235
0.0029351909680730673
-0.019143701326440454
-0.00404077526438892
-0.0028813775741788946
-0.006007873540248538
-0.009162935100091838
-0.007223518579677293
-0.009309737695575441
-0.00027805453642039483
0.013093383234953876
-0.023501441483578623
-0.010055201347340557
-0.013064055743927636
-0.013959125790456852
-0.014785744718977816
-0.009063277159336271
-0.014008355245770059
-0.019055053027600237
-0.02224940376632897
-0.018155027415462564
0.0029770679397611087
-0.00444240268995178
-0.017474436232800712
0.00875901589257052
0.009239505996301101
0.0015066524627844124
-0.012999065546657473
-0.019846045767746425
-0.0030477289678431992
-0.006786107286195591
-0.0031734388806269817
0.025937193491331535
0.003081302549745881
0.0021153254488193813
0.00017976279442671013
-0.010882052429304604
-0.005044934126822342
-0.0016606783711007199
-0.004999167290186231
-0.02136550816576839
-0.007937667376785262
1.414138199344378e-144
5.146469777561544e-145
0.02582341225197558
0.009371807913577163
-0.012656190667806324
0.0007828403734879329
0.013355444878546096
-0.010701091328739563
0.0013398954422878578
0.001325871138962569
0.0037988986146634102
0.0028326962691897933
-0.011901510913452994
-0.0013808880340972116
0.016757759846448707
-0.0005735392637587974
0.0018988722811727216
-0.0008780807695720022
-0.002252643878101943
0.014497310198055682
0.010097767508959035
-0.020299830556700753
-0.007432255719559074
0.002756034366163203
0.003177909328436714
-0.0021066333041421816
0.005558928018694047
0.004603893372612597
-0.0011418800900362717
-0.007951950749857292
-0.007946456790784057
-0.004841515374091502
-0.003916487566451685
0.007166969650680219
0.0043025173540480605
0.016142837011862882
0.00505370941680636
-0.00963337552117866
-0.008052246964177579
-0.018106330453067945
-0.01623476000688742
-0.011108987144393302
0.009629640272326557
0.006279624162679826
0.001787548900541672
-0.006267780679907488
-0.015622816138410076
-0.011235134832828566
-0.001052260404455055
0.009982010484006553
0.011568522330886547
-0.006137228115748488
0.0011956465321252864
0.0021517095354200134
-0.012468937407633078
-0.003997852713996671
-0.024270306887763365
-0.005868039918129293
0.0046767059254872135
0.0013132484854329416
-1.6457506615422978e-144
5.088547942685582e-145
0.0016277046241420956
0.004524609037234416
0.00014728739266895566
-0.007533758252788913
-0.006959277741266945
-0.016572041212593282
-0.005937330331715629
-0.014088781120745839
-0.00815985217338524
-0.0038380223719808974
-0.013395198831082701
-0.015447998197333297
-0.0040123840204275936
-0.0123930596578142
-0.01342689851301075
-0.02085384844350448
-0.0020915808592011005
-0.0002718093051050823
0.011017286230466753
-0.013718311854154732
-0.006206602197930839
-0.026007809043064628
-0.020810500249548797
-0.015450884952316672
-0.006602532841843459
-0.020694235518618598
0.0019232352369697742
-0.013244757508504543
-0.004680396638949566
-0.011624292676609043
-0.021531585134942056
-0.008701137933907636
-0.021083265835632414
-0.02139048719273923
-0.0196010629643577
-0.007250138851327681
-0.02324380933350249
-0.014450916639639827
-0.003053972017712642
0.008987265982320367
-0.018673919672442647
-0.01579661266686291
-0.020716173567559407
-0.02200451174644987
-0.020389051087164857
-0.003191557612117898
-0.01580349253938593
-0.01265621644324798
-0.0018874046011870134
-0.02682579673623162
-0.012323377036869058
0.0020551362608164972
-0.00964633993575561
-0.030119225766590665
-0.015772075732893492
0.007512763527616833
0.012875355069398856
-0.006358964303739888
5.565855813981145e-145
-7.908490185964261e-145
-0.007171447225258345
-0.005192685677732613
-0.0028584671025741453
-0.002911418703219761
0.006390138691260126
0.0023165785732146573
-0.0072472653198024355
0.0018815227724573635
-0.004507938227427171
-0.004770247647306158
-0.0061097557655329145
-0.0041197354015935815
-0.0005216140309739006
0.018440478662772736
0.0013336287862533145
0.01808347815551575
0.017542123817032757
0.005470646312657005
0.027249872592692025
-0.005908571166372943
-0.0009334340312351898
-0.003602811864582384
-0.01511352605401582
-0.015218489467271994
-0.021412985370927
-0.022136904514695903
-0.0041043558625974514
-0.028282493930073847
-0.02061385956169798
-0.015429799481848501
-0.021239983921275133
-0.020225261121439752
-0.01036092923879688
-0.006042851319756063
-0.014836066780858375
0.0033734084603364092
-0.0011952713268535043
-0.008806127652184354
-0.007887780194366138
-0.0013126980994577334
0.010435822247302823
0.0036288937367341847
0.012046144028166793
-0.008739084360456747
-0.019579989470583432
-0.011023657699652885
-0.001380054020249258
-0.013211366442069772
0.0014487556387545962
-0.024347962811352
-0.01847621042201908
-0.004975539096658393
-0.01238546458011217
-0.018293012528394076
-0.007323590316826375
-0.006501280068064699
-0.0017669542269339073
0.00886739310723415
-4.485044811336683e-145
-6.1953681101493044e-145
-0.028644691783145403
-0.022684107005679677
-0.01893966537640234
-0.010659345718259616
-0.012719001290676178
-0.013926918693795068
-0.015540351728020253
-0.014195630189953273
-0.01918256134344762
-0.0085521697289017
-0.01681261284422986
-0.016329187277272013
-0.0038273022921941355
-0.01804363788043741
-0.014729029621587047
-0.013160317063046746
-0.0029887253307109484
0.017400005334239715
0.011001424256125566
0.002449621038738699
0.008286427110729085
-0.0041895874013037964
0.005320502999260801
0.006850729360115588
0.00011169961641745979
-0.010170388646131923
0.016757527611012936
-0.00651911294134846
0.0030317460799866446
0.00753115764138848
-0.004323109391814956
0.014368639898532602
0.0031443412513091056
-0.0016923816493133403
0.0020406807480825282
0.010154232064218515
-0.0020696116334405785
-0.004358656360473413
0.008380410705408584
0.011417128017022111
-0.00399727936745412
0.007039501772807634
-0.008664222275167947
-0.007623002578940008
-0.015264538949899825
-0.012120135365218648
-0.0033699453816741364
0.0053613513756549476
0.010834278099864515
-0.0053811391895520885
-0.0027156446295244782
0.0053893475093700575
-0.0022649366485433513
0.0015878838739180599
-0.0030823343477784653
-0.0017725395604321144
0.008781063808220439
-0.005124680424260734
-5.886504588668018e-145
-6.279734942869105e-145
1.4069570551489444e-144
-2.3810547427169122e-145
1.332473861474138e-144
2.9280931436827797e-145
5.5854751549861066e-145
1.574400036634084e-144
-2.674098231121547e-145
5.854190526389511e-145
8.32301764879242e-146
-1.1893856781034451e-144
5.803756044256323e-145
-1.2505853248914155e-144
-2.5485313739341058e-145
-7.167374177858068e-145
-1.0408501811386746e-144
2.3244406442814235e-145
1.2142492110666258e-144
1.913259155762987e-145
1.035029869362429e-145
-8.851574024938034e-145
6.229608855845256e-145
5.675781533794826e-145
8.837586131886966e-145
4.270617477319735e-145
-9.152909803114859e-145
-1.6799997027753456e-144
8.428078996013706e-145
-1.5440808621910537e-144
2.0392009625400892e-145
-5.2420299531303454e-145
7.71092718623306e-145
-8.47785528610269e-146
-5.099275333773304e-145
4.766722117811248e-146
-2.3818624102060006e-145
3.2328986357422555e-145
6.072311906618729e-145
-2.7283643232678372e-145
4.472494159751998e-145
-5.3953869777189036e-145
-2.4013402155159896e-145
-1.7916157876826465e-144
-6.699554782327991e-145
-9.355514263247844e-146
6.03350559249491e-145
3.889840488406343e-145
1.7156503258872186e-144
5.132355328120245e-145
2.3905027374044506e-145
3.8893530910590806e-145
1.2464855699676816e-144
5.250287386738867e-145
1.282583680323856e-144
-9.916861948667437e-147
-6.976385617835917e-145
8.729768659546311e-146
2.754032697062891e-145
8.433290138684947e-145
-7.989467003347988e-145
0.006164237338724074