-302.98356262421936
3.2775499077664235e-148
-1.7109296308884435e-147
-1.2622842597458065e-147
3.9087884063854187e-147
-2.2653495534725585e-147
-4.2566683187005856e-148
3.700084257280399e-147
-1.2226883304732335e-147
3.486395397179302e-147
4.541309575898279e-147
-1.8934632981935845e-147
4.489891051324345e-148
-7.341442469164873e-148
2.5888954233063804e-147
5.721645679025238e-147
-3.438484670981696e-147
-1.4981725303412444e-147
-2.2159088911033366e-148
2.744246765117765e-147
1.654395022686113e-147
-2.558241348185232e-147
2.6090580702812877e-147
-1.2132830091709928e-147
1.3716765065338678e-147
5.1936016445776336e-148
4.3342230119274515e-147
-6.008044400457636e-147
-1.2679580186846624e-147
-5.263963566630471e-147
3.645758890628991e-147
1.5571283087704794e-147
-6.370871535710846e-147
4.6920178811941725e-148
-8.748689984295964e-148
5.519353449572445e-147
3.548397298741426e-147
-7.062003036676007e-147
1.9805337320458593e-147
-2.8569697575752175e-147
6.681883921605293e-148
-2.4390814292673633e-147
-6.073678686356218e-147
1.441760598449649e-147
-4.502099541711122e-147
1.8899064809658905e-147
-1.4378303163404962e-147
-1.4084719327608852e-147
1.2636568197544307e-147
-3.6491172676155806e-148
-1.2935529969420104e-147
1.2886462388983113e-147
-7.532334553179935e-148
-6.376920564289326e-148
1.2080511757824505e-147
2.4569876023099584e-147
-4.084980731485234e-148
6.390164152392132e-148
4.5206029276300976e-147
-1.928531137183334e-147
-1.3367868559617356e-147
-0.01842825800703422
-0.004344609054383059
-0.01261791036960851
0.005878105738190946
-0.01677224940843308
-0.011375630187690555
-0.01581790555995881
-0.016075161413291385
-0.008031333005701581
-0.0018090309880032006
0.0006559063572943875
-0.024680820526945854
-0.014823206792565866
-0.011026300503150269
-0.007045328138244767
-0.016404983730017357
-0.004198911375651195
0.005110486118004523
-0.007068272108404714
-0.018036902131670002
-0.009770554020286351
-0.02864165656401922
-0.03265110311792811
-0.020576653729481063
-0.01196332366386177
-0.014902042493856398
-0.016916155280132704
-0.00823365781296856
-0.011979754694163
-0.01990800964006709
0.00046750610116139373
0.00012015906132320251
-0.01996779483345706
-0.0032728061353601346
-0.014712267925939361
-0.03249299248222075
-0.020206313234653297
-0.008006848101793463
-0.01482898829052131
-0.014860052548363204
-0.003400433340329605
-0.0038979773153608732
0.0025962623782313124
-0.009291812676602318
-0.0002757738193330352
-0.0002283538759242984
-0.017593536606610505
0.004785390266379562
0.01809470923588259
-0.014428307260257728
-0.010659032144463164
-0.01954216882719594
-0.015412274762378924
-0.011948445928388028
0.0077747195799089
-0.0016626196906443208
0.011872569270225987
-0.004572420896847566
8.804907897186592e-147
-1.9645634876586807e-147
-0.010468715850341455
0.004398804412194699
-0.0024892689632837694
-0.002152782672860199
-0.017118413592329823
-0.0007429126940995724
0.0014445919122038798
-0.02505530542310313
0.0063608386703551826
-0.005540710889256357
-0.00872940084259342
0.0011833147905790419
-0.012131458344692614
-0.004425549246105073
0.006822978133943418
-0.01230181076444466
-0.00144100707978151
0.001167885366699671
-0.0074865781345204
-1.5615649530308606e-05
-0.01916297917143658
0.006778045702163559
0.007597250371094037
-0.028857938251959935
-0.016048315381802424
0.02049031110285188
0.014771766246113571
0.02309517019213425
-0.004933111179853385
0.0039072525422815495
0.008152366939121932
0.0059788305586288
-0.008287801531031386
0.0027239887387995976
0.013173207539864897
0.0032087222703908714
0.011963989886897721
-0.007232203086076068
-0.008652430626157413
-0.013319372157154159
-0.0020722651706391207
0.0003368294778457567
-0.010384745784751558
0.003402194485848115
0.00043307831627529853
-0.01652869674653733
-0.011398875759452497
-0.004381902252257284
0.017598348029831477
-0.01214771709351832
-0.001714817233053144
-0.014945370533128565
-0.0025811316682239037
-0.011935434574832033
0.01122646192580139
-0.023780871673810506
0.000794291197733514
0.014476558197378938
-3.157796435765079e-147
5.872594059418346e-148
-0.010119806046869306
0.011422726104800218
-0.0018134857098532776
0.014461485972762426
0.010665541833981709
-0.0013784440832595116
-0.005433252268782526
0.0019243215838345533
-0.0029977940585693775
-0.02407222204521235
0.006653285199585659
0.014855568993429803
0.003041371260294601
-0.013850947313626022
0.0003170969108028519
-0.0032266676067100176
-0.03103179491820827
0.008001948479987421
0.020971315490274846
0.0007646916068421543
-0.01294776607650867
0.024493651562835617
-0.005226371409887998
0.0033700181495673167
0.010432630166472931
-0.0029453316229241114
-0.01592110191317643
0.0034863993586035074
0.0037245392936950555
-0.0023672151281378846
0.005147566390222461
-0.004715673857786743
0.0004119394726082181
-0.013115836484677408
-0.002878689313014666
0.011195451935624472
0.016471841632094773
-0.0034051575644156186
-0.011381013356128193
-0.006738721592127913
-0.009577470992062615
-0.032543474420859676
-0.0023033509283017935
0.001721946983826395
0.001167551095786758
-0.005912354641211889
0.006604287767800699
0.0006319656280412307
0.030770459829569274
0.010975546270985842
-8.955419720166806e-05
0.013385893379689425
0.005343192257523827
0.011883783165326801
0.01087717986652952
0.000830546662248865
-0.001873628516272625
0.014146007991777083
3.585766561465598e-147
-2.94045087169038e-147
-0.007103551580725928
0.0002644912905027009
-0.01557671658344997
0.01607084418379865
0.0015532943378081634
-0.007994288167301722
-0.008423289480859547
0.010691824817036977
0.02042698189958941
-0.008803554638587148
0.01083146860995972
0.010361653094744
-0.0005052309748244776
0.005244864474070572
0.002428122376929306
-0.014815855020401433
-0.0014955302361440905
0.009556120279354085
0.0061406619070194
0.004910085882262322
0.002511658656450234
0.00957046779913015
0.014104499446719071
0.013433167449433165
0.0003528326191841617
0.0013476671991451738
4.529783969054629e-06
0.004892257335968055
0.008246308062303646
0.0018134653454466394
0.012351140190847957
0.011828489078659667
0.004170368318036909
0.007525228593035544
-0.0024275782805036885
-0.0019490548266844904
0.00802755852108711
0.004478137293787122
0.00707970447679234
0.007984048935823333
0.009044510562162416
-0.01007689600707258
-0.0030898324036753395
0.021299971757734352
0.00969551642208509
0.00770156342323856
0.008337712853104938
-0.006746616502960726
0.004597732584708269
0.00537584810094801
-0.015939816974560973
-0.010812327606337624
0.003120006340383282
0.02061670948654958
0.010462819669477192
0.0004902668575099704
-0.0016646771858105545
-0.00010474951653759832
-1.1006616737073936e-147
2.009829438940463e-147
-0.023736725210060147
0.007244674584224842
0.005041472674713406
0.0033850940087761087
-0.004810293804527034
-0.015992041554007172
0.0016211491828638815
0.02712344505367674
-0.0021564367139496666
0.0015946953026130268
-0.005112702680611594
-0.0007828772480585821
0.004603045295631896
-0.01577559875425651
-0.007718694686593164
0.006032030059501272
0.012316735756854281
-0.015855442120166246
0.006066931895586725
-0.011864898797707338
-0.007057625026338436
-0.011345414039173492
0.0017342416959137503
0.02770355626434279
-0.0027809816870380728
0.0017319564134214455
-0.01905410148670521
-0.0035806996250814997
-0.0018928451201804637
-0.006040959834412723
-0.01781124546357086
0.01456454825271943
0.008416835597081177
0.012035833736716975
0.0005159164673287692
0.009569133989741643
0.012147536710325556
-0.005228749949957824
-0.0009991822708892383
0.0001873268714978732
0.005885839032516211
-0.0038270333137279647
-0.014373611008684058
-0.007665362240231673
-0.0002554110969736077
-0.0021996081195815864
-0.0055501210510749115
-0.010266145050245399
-0.002350623151003702
0.022953290993625985
-0.01050303060669193
-0.009750348220225025
0.013865219721881551
0.00939064117797736
0.01118845674861961
0.003060621383263171
-0.00029954238243653364
0.003912454093259178
-9.892849466742796e-148
5.592889768917143e-149
-0.02363952351765981
-0.00548731403106016
0.0015385535741895655
0.012113552181098193
0.0022907704767308854
-0.006369246594505082
-0.005902909882543322
0.018905924070363053
0.010155874828936833
0.0007487123930736315
-0.0014024149924225435
0.02258550017598129
-0.0035345926485944824
-0.004492199949058552
-0.016236064677516728
0.00550742510795425
0.00106861563720079
-0.0030021101703794507
-0.002615471928897707
0.01603854349502013
0.004967804040074995
0.010903160560683595
0.011232828587844577
-0.0020060751313957987
0.0076077728798803574
0.009658485125912277
-0.0023914155161234314
-0.000270999834007936
0.008640509223825867
0.004947942847148821
0.011608085202970833
0.017342824568777875
-0.007634294185523493
0.013816418637290138
-0.0007056054838392773
0.0048526344248422905
0.011596164117684568
0.02123841907088001
0.004905383269453411
0.01874759016399988
-0.0013053827286642979
-0.01586753606521468
0.007024297064373919
0.018148717750777848
0.0023195715599880744
0.0018074870556375618
0.012633768811618304
-0.0018995840214992112
-0.005236962342536769
0.00904771112423716
0.006617716689225515
-0.0053828666784111
0.007835247416221155
0.008153406784314357
0.0024926389565142018
-0.0012427207830232687
0.0008617021011076832
-0.0036733145101600123
-6.827345049927226e-148
8.8856871236044e-148
-0.0037765341633102995
-0.012660078103812328
-0.0041274586530855445
0.007978038548142795
0.010726787162488918
-0.0044419532457707685
-0.005103075405844352
-0.002671241634474079
-0.011517754139111101
-0.017241499022476882
-0.02790582153696812
0.003681215864558681
0.010678280183712951
-0.001810496877641804
-0.007935621787306781
-0.004292225331090884
0.0072094316505108514
-0.018995712427669523
0.02144185573298502
0.01674497784365199
0.00560576598085614
2.3351626898436507e-05
0.0038987208165521927
0.003599169091070501
0.00018481840335269614
0.023284758181776943
-0.0021606375246588823
0.016069030357403383
0.012046701447940457
0.01599798684102803
0.007179576740662441
0.010412798776649015
0.0027686542595995226
0.004404180850295576
-0.000725889461779854
-0.025308887038378296
-0.0010442448697641406
-0.025421804682774843
0.008005081219807152
0.016971927480036123
0.0008988308618656605
-0.00106483297991723
-0.030643370321379173
-0.005639466626166111
-0.01763470814052324
-0.020666484410115805
0.0015667368555311114
-0.011110563527058658
-0.000597219390953097
0.022150162050888773
0.009654438050181197
0.0022745316377856127
0.020740010772917386
0.010780105303812645
0.03218674602840145
0.004454463729599696
-0.0036438336017764607
-0.013483600586223811
1.1090548717611297e-150
-3.4709255554114366e-149
-0.004939690739126813
0.0173918522741832
-0.025478208030235896
-0.0032052568657575152
0.016999238677898446
0.011314526126297995
-0.016729549113429738
0.0056375610018588465
-0.009497965445776286
0.006751219938698706
0.008513118618574006
-0.0065981073313489454
0.00677783262425065
0.029633684962956243
0.027579450642462332
0.005659188795350631
0.007104017081097374
-0.001049000600664998
0.01587244260398375
0.006567810778141218
0.02250364940815091
-0.005664513100118932
0.003711713557475281
-0.006616308744842912
-0.032791770317749734
-0.019847632185913785
-0.03465808249976141
-0.008934661562467075
-0.002001462775178907
-7.147099491548578e-05
-6.487027255160893e-05
-0.007676527234015069
-0.013696921006254668
0.009335986775922971
-0.007759509418975608
0.008772908359402474
-0.012031527462424703
0.009217105343539447
-0.01455413543371358
-0.014554087977672985
-0.017274012118808107
-0.02231360773306929
-0.015092395106619815
-0.013824322344294503
-0.007636583737023454
-0.010850902266380472
-0.01525757536595039
0.009939302138029488
0.015398105600143697
0.012314061340092908
-0.016155583062654813
-0.020060553224047276
0.011169339357910854
-0.01716495476170219
0.024011976624139442
-0.002280665586215616
-0.011603488031416153
-0.0017688746482291565
-2.393244371809445e-147
-2.9701228747771967e-147
-0.007152812384131527
0.006775591239483486
-0.015122651820805971
0.01597541422516135
0.030439709458031823
0.0024507708399888707
-0.02012555529295099
0.0038484944867874355
-0.015647909932805446
0.010285662075491357
-0.016695184277845002
0.01058575381239777
-0.012874373467942297
0.00935808178662669
0.003789759936781085
-0.009817644351724386
0.005605381542084682
-0.0033048540064489146
-0.009764941922923171
-0.022297959384515342
-0.01618204114712806
0.010217790282911227
0.010464948842095933
-0.014611771585776699
-0.0011553076110323087
-0.008376619992856252
-0.011172600702074037
-0.023996933627293382
-6.785471669779823e-05
0.0048196312109577534
0.001972772419004097
-0.01934584363414019
-0.0009216868895382844
-0.01319649278259
-0.01229279398201082
-0.0009739696229502943
-0.0027001768544250085
0.0021877214673107835
0.01955777025938995
-0.001032028203201687
-0.005896508871824416
0.007835188892173335
-0.007418163133063619
0.004149320888789097
0.007306803458259068
-0.008110568436252416
-0.004532508496544784
-0.011847852082301515
-0.011568947999852803
-0.02140225665043116
-0.0034506834623871446
-0.004075969843294997
0.018930771329729777
0.002356754401519005
0.008550257515272339
0.009224877412415615
-0.012703121718679563
0.011315779015264918
2.729697850575765e-148
-2.908961808365451e-147
0.008803547376581733
0.014309806726278611
0.0019983671440276965
0.00447993275271274
0.020513290228633775
-0.005633801723748793
-0.007770416829906195
-0.004827286699356758
0.0027224881044274588
-0.005059350528090651
-0.02259934959990931
-0.0009152591009972351
-0.016136761554298894
-0.004764950980625369
-0.005217376291709866
-0.005617177618069025
0.0024776789787198336
0.00021213327155241197
0.0047863610844939165
0.003506078412378897
0.004946242680305717
-0.01650304487602304
-0.005849432281859654
-0.006097338309487352
-0.003938726601071686
0.005878831274131718
0.009133614879959338
-0.023104888489335344
0.0007065844367669022
-0.0007919020443824291
-0.00505773414679076
-0.009588874254669814
0.010134355181592891
-0.002762726472443536
-0.010412507304037753
0.0012009942861348486
-0.011386757796503756
-0.00273948987254206
-0.013952029056842724
-0.003790043748659652
0.0012220016189336321
-0.0010860173513642184
0.011898530054611481
-0.004841679147840935
-0.019165679630031258
-0.009273694474900085
-0.002104815173056938
-0.01696131671899293
-0.006224560133260266
0.004507858004091995
0.014714510125551526
0.007038676398297642
0.00879983693042174
-0.010852347548701026
0.005648505610018712
-0.003800829245573006
-0.0065187209128822155
0.016751215981448395
6.96050943502342e-148
-5.032238302645008e-147
-0.009233051430054545
-3.262898831665798e-05
0.010112088876496585
0.001643263319173661
-0.01406761711566832
0.008887050149011345
-0.026854697046862382
0.014426743500300654
-0.007525255122896093
0.01615228305319221
-0.019442494390636687
-0.0017315932994484086
0.027216217301248614
-0.00017438503913118575
0.00031993851363709366
0.012521417828059534
0.008792917011690942
0.005356995074094368
0.00782906340027058
0.01378860485365012
-0.0039189419389141136
0.003186672995186756
-0.012174034603800041
-0.024110994725319922
-0.0164090178907881
-0.03018932011595736
-0.016583026175866638
-0.021449026815388673
-0.028100450142404948
-0.004186046957338528
0.001092255683233991
-0.008957334255248504
-0.0020464621728338425
-0.0002820488697907582
0.00753785539504361
0.0008461475599275657
-0.014537725242681654
0.0017377673740166457
0.005850789772914439
-0.01653802590165488
-0.018919185881932345
-0.00168512485151012
0.024174838035464927
0.029112886734757155
0.007921674996149234
-0.013023123667024739
-0.0016780561943853757
-0.008647429697054612
0.017354439566201682
0.01329135585044874
0.0019386521629968653
0.009702335423072549
0.017652447055691495
0.012405616599574659
0.024840981847019637
0.003053772305811322
-0.0007659788069786606
0.01170548033713048
-1.9364275168895845e-147
-3.3212703373933876e-147
-0.015273639175765108
0.0023381481740218073
-0.003611430599563996
-0.0120866493369306
-0.02939729777166928
-0.006043109905658993
-0.0063993428006570725
-0.004050973403524188
-0.006816656238546842
-0.008034733555442054
-0.01846222783857225
-0.010469560684539395
0.02529108716362083
-0.012811160197130498
0.0024374553731127666
0.016799160388010215
-0.0089298096948286
-0.0019197134411987075
-6.755302380548755e-05
-0.022605496104672006
0.025740494312529567
0.018873026196721966
0.009114909839698473
0.007174217799449242
-0.009304473666481322
0.013334408264380553
0.0068324567892360175
-0.03163867617722054
-0.0017482316760552012
-0.004863983715140107
-0.004727717137417962
-0.008296501823827662
0.0023107994735839183
0.011664726864231832
0.009581473381400356
0.0006277000394643672
-0.012915438203564182
-0.011842338787210138
-0.005316952437166549
-0.009432847844470871
-0.04611889050033951
-0.02245848188288403
-0.02342280973816932
-0.026212471951360464
-0.01626898284052805
-0.035740025678493305
0.01474082132526124
0.010309806659637145
-0.028299557771472285
0.000580525609015661
-0.027030673475893413
-0.007319537456332823
-0.009857564819005049
0.0024643787801619053
-2.6178388788216864e-05
-0.004346275463408342
0.0007773122034927319
-0.009874770732018728
1.1794973638790395e-148
1.7314991648581644e-147
-0.009867118042562047
0.02614354073380777
-0.014834030123775436
-0.010635610111382445
0.006377361341559867
0.026907598280695968
-0.003926581170819982
-0.016643592634972587
-0.022210271150118928
-0.0018304305488269172
-0.011867928864082765
0.009264092833340492
-0.0045953428089807275
-0.006124093503095449
0.0060064509301758495
-0.007173632348873459
-0.021231611127447446
-0.02182783902699542
-0.022735562023635292
0.007019004428429692
-0.00023678627328235433
-0.006203372851694962
-0.035909096507579424
-0.04507239779705664
-0.018626597057726874
-0.03072139842893098
-0.01383273646208803
-0.020516218477950397
-0.0023553217288760347
-0.006884715236044197
0.0002772542047274444
-0.01400885859215575
-0.016231736681827376
0.003255966769568056
0.0024690511254049606
0.011794167670306839
-0.007860621607807493
0.013880331576452257
0.0014165413987052514
-0.010038878560444511
-0.007724011862918885
-0.010849891406712485
-0.02160251174282113
-0.008999131947534534
0.004707303892030885
0.00672347908707578
0.026560845432312373
0.013177979386955013
-0.011645522685032094
0.0019856191926868063
0.002716771275072866
-0.023684309010851626
0.005382747697631243
0.010634849062422751
0.009062752168309604
0.012369272634907285
-0.010431052534890014
-0.0054531863168196405
2.0628821729082096e-147
-4.338582075380241e-147
-0.03434602910054715
0.009281778507164658
-0.029401176659049504
-0.01992125976201279
-0.014564521216280239
0.023290062959474063
-0.008738763971655766
0.01519534715483604
0.0055242986520222725
0.0026721040990185423
0.00607847928725512
0.015481028226871885
0.006918602025591713
0.027414828342873208
0.0009334362224916859
-0.007639020545288428
0.00337041706613903
-0.002307404477692983
0.0014766014557287552
-0.013690071234423982
-0.002337597476123407
-0.023680845857343917
0.01820993277047301
0.00262071513433601
-0.005831036347892304
0.0016399955743642688
-0.010905742516702236
-0.02374694962270233
-0.005826283889840135
-0.013319044090351121
-0.0007181534562971162
-0.002499554306851576
-0.007239872523264943
0.00219481976226651
0.009885478071550434
0.005163561885543913
-0.013520971516835794
0.0037323346646215066
-0.016996449980446568
-0.009164011509646693
-0.023908582441455148
-0.019175229277419197
-0.011009786519247926
-0.006693335097432462
-0.013614420900638493
0.0022572479765048193
-0.01004111657403606
0.015779824575391673
0.0072910355456403285
0.012836383507652248
-0.024787468229689424
0.0038558131872116225
-0.004003948920740559
0.003718676824266888
0.003860345934666788
0.013882817265826568
0.0017897389734218689
-0.012934667216724479
-6.185044268693729e-148
-4.502387525415927e-148
-0.002156704008132258
0.01546072610976165
-0.0048866545252880395
-0.005486180916294026
-0.0005104748704751772
0.03027771206216301
-0.00853064730216769
-0.008399458120262483
0.016419753104382772
0.005698949946595219
0.007914700537939122
0.021029449591997696
0.005985608972084468
0.012748397023856061
-0.0012276996905248114
-0.004918742103563814
0.007121687709595175
0.004208413837978547
-0.015169287798421794
-0.019993554586695803
-0.02311949070668575
-0.002363691722810025
0.0013895489544752003
-0.013095156519959465
-0.009291955933276407
0.012722578932766378
0.004715404899540294
0.005424835716871447
0.010260102199563912
0.011586271245660189
-0.008547620191958125
-0.004064490245521019
0.007208131341026996
-0.0036286993935411784
0.0014336686675578132
-0.0057479134016602835
-0.002558061495433183
0.005010121133229546
-0.007374563477834975
-0.018619518388648202
0.01544425486720385
-0.0007359498776616435
-0.017910852623962942
0.016195956521292257
-0.0013580087487200122
-0.01720072257122094
-0.008446701884941416
0.009623242270407785
0.0071020073353971445
0.0039993598351619865
-0.0032366753240028316
0.004924554378195209
-0.0022897859899131926
0.003916143167790535
0.002888692250418443
0.019562810039319867
0.010838851132317286
0.011436542755568027
-3.342077821794684e-147
9.888665427527093e-148
-0.0007641250176027447
0.022214010971778917
-0.008699406743847055
-0.013936774267901058
0.00976053681117306
0.017869596557751194
0.013326468974724273
-0.002970032220802176
-0.01609730650408201
-0.0027981767392576654
0.025712409500800427
0.007538285370798959
1.1306641128020827e-05
0.000527707249811811
-0.009424299155328789
0.004111305897690533
-0.00868724113114327
-0.015716773327108278
-0.005683791481973885
-0.001126866906946516
0.002878733490561564
-0.026917097387345105
-0.006987977089028041
-0.022729801884949535
-0.008945928017082189
-0.008724783711741015
-0.027728628647922023
-0.02180145853193299
-0.019132456278132166
-0.001595219238431123
-0.0045311652464321535
-0.03922501395176112
-0.014891175293866084
-0.017619920322441168
-0.02941180249186605
0.016110357172907024
0.012466930346661716
0.005741199257866719
0.012234254004404898
-0.0036420388054400777
0.005080241990482576
0.0006082385018855931
0.001483794748710103
-0.009789825203055165
0.007131223550406416
-0.007326226132247217
-0.00285277139574233
-0.008769192318040867
0.023448748308287463
0.004044062774042755
0.002786241457855852
0.009294708830980707
-0.0018346285276504273
-0.01167660917194793
0.014454404135987519
0.010143377299942568
-0.007658075406009612
-0.0013623973872505747
5.8262523045357065e-148
2.4869262884137207e-147
-0.008957480926224554
0.014841712046276696
-0.007830086809971505
-0.024563271025697213
0.0039602756040044195
0.016243755204926075
-0.0013575517137380437
0.004238868458228122
-0.007466090218375696
0.014037417978962552
0.011411456088221257
0.013087692364681425
0.015917711861788406
0.004433112855893591
-0.01677553057297949
0.009303256036831097
-0.006532646061636347
-0.007544649356720277
-0.004570799026920115
-0.010835361410495412
-0.006739583204181042
-0.0011674956759163428
-0.020247496311240846
-0.0040184181750189795
-0.011758635756665275
-0.015337166786103073
-0.0050557264029298
-0.005637287196159141
-0.01738216014647796
-0.00026521160035148825
0.007468449922622169
-0.012246371427881344
-0.0054439783655468536
0.014288947515579449
0.0027638103930626066
-0.002818206994776566
-0.014018946513096785
-0.0118645315637447
-0.020797752617408443
0.008759451206468897
0.014787040645012711
0.009466939862672445
-0.013654445295729734
-0.0033307372302447355
-0.0030073512644631976
0.006893183553952935
-0.009751077720478923
0.010154881229426337
-0.0014561731500292172
0.024490508677718792
0.019705686519414276
-0.014487253396519748
-0.0002842163546705044
0.014261421461478806
0.0045177182015029614
0.012744943003129526
0.0026855690747774833
-0.003898655763257863
-3.112399111063416e-147
1.3088912230979745e-147
-0.015867788493277166
-0.008094136568190179
0.006912037392382286
-0.014325087345659595
0.007998617432219772
0.0002352417143536034
0.03208074908244219
0.0041502132879807675
-0.009450701250357144
0.007387976560999029
0.001407397523236005
0.032900586282803464
-0.005089073254380297
-0.0007473920231064482
0.007784319040964322
0.008723111024570008
-0.012343889722389303
-0.01757642481521523
-0.006045684312214978
-0.0074233575717809015
0.020108886385626613
0.004092206530687682
0.003926886439959065
-0.008774971255842067
-0.018897941432417055
-0.0054284545007048605
-0.026026024411919837
-0.005304041926260108
-0.004186317076112943
0.004647702774254409
-0.009822659144476543
0.024266630296440373
0.011389857463602817
-0.006682923674884047
0.00024749571806081087
0.003786993714422192
-0.011178163311292847
-0.00845549679581605
-0.02664952627580841
-0.01976460193441421
-0.008101070494446737
0.013703230393483002
0.02169137080603466
-0.01831349311486015
-0.019898380556938444
-0.033166143525675686
-0.010157548646372977
-0.0034050813982968793
-0.001012143758459818
0.007293704053304597
0.020519974015765826
-0.0065895553397972585
0.008414875422961501
0.011117042943988553
0.0025016264133854533
0.00979446849434249
0.005680474393682194
0.0026900056927402364
-4.144507852568949e-148
2.084542172283963e-147
-0.018653335693930878
-0.007084915289690451
-0.004622136785030157
-0.005941157283205976
-0.000836699573603385
0.01603768159974273
-8.475319091441303e-06
0.0018381300281613273
0.013384869323700442
-0.0011431327968787351
0.010988643946430147
0.020732155740603154
-0.004103808397148438
0.008795982641021409
0.014262849644870648
-0.013861758481064858
0.01283658580069746
-0.006188276623941116
0.016639610333729727
-0.0002611832907585343
-0.026791561656074592
-0.01540860782648953
-0.00841696773152341
-0.0011194004768636857
-0.004669311691549801
0.012666669154326335
0.005759202753918216
0.001921772521389407
0.005099589877085461
0.02442569725084045
0.01570661393478014
0.0013603258011937952
0.0019681398823172156
0.009778275912763432
0.015228735330157825
-0.01356373723768632
0.0020334143362735835
0.011888688989470667
-0.01738964955376413
-0.0005137228255624989
-0.008093839416990324
-0.005171597800083482
0.004613877740169453
0.006841805907453595
0.010911888856466967
-0.02132795786277009
0.001587036418200866
-0.011359617159935928
0.009939008036881865
0.03437471056185616
0.009062091519595937
0.0005109344688810475
0.015157748920476688
0.02933426393995428
0.012621809134722781
-0.013297533360177636
0.010706000302355946
0.01379934558397652
3.3393980449746835e-147
-3.4976211458549493e-147
-0.007487285783990186
-0.0012500954372024382
0.014860018382759091
0.007074554205705389
0.005085024605758244
0.0032725913034161625
-0.015937359272501724
0.016151722135853586
-0.02014978334223087
0.020140593771563475
0.0016127052199405886
-0.002507028524647254
-0.013921274537373303
-0.009550447183531287
0.0068961495640461265
0.016796441655472533
-0.011689118585613082
0.027347816753640525
0.01976682197624292
0.01642020950893379
0.010688333948495572
0.004303502578933446
-0.022773894258596744
-0.005695193891267706
0.0006526482112602014
-0.005134845986551625
0.009748711754480143
0.020859210813040235
0.023541076859508778
-0.00854194383325196
-0.008236304847177174
0.0017595435361249113
0.005201971346090913
0.009016124942252401
0.0004852049749005644
0.0023514973479944116
0.010570632631979639
0.011741636001212823
-0.008949138618067573
-0.008615865239808874
0.010212260184184183
-0.014321355735576165
-0.004279276550008331
0.005812618717912034
-0.007759456512510556
-0.009533938085626517
-0.010588630816140561
-0.00026386395559186137
0.01826796148493529
0.001380245326734573
0.03498727191665804
0.008969156990297787
-0.0028594711705682953
0.018730387054015068
0.002221524792917277
-0.01508594559218993
0.03214261412333964
-0.0017096871304446701
5.583290826677287e-147
7.870880787719117e-148
0.000935525280372567
-0.02202014989127621
-0.018401868607175947
-0.029162886784341268
0.01499586495512312
0.010581788160273524
0.0010797962386531802
-0.005968339810004697
-0.001013323480093963
-0.0026444555975496855
0.03499383378858347
0.007943522012376754
-0.00010071216082542696
0.009209594165731676
0.0003393147579486566
-0.002722785971276669
-0.017853115487939986
0.03072337112440686
-0.0037090556008597788
-0.0031674501210849347
-0.0008172274115015389
-0.01712317809883716
-0.03382220055935813
-0.00031195065032739157
-0.007491213308107933
-0.009710124647430164
-0.015707682507662236
0.005499108743983504
-0.014186322348474391
-0.015066328904347332
-0.016183313265196467
0.0025363186997255922
0.000438067844920601
-0.002670382122893046
-0.010963975052424905
-0.005264727828012291
0.003995842797129962
-0.012959698842157537
0.007315365046509802
-0.021270922317191788
0.008286765436755435
0.0008439340518845237
0.00581279525011407
0.02373651394664374
-0.017449631766699066
0.0017388108519503487
-0.029183974390579355
0.006128184549996896
0.014138500380397873
0.0040659687969765
0.023137742737226265
-0.007992355718302785
-0.02132084943273648
0.013759645707239867
0.010540007342478855
0.00023402042686722254
0.023976994656853035
0.009119420030947857
-5.0805994549261505e-148
-7.343167246211622e-148
0.0012700576507312623
-0.016227555288281674
-0.005974754628515698
-0.009303119526034145
0.023504982074479295
0.00025237029591689236
-0.0014102373608744297
-0.00397621908462442
-0.0014993135949282598
0.005033833427118698
0.023509565894086128
0.009194674926204103
0.005013967559444378
0.0013743282471829744
0.002662901579981621
0.01461717793104482
0.0029632087474122317
0.020016350657228028
-0.012234616827201852
-0.0074844517633105324
-0.005512754501693365
-0.016503988481147272
-0.011819014747201083
-0.02162731630901892
-0.01940672446954595
-0.017488356829889064
-0.010242954920964898
-0.013451865119564605
-0.011747199259432049
-0.009301790261641133
-0.022864370539220406
0.0087941831556007
-0.003953020083992522
0.004866733733048088
-0.025357007365670224
-0.014010333151283173
0.005889121554503581
-0.022283361938810458
-0.007574341938110028
0.003097010251573459
0.005572279470198496
0.00147546166621664
0.02088910469108509
0.013888190535756113
-0.0013646813640937044
-0.006941555947706103
-0.004597374203219224
0.00027586931869185913
0.001980325571258105
-0.017168656302980218
0.01885000970126798
0.00541736284134521
-0.00500764640926347
0.023048844593179067
-0.004448068667499832
9.088076714220009e-05
-0.002906828853692406
0.017533349409168092
3.774118241631569e-147
-4.173289028517256e-148
-0.003138986104224489
0.009562634701251868
0.0012780409734926034
-0.005232343888384171
0.024418694075652735
0.01930371702941088
0.004823214316291234
0.017304796520166203
-0.005204253877168721
0.00941762156553259
0.0012885497686402248
0.004947355519959669
0.01641059575778404
-0.010933598661682422
-0.0029992267378595168
0.02124605066722678
-0.005585024486522234
0.01029874983088294
0.001926335659801253
-0.00032797578707440445
-0.0004088303694988444
0.002110020339630333
-0.010362738854027902
-0.01595389959642666
-0.009198816639166984
-0.019937246672416052
-0.024823123419995187
-0.005140196160581012
0.0021208570658088678
-0.018394331333839067
-0.010218143415908812
0.005575452737974649
-0.0009977020427841363
0.010384224947675805
-0.001958197700610817
-0.01714519835511356
0.005610049670997279
0.012076178027649922
-0.0024777221460166015
0.00926971201423282
0.009518982265592103
-0.013626862500755246
0.012274570545659514
0.005903037954929866
-0.007427546442663868
-0.02718730200315796
0.007131776607955156
0.01178932388207162
0.002675656488721466
-0.018423119165212314
0.025143943003053146
0.012532890114619982
-0.004223411478614615
0.025937028048559026
-0.0013368809441476224
-0.0025083604616234923
8.444629067383217e-05
-0.011772734552528499
-3.388861091601228e-147
-1.186394831918191e-148
0.0027216408009209654
-0.008153036877439077
0.004643463291193084
0.0026072776461786677
0.004151349395883778
0.0023561726058450826
-0.003534208503555677
-0.015359506473785648
0.0002289584649529333
0.006039567960276809
0.006664056715010204
0.005085655000618923
0.015557664142724777
-0.007349987515155314
0.01233141315982491
-0.014435739293027508
0.022639130363741555
-5.220458237758548e-05
-0.008233548884316067
-0.01590670784006673
0.006860417598528612
0.0015056142368845703
-0.005321344657399272
-0.01619544224416828
-0.03212140126792541
-0.001091733241183899
-0.018574231337586775
-0.014338678827766923
-0.017656427088833793
-0.015327655505957586
-0.009055631891480507
-0.003954696972171997
0.006670744465000062
-0.012561036632437288
-0.014233523851549232
-0.02910801340485472
-0.011876800809038964
-0.01412479848997264
-0.009845873726102823
0.004326302188520248
0.008749524435949882
-0.007349169074613621
-0.006216189590584168
0.020800485519701907
-0.008922245296255312
-0.01575206575166607
-0.0038001317457211337
-0.0086181014862968
0.002696111733593413
-0.002616495080544374
0.025579682744481684
0.033394977672651344
0.004599835680648244
0.03983212247618322
0.010574563362897598
0.004617057018960361
0.013647526657671293
-0.009726614035846903
1.4398246089998377e-147
-9.26874679494006e-148
0.017574139904827795
-0.020305756564347993
0.006893351110605211
-0.0065154677903932435
0.012301527711824193
0.009328440459018643
-0.010085879783054473
0.007242376538821264
-0.0005666475474352206
0.015405684627417475
0.0023406860477720136
-0.0011842785735030966
-0.005901243791704155
-0.0071949047418076876
0.006380165868876823
0.004562081535470961
0.019285090837424242
0.028592002323653918
0.001377249705444885
0.0006208893022767518
0.007974359238748048
0.004588488354179659
-0.004145704559988912
-0.019741378761186673
0.00026680972785185535
-0.005333850323282775
-0.020284864669183163
-0.008064628843212386
-0.003264550698518706
-0.00395217679460188
-0.024866673971372523
0.006942460118394967
-0.016773375037788585
0.004094823068880221
-0.013236047892213974
-0.014159759395127626
-0.011580876514093522
-0.0016190589976284957
-0.012060681446089148
0.0032276103940679784
0.016437103486395457
-0.009314975636906411
-0.03130371137511264
-0.00010680462919352156
0.0029957000206269806
-0.007805654325428473
0.005689686009372422
-0.015112303404069872
0.015427360920821186
-0.015836535835588635
0.024983673021813292
0.018550238489414513
-0.009052379164136506
0.026733117121206004
-0.004450112145492431
0.0009431623360485415
0.0008419124277241105
-0.013334758356572564
3.6330018528609845e-147
-7.843835298943982e-148
0.004167566477023639
-0.01616700434451197
0.006658189077129678
0.004245812784157196
0.00958426117433367
0.019010011500970658
-0.00249209417397811
0.010636416071356212
-0.0007890789728630365
0.003054313999207035
0.0036639631902731134
-0.02194134464588964
-0.01312881914235237
-0.009089806952256413
-0.011277190675923884
0.021462113046760413
0.002906876519520296
0.0053542745785080306
-0.006183336902678392
0.01005444400724995
-0.022340600610383857
-0.018822560733103236
-0.021421521462930013
0.0057435342926912885
0.010613276848833014
6.524390875891626e-05
-0.006911894818526842
-0.008025980039010443
-0.00882237050683494
-0.004395479188757413
-0.026213938559042672
0.008923805446224436
-0.0018494579522296032
0.004617929235114574
0.005199341725889888
0.009555052068397492
-0.0071713948958420926
0.008480355824583587
0.0026855482216730656
0.007297701439134123
0.016117394711190267
0.012402144776245341
-0.004004686776840845
-0.0010040871349981946
-0.0014396826873289362
-0.01290403703246702
0.005886261644095753
-0.00045372775895366864
0.00032552548987603596
-0.014042949866759951
0.024924422520037806
0.019214929080012717
-0.0249867777249417
0.01854563478520117
0.008604945473720852
0.0034194805528584555
0.0002204043795359
-0.012718971838756015
-5.980153825294344e-147
2.3007067553476872e-147
-0.0205023505058771
0.0007639792776428742
0.0016076628739235895
-0.015491677370109065
0.002011456909160052
-0.018670047195788998
-0.013559780838257013
-0.009454273265689402
0.0052270507319678765
0.0076277116025228586
-0.006282102732326216
-0.01564580468981028
-0.027811726470969966
-0.018574917883941472
-0.006444377940033097
0.027431923788782855
0.011124805940911715
0.0008653174318958116
0.00241956648960508
-0.018722770804218095
0.029605255634893086
0.00018099731383492364
-0.009545980663145185
0.013621777307481401
-0.005567614277971213
-9.273012815529155e-06
0.008233610880666885
0.002395465186417496
-0.008451784716970903
-0.01081636452277616
-0.019577104863583532
0.0032411862838376067
0.027038912843517122
0.0334813311215859
0.022736819628037374
0.004033898260844308
0.009578514309158815
0.013788242043104429
0.022024862470423952
0.017628973215344207
0.014355248099864682
0.009039954333949524
-0.0016109204306026862
-0.005632185156501357
-0.011465535933515266
-0.011257982880737594
-0.013360715050210276
0.00967477926529348
0.0001043928943380334
-0.002165554877347781
0.018521406553665715
0.013906348669828523
-0.0022297588286542993
0.010133177447171451
-0.0023677258439336294
-0.004787026167381797
0.022910014912151038
-0.004370639500951597
2.26346343438126e-147
1.0529588498111316e-147
-0.014871365847502122
0.010108094842473665
0.017624976553566908
-0.010147339373466485
0.018713321977474277
0.005155915887710613
-0.006544404592818391
0.03381540867763297
0.004227936276375474
0.014116531628473712
-0.015401021619460501
-0.005415314575624683
-0.004899097340734658
-0.008426194250237044
0.008560015654870825
0.030486203399923775
-0.010285965381242997
-0.014401799282622906
0.003035664904977374
0.005003835546236824
-0.010565543149233437
-0.0032035798364321044
0.009015303507882832
-0.0060999089769749
0.0008697440362896245
-0.005140659590660684
-0.0007665012015182716
-0.009517633335411875
-0.0031831321627660866
-0.008666165735276583
0.008510327982308769
0.03383695023163025
0.009734209054422294
-0.009521835642674795
-0.0003325392547021634
-7.558417473552516e-05
0.013537076002591486
-0.0018692341224356387
0.013637712525433101
0.010665207367488489
0.011895095589276778
-0.006049682880658464
-0.005809388965645106
0.0011301750927572537
0.015629455110348956
-0.02151746114660985
-0.003294228164501455
0.016531716418449575
-0.007252762184970485
0.0033681273259779584
0.0027185157423334164
0.014350095515730642
-0.008811066596845309
0.014687804801427415
0.00025813739787592787
0.0018061013049546547
0.01806759284651318
-0.0132069949595795
1.4119386443131525e-147
-1.5327384375715242e-147
0.018125951049501685
0.0016077868902156852
0.035865699658911745
0.0018043373737742796
-0.014199438059997717
0.0027076132788499425
-0.004858444908922992
-0.011301592310979689
0.0002665258656292172
0.006247614810165179
-0.0032709878466500465
0.010282321413903993
-0.020368773663609514
0.0044221357193707615
-0.0028418101510880147
0.025495503287970667
0.006637410680276058
-0.017846484629133245
0.017522849020133475
0.017692298450522923
0.024554834108498517
0.015397883195064426
-0.015425116430410285
-0.011459748817040566
0.0076805610110825375
0.03575875662190344
0.015473722183186635
0.021043268094700113
-0.0025834831847399687
0.018175190145743276
0.0045572433895661865
-0.020105391205087447
0.0026213750313797543
0.00720264651519219
-0.0023761178091094197
0.002994734650169152
0.006349845734077765
-0.0001283597950724431
-0.011207977191831128
-0.01703207662606743
0.002042276290250405
-0.0006476712254286147
0.020227710221551534
-0.009877796073174083
-0.004642713234163602
-0.013140524416177248
-0.012437617887568485
0.009487997339985765
-0.019742501294656083
-0.003382025101117146
0.027555034158751875
0.010021131064210364
-0.008973594026574836
0.018120343709342762
0.006984314212133413
-0.0022506702843276064
0.007986891627658888
-0.004968110915419731
-2.4832957897125977e-147
4.111697692712592e-147
-0.02710909279188628
-0.00888958763885893
-0.00271834084806711
-0.0029678895788729197
-0.032087383485361026
0.006181416393215942
-0.0025618752045041605
0.0022275558956010347
-0.004294599809395242
-0.01254399589263002
0.01100583441986
0.004488477925098139
0.013088118977855716
0.01612163133404233
0.011909253441819345
0.022657409429460915
-0.013225396362905952
-0.006997889245162925
4.6184611818535745e-05
0.005350781063498376
-0.00440940439700639
0.01798635506182206
0.019475100374381424
0.008965179482954852
0.014680435918339401
0.007059149560961667
0.015612522548565698
0.015514791164881199
0.005137315369156539
0.01811079064110536
0.014458087098516195
0.02117391027117899
0.013157347373482734
0.0007414382042968742
-0.004026888692750024
-0.008133257942385182
0.007722760971809631
0.007057543222021707
0.006045698427714135
0.014448678182679893
0.004389490102484298
0.005178901323166134
0.0034552175958446813
0.003018784151326517
0.019886200177068207
0.014591601034726771
0.0037754020260981273
0.014712676971944732
-0.0037219036008332143
0.0010354421503895727
0.0269525617886326
0.007774478318832948
-0.007155317784134071
0.004843607650443878
0.015416945172477296
0.006925423405481307
-0.010568863180067408
0.0009003384415852966
3.6640132325977885e-148
-3.409251701343004e-147
-0.016838437703934457
-2.3004100455005004e-05
0.0014706649907874573
-0.0057566698846121195
0.00534185132684797
-0.008689437831283224
-0.00515863919029703
-0.0011991409556926951
0.004859168889889031
-0.011801998771058453
0.011909122967894368
0.0028004958165783506
-0.01585010370287554
0.00661476169783522
0.004384813544342918
0.011911685899317053
-0.006804977379673408
-0.0047261186270958905
-0.001645504598259061
-0.01991151280971899
-0.0027512466276912255
-0.01214005521417862
0.012567959467251985
0.019286114253589802
-0.0030851640728748906
0.00820299748359454
0.0004246228371860414
0.018263138757200037
0.007984653086844349
-0.007642190084180723
-0.007730582004491988
0.01303167451216646
0.008396502966613342
0.009943978805273788
-0.031226183511781802
-0.006302581313505742
0.0011338938217513588
0.004108059272666497
0.007889125505870823
0.010839044185723923
0.0031611377221849
-0.002284549132487585
0.005731441917231361
-0.01983441516812251
0.0251042912600083
-0.013977810144486836
-0.000415972108884055
-0.007829979187984162
-0.003073612305231884
0.0028751296513930525
0.001598309619362981
-0.0002720590383499047
0.018731837930292417
-0.0025352186706012084
0.021742510205474384
-0.0015333578542708168
-0.019542331515441918
0.009736436992424383
-5.107177934009037e-147
-1.0326873109834188e-147
-0.017870048823352094
0.02507486210639426
0.0020355623095868873
-0.007386605175726164
0.02220515584696138
0.0014522256390592445
-0.0020740354661212216
-0.0033751574037134257
-0.006222739502108587
-0.002553916664213783
0.02678092852583784
0.004876529793747428
-0.035847854674072595
0.020902403480125002
0.005974376353466139
0.004228857376795233
-0.006700432158995693
-0.017104821479733738
-0.0008839380510187588
-0.006144051969778836
-0.016956569000627003
0.003070663737462096
0.010599398633642515
-0.01715093949203849
0.011824156209456005
-0.008932722161373795
-0.003569715880585267
0.015443240240433994
-0.007774734087111476
-0.008927340822877423
0.008445865126061622
-0.00858472428491382
0.010915064518865572
0.0495768757040656
0.004842649964175317
-0.011962429185128829
-0.021890439181426705
-0.01837349286210545
-0.032631968442669246
-0.020096805343339214
0.02310166382318772
-0.01840592636028126
-0.005499017423782932
0.02127129478890785
0.008425898204900896
0.018569059780685675
-0.010220272939635561
0.00046441021988670103
-0.01404962415463096
-0.02100443386516624
-0.00893694340982368
-0.0018886931592779124
0.0015711332056716314
-0.009417857448690772
0.01822189949180799
-0.004648355286308116
-0.004327469425113289
-0.018018423439651265
-1.4067572128334692e-147
-1.580012131299155e-147
-0.0068701990284663755
0.02484970717397187
0.004615509106560224
-0.01389487418611983
0.020408111835994894
-0.0009998119833265762
-0.007723068674884906
-0.01619675827542522
0.025276697280747287
-0.010809113895556124
0.025730071470680297
0.01464273767428446
-0.01078538478535678
0.02087104734357374
0.0007343062605945919
0.003871334797562831
0.01730554181642341
-0.010420459584917016
0.02799788612868227
0.007298300917475864
0.031583815308247644
0.01270764985111177
0.012405000015752295
-0.0013863346213464616
0.015634104863384943
-0.013181151734770335
-0.00833687472905997
0.01671751639367452
-0.017380311918703303
0.005904082837094867
0.032693850226206626
0.000717817178272296
0.015177905518808155
0.006934451225548269
-0.010217695882686256
0.03400158910051403
0.015782473855058196
-0.016171052873864476
-0.00789058756594191
-0.004611174368145752
-0.022063301748061755
0.009984918823749953
-0.0044442146527368534
0.02619088301055477
0.01236190273643299
0.011540584964809334
-0.018029039834067978
-0.006260085164589166
-0.008498857339542728
-0.008537257458108188
0.00213513884882278
0.014552880195780145
-0.007817676663368413
0.007542054101814528
0.02299085734911394
0.0009862174482984495
0.0072262898291917295
-0.01847194453390475
-4.721519528634338e-148
2.756258760148675e-147
-0.015942538276531807
0.009961014623319154
0.013432851531578785
-0.005572469896280057
0.03821766329822432
-0.0017025388274452488
0.0062872469862477985
0.0011661878481216243
0.005249775148276422
-0.0035940182936672815
0.02366251365067743
0.0017967904505820913
-0.0030047994139658345
-0.028249636529365508
0.01078814643384176
-9.57822992186634e-06
0.02045564001096852
-0.008850466628832545
0.015406954576100685
0.028248024231507542
0.028157004446596735
0.020688092385997968
-0.002676672296930106
-0.01552593246044335
-0.014156548408836895
-0.0010925972264571554
0.012170131734556337
0.002517120040917444
0.007352994653938697
-0.0076394331934814454
0.02130097840249453
0.005478250028449756
-0.026730514499893228
0.023472974936380536
0.012018645365648879
0.01644136447538094
-0.007792994943792865
0.026568025461770083
0.022268995257774097
0.014339919336321925
-0.020867901117762794
-0.0037281107050202793
0.0036783920014804732
0.000673490252758889
-0.01780901105350723
0.02547180873316584
-0.027640738414133115
-0.018215050362031738
0.007205495021228741
-0.010980600414914728
0.0007567570550894177
0.013113523161447432
-0.01781447747360452
0.009314326160529166
0.011166689837051933
-0.020450401790571594
0.005797348131609852
-0.026836394136662393
-4.218972349807136e-147
2.83860854730922e-147
-0.029363647599964376
0.022552668731243453
-0.010422992978954762
0.0035889251058245125
0.014567037153504905
-0.014246912584794344
0.0002892666118960741
0.028877691836487578
-0.004972406610268165
-0.009758576106340419
0.001060659176051556
-0.005563825369395771
-0.012048060293424527
-0.0017513393594675312
0.007942403367310847
-0.014454309663290456
0.004072030098509144
-0.015994944073135856
-0.021112278959680885
-0.023535947397495822
-0.005533598790701513
-0.0023506812430920277
0.006093365032616921
-0.021411426270769824
0.0008098266965416717
-0.034467356014909176
-0.014752936252430987
0.0010983191229711386
-0.015054677652106004
-0.03378652989690369
0.011887787609238476
-0.018205102417853412
-0.023600644105674605
0.001837903502517035
0.005378458667054279
0.0024822573827254293
0.002627899097645563
-0.011412546520708364
-0.004335482368375845
-0.0056852039819737495
-0.019642379668332807
-0.004491726406704124
-0.00045732556398118306
-0.010625409861250414
-0.011928642629001404
0.02258308375068922
-0.014596463181064072
0.014926140397572889
-0.007677972237086445
-0.01578006271609646
0.010380970844950448
0.006318199240323475
0.024973302894991358
0.007739843039473743
0.00624027382801855
-0.025771857252288918
0.023510241719715698
-0.021130091163108395
3.3421131401858826e-148
-1.6067606236854465e-147
0.005530091935853907
0.011538754857493784
0.014396543083572069
0.015330786344064429
0.019092604034809425
0.008411105664121354
0.014008923047110588
0.01665297987142353
0.01528535977286706
0.014271046490234893
0.006784996604835199
0.021869288186148708
0.00133918878806807
-0.004436164556760426
0.005230494171914159
-0.00029709012136204825
0.020350980363206185
-0.0017303736400232426
-0.0027370850763560168
-0.008590043500547965
-0.026895498650004818
-0.015111331989372144
-0.009223125576415709
-0.005528948093924023
0.02627483542721569
-0.0008469645087706136
-0.012268708436175273
0.018353302360008126
0.006134980113011096
0.005228935306379845
0.018833587266348907
-0.014484316323268529
-0.014080748030793247
-0.01442432748584459
0.0060413166105483095
-0.009983401888969708
-0.012740065332899515
0.0009197759260939529
-0.018058431940869018
0.0047523721311301115
0.017155841751870876
-0.00143212613552285
0.028900745224113258
0.003581573652150275
0.013893459632658318
0.024545853482081645
-0.029986864665294932
0.022642869899007864
-1.56149912726083e-05
-0.01414253865069633
0.004596853619385692
0.0015318130780561765
0.018797625159095496
-0.0039659213258528845
0.008618314428186304
-0.015591217891720698
0.02328037409534483
0.0024265030024186282
-1.785499855498638e-147
-1.3252518793071994e-148
-0.007373735188378427
0.007496594877790537
0.004224054111221544
-0.02178436511224483
-0.001751424456915693
0.00804286173983285
0.00479711892552533
-0.009557147942180114
0.010046026625633883
-0.001681668293048403
-0.0010359388998308937
0.019177812372805927
0.005028507548449178
-0.0039012468751108646
0.012253894798922456
-0.0030276088475152054
0.017807884491588013
-0.00019585995079474236
-0.02569000538142326
-0.007502785759761321
-0.017944951887138502
-0.01448797357132719
-0.02596536340939529
0.00620741293051288
0.00057961718624126
-0.004930735575935958
-0.01851899448798867
0.007462012198783497
0.004290662069489809
-0.0128346596629937
0.01059865099877834
-0.028202367896668527
-0.03133538971465018
-0.001090218179028323
-0.015281807255671307
-0.01609649998289478
-0.005938470002087857
-0.01491285986580065
-0.016173591121520944
-0.018498002270639573
-0.00902069667676189
0.009169421646224073
0.002539550525809518
0.0005264919161750772
0.014837694343483485
0.02604659920000837
-0.011981195567643705
0.010850169495243022
-0.003078205460465063
-0.014386369959243219
-0.008089519169674054
-0.005179222261524643
0.011068885329875301
-0.003303322794017564
0.004415917131511124
-0.011417962256273631
0.006864815818620533
0.0058832104931854
1.2180654962307203e-147
2.4691012950495505e-147
0.00120041784009609
-0.002690250786001389
-0.009549644266703426
-0.0029206087520399723
0.005584444794172318
-0.0008398753472081009
0.006263253765084557
-0.0011267167133983207
0.008305654105603487
-0.003559551565367366
-0.019174518205831163
0.021760312083930117
0.0021933972596342314
-0.010530466212484295
-0.010319135647231045
0.004855708693552168
0.01448836528834193
0.015336674671732118
-0.01771170037678768
-0.012730297612880463
-0.02195567374839491
-0.007752863108533277
-0.020464743310294613
-0.0016441128078399
-0.0015348334529682
-5.687794021913292e-05
-0.006098008800569401
-0.012230635414239435
-0.0005200721610559824
-0.01607204937237678
0.03295545478989933
-0.002873100667143607
0.0018030961550889993
-0.012880184315357436
-0.0021133172757392942
-0.00248569967116006
-0.00675921843995385
-0.012143975797719872
-0.007160565374826158
-0.01597019262342526
-0.015213224382228283
0.032805911910053054
-0.02139275753168532
-0.015571140848303066
-0.0062026021994138515
0.027220486146533038
-0.00319776925247581
0.004124438367389219
0.006422802253577331
-0.016121811694022416
0.012599652771307479
-0.012023880062499607
0.01825607405585151
-0.004078830490970613
0.00017929907398137913
-0.002061911829083679
0.004413755233694226
-0.010651806061721253
-3.516913576043957e-148
-4.999327501410822e-148
-0.019790731232803314
-0.0022102410731282707
-0.0031608885812342735
0.008832937554504514
0.004980395481109122
-0.005505775295106909
0.0012574541247007177
-0.006382498487088036
0.015102029151262644
0.013712285426751208
-0.020286981969735034
0.01746248494627317
0.00037488010752167165
0.00251066293571652
0.010642545510668856
0.002336237253966185
0.012849105555985531
0.0002225419201340886
-0.002941096826166198
-0.009465348088667624
-0.02486310900603007
-0.01085902765888739
-0.006234396715425937
-0.0037722638357924284
0.0037428756169386956
-0.016270292696040668
-0.02441146344815949
-0.008146695188837576
0.003900799625295856
-0.0002810169189859884
0.0008757960305795168
0.0016898156769718938
-0.004155707521261685
-0.0038606531905739823
0.000980505630332617
-0.011111955964752935
-0.020893718148534093
-0.01637542170012892
-0.035657146683347386
-0.01020530901878236
-0.004365488864557191
0.024827219541595363
0.003486803912434187
-0.017630886189741367
0.0036887426519662545
0.037899721887036115
-0.02318417428406444
0.010573254517868476
-0.002498840822849323
-0.006549703538958097
0.0010840791040956847
0.009162092160836938
0.025708375211415065
0.009636675888109979
0.012560993997055538
0.007223376567778728
-0.005355521416688306
-0.009474798231683281
1.5277718438860459e-148
1.4344529755811796e-147
0.0021324171801901733
0.021383423782178414
-0.0017735383547974675
-0.001082091467282523
0.01149403062075059
-0.0012631596823373576
-0.004357489984153642
-0.007151000400812558
0.012468108012221295
-0.002262448162593968
-0.004550404473214902
0.012622441410561545
0.014059945466670923
0.019475068327682966
0.006911256917200387
-0.0022458656804935848
0.007441789005366612
0.003790854361960739
0.001172506646072505
-0.018394957509065078
-0.018782706906791617
0.005078328849528946
-0.0033820059990749504
-0.0004977830048853305
0.007059669176279386
0.005401863762817072
-0.0032232255862234493
0.009947732848965034
0.011352041344268777
0.004816858803231683
-0.006868660404256593
0.021841567821405034
-0.016055181225946076
-0.004710347873573486
-0.01953115019695785
-0.02042988306954522
-0.02629103855070267
-0.004730429325960777
-0.013089138089941717
-0.0034851375447016333
-0.012961581257577648
0.02869276970431387
-0.015458540586516668
-0.005933610319967719
-0.00211980389884893
0.010880612302264213
0.0007339649661657813
-0.00045609141317758123
-0.003932620251544799
-0.00627813920614906
-0.002983186263967427
0.01029444454560509
-0.0014995466649601332
0.00885112822921694
0.0005617919374401592
-0.006755069531969414
-0.004545616002657057
0.00028737487941778855
8.918328781518415e-148
3.185831016225118e-148
-0.013610854891784808
0.028331032937636974
-0.0029447885652541562
-0.007769747596084808
-0.003602907156947081
0.013426576749464427
0.0012165401867508968
0.006190497149746694
0.007100778100650433
-0.017132182956763366
0.0003162181468972414
0.00630005728113521
4.648596963528588e-05
-0.0014385191456175248
-0.010180000196028086
0.00012305102100414224
0.002519129149991215
-0.02291011411892499
-0.016634390742431816
-0.024673458991614335
-0.0397660005915871
-0.028625399200424062
-0.018233178936867142
-0.012053101886630054
-0.0014079970336473829
-0.02835028619351109
-0.0037709727587543727
0.004693715396109988
-0.0014159683840194066
0.007515444897804886
0.0011163432015649133
-0.0029230088247869223
-0.0073803416691388835
-0.0006134251982733844
-0.021007852928636783
-0.009217215698161576
-0.018348361591151673
-0.02967947888911214
-0.0024246749163567877
-0.03392272311148122
-0.007653619916102902
-0.004603875554880068
0.0016740352380785956
-0.013211573727533234
-0.011699334511370084
0.014601565190308722
0.02048081375763074
-0.008097018957482872
-0.004478847933583984
-0.009636388469479921
-0.006323825906492344
0.021081935059404304
-0.012015482220870033
-0.0006754749349707143
0.009068882469091747
-0.005873500170847463
-0.002904946654787861
0.0026461672918869205
1.6248043652148297e-147
9.100086817241868e-148
-0.018911153320418872
0.007117291114976381
0.012580789730551155
0.008212752715499266
-0.0036835124577017588
-0.022964414815247428
0.007333059789594268
0.017309502469230693
0.026296044007693614
0.006797923284801098
-0.0037962842882838183
0.007699231905036916
0.01881568919371248
0.008602171637871773
-0.012755144972613229
-0.011654156780655088
0.009851100012545454
-0.02605710777867115
-0.010208042556657101
-0.0008090352151675688
-0.01387243191783537
-0.02047547815537189
-0.0036760121967471305
0.005374921511492692
0.005761510874421873
0.004354686824787926
-0.006823370027271157
0.000398561068278424
-0.006427630549271396
0.006236127093465482
-0.00030464071746226723
0.016129752734583485
-0.029182285400206086
-0.013091785828971275
-0.0012936544514170376
-0.01097017074902819
-0.002989158402697622
-0.006426873574484452
0.008075246435564775
-0.018463933294515518
0.01969319304565568
-0.005747332436048739
-0.021008075121995567
0.008971385307887152
0.025069485646362955
0.019153804414733654
0.00942181608302092
-0.0023045230963387735
-0.019164029957228674
-0.01805319576728132
-0.007366442350336972
0.02372927217351066
-0.0024752910473452338
-0.010441121380216162
0.002506962111244653
0.00035376537821937837
0.0014701948138358676
-0.0030324621705025635
1.5456137127629958e-147
2.2613493861124794e-147
-0.045635219252158785
0.022998387809844412
0.012923580762620792
0.009441315624307514
-0.0005199683784438387
-0.01861761350781706
-0.015232686177018066
-0.011497349118588577
0.02044975725201206
0.03421941937369378
0.002137724750071295
0.002865078452903704
-0.0007965698827263821
-0.0037598199715763317
0.014755002754842057
0.005365407644823307
0.00013284987985455473
-0.02852624934563374
-0.01634182212636073
-0.004578227339422009
-0.0025533137421982722
-0.01996126644159322
-0.015081565051581558
0.007701290003816421
-0.023287682572368018
0.002628285095254193
-0.0018145290291380525
0.005114031222055127
0.0017731585905095583
0.02335304473904736
0.0023072206133362364
-0.001979946039476012
-0.018597391191160086
-0.0029838689530800396
-0.00787061748029841
-0.009682585858572823
-0.006409991959372461
-0.026077515731423067
-0.0012036192658132889
-0.03227264459352134
-0.013904958701588008
-0.010951708357374178
-0.00486296050734362
0.02477794723516458
0.011659885563128813
-0.007856721969166864
0.016554166389314496
-0.01161572058002378
-0.00439360666614325
-0.0028294754679937056
-0.009366956102357287
0.01765860296729243
-0.027470244130929723
-0.0003378286169152863
-0.007996969278233733
-0.013118916191002939
0.007777242446363574
0.0027002987846616593
-1.5090021993865708e-147
-2.873379561575095e-147
-0.03279024561266172
0.02722526467017004
0.011731680861527751
-0.010884431183566816
-0.008502247459735903
-9.200438584829579e-05
0.007196294145653328
0.0023996170789872314
-0.0023084782834194564
0.010505466399860958
0.018156353729959634
-0.021200584802803603
0.00828595662537877
0.02061601491699411
0.005815629253008788
0.004219226459580904
0.00375370833506919
-0.020559444756024548
-0.013649978736767723
0.0011893900992432306
-0.007509484226703049
-0.0062751822470769
0.013542904268564209
-0.0016111545308444197
-0.020470785863078083
-0.0030750300886839494
0.009069727045247403
0.007629622970260698
0.004156932436007694
-0.023502975771464228
0.008703553702489054
-0.009462665874641051
-0.004071612454969067
-0.014770102419371784
-0.0175073987371385
-0.004856482450520255
-0.017594325923732366
-0.00683759398078676
-0.005073851560110602
0.0008898868161102985
-0.023869597549160865
0.0029793641811981775
-0.010286582427574393
0.020652859886457604
-0.00230608996023229
-0.009444946497006512
-0.008077873846954246
0.010900656147047005
-0.006376161136272431
0.010317562707426618
0.0006593519507415448
0.011558841473375363
-0.034077693935512396
-0.000757781155869404
-0.0017779865614891105
-0.007735199298561578
0.006693606862516444
0.008682329602184721
-1.317194940419288e-147
-2.8128369321418876e-148
-0.009467280711111728
0.014209106992822983
0.009294862240060642
5.5631579711854905e-05
0.006428241452582573
-0.002730368412642617
0.021697566350701542
-0.020394782750282066
-0.0042647036484318
0.01761396950822693
-0.007888886014770304
-0.00873209434538274
-0.0020214308967312113
0.030078025899442553
0.005488865072090987
0.02133261347174971
0.009174612004402977
-0.003377278325726007
-0.008826354050336539
-0.018067567098301623
-0.0020960877651239776
0.0023046097127322395
-0.001692094122130643
-0.01279860068947544
0.0008331895475924279
-0.0061410663859923584
-0.007146180672808531
-0.01112011998175193
-0.02499988331521994
-0.013481812246902425
0.005583625903815016
-0.007014990425395836
0.005604045740187265
0.0066836735929788095
-0.00826457734283214
-0.014889294113107698
0.0026994032914983007
0.0006762160659185377
-0.01075869506713946
-0.0016303207031609017
-0.009157290228417483
-0.0067741475998970456
0.01118326650636229
0.019321341046349867
0.0005572615135736748
-0.011992527814645807
-0.0012158760940409578
0.008338439110350787
0.015922606656145432
-0.018664803963189563
0.020604594248509283
0.025747020359746443
0.00813962545389014
0.012431841469805858
0.004131296577007269
0.005404251903229591
0.008916673609872142
0.027762249865598818
-1.522639706932915e-147
-1.3927087963397109e-147
-0.02532153432203327
0.009376516931248444
0.00432180675962599
-0.009812564975851397
-0.0220314298796669
-0.011017051686242571
0.0043089978993102376
-0.010555593818933102
-0.020160058893100314
0.0029569934782774977
-0.013842492705724059
0.0034750105048072283
-0.005264690006901685
0.015676854481074066
0.017403127248120806
0.009391560758504568
0.014814844540950322
-0.008040690593766725
-0.017806043246534318
-0.030644134714099755
-0.008421444010694248
0.00024165101835136547
-0.02089543036739718
-0.007607955043671231
-0.02228236143689296
0.003324463302099751
0.003949480206336058
-0.0026334457782437584
-0.013129690360235752
-0.022714396477483845
-0.018398510284921246
-0.010664581827041704
-0.009688807540785268
-0.03054425897308742
-0.011531092227741152
-0.020597208123640683
-0.005064155511793042
-0.0010280801685631483
-0.014984642591795761
-0.007121832845005237
0.0018731732141104192
-0.003567924506593817
0.00021730449720106632
0.0308729836558273
-0.013819928626709086
-0.007711791818571538
-0.008253367291706502
0.014928573736577515
0.0032925973807842596
0.006971475623222449
-0.0026351049139210054
0.0036814146663552982
0.008082102271000783
0.009753717625092882
-0.0027273693495602786
-0.00067520628220684
-0.007860483053336862
-0.0003382626310458514
-3.621549411481508e-147
-2.521019094195529e-147
-0.0007672625606340196
-0.002745076310684315
0.013588712063083538
-0.013192098040878696
-0.0011056986248534299
-0.008825356716148819
-0.0038558940783763257
-0.001104283050984248
-0.010636069453136308
0.01037493987639946
0.005911781138872718
-0.005068373823935853
0.00346961141355818
0.006917342314576874
0.028060217298475902
0.021459097574769305
0.0050294095324507765
0.01054018827950688
0.0038479523037496482
-0.016823076547016855
-0.00043406135508706903
-0.01015061360925312
0.0011409085196121423
-0.016697175469034382
0.017174563128965672
-0.003776284234713376
-0.005762873591413222
-0.008713150963980228
-0.02499175791847664
-0.016332397153572042
-0.007023597747121394
-0.016773025147578127
0.0014411656238480994
0.013007906854058985
0.006068107016731489
-0.009292383416832148
-0.011957819883207337
0.013656239736127711
0.007146244194452953
-0.012408172874009039
0.011753192753054266
0.005707326552167113
-0.0139817479361806
-0.0008774244947053038
0.0024458844217155784
-0.010879392473317902
-0.004791698152444091
0.01719478697809083
0.032254304094478214
0.01494151000505166
-0.0021700362420593988
0.013695407283315468
0.010223102023501346
0.013249390082793966
0.00884625735687688
-0.01052371495575076
0.00359657388069947
-0.0026261677743288398
4.133553646187003e-148
1.7404120961073475e-147
-0.010768105243971255
0.02174927322324502
0.0043204015407633505
0.011545216563592064
0.0029955041165881493
-0.02490182337600999
-0.01808106330058436
0.002520063519145824
-0.008312434157999735
0.011086784098433172
0.01432113584306108
-0.016673419615078542
0.013408091775391944
0.012918203171308826
0.02456314118042085
0.0066697968668800395
0.01348965260124473
-0.010522672489770865
-0.006089904513144844
-0.009041992679539215
-0.00979364740982459
-0.019393575576422444
-0.0252307257446555
-0.008138551981501261
-0.003903150183251858
0.0009188366483719666
0.005833889358566837
0.001274012094288614
-0.0077233096146071085
0.014230834062897922
-0.0049722517360911225
0.003669719141437923
-0.01604273321773109
-0.008422588330718954
0.011577580090008617
-0.013039029930909628
-0.00646618156572128
0.022866769643569547
0.0015694571133276528
-0.01136748888568224
0.01329820726225766
0.027077069738801064
0.020997136288967093
0.016363719031406255
-0.012908901113914923
0.005612622896522128
0.02104949375167556
0.0031767864015544074
0.014005922371782479
-0.0030389266703320207
0.011299795441512968
-8.760770859292846e-05
-0.014185752235197056
0.006386082883888976
-0.001815046480040755
0.002992906749366923
0.0032379636529196788
0.010526776242121245
-1.2907644582423622e-147
-4.1377581578031927e-147
0.006811976402780295
0.0030192353978303146
0.0009644870549758122
-0.004218552402538448
0.0060878627061710395
-0.004039971001451051
-0.014946204947803132
-0.00851386114075882
-0.03354072022930639
-0.0008980237698164445
-0.002096455153785065
-0.029362568186127508
-0.0041789494916029905
0.012439309331163287
0.025612373877399883
0.001994724489043847
0.002192723253179464
0.008205910436692426
-0.020375834299339923
0.01278932656797194
0.011577137627656489
-0.023460718291426017
0.0002894164845831555
0.002534358398201656
-0.007541949631270506
0.001270371970067881
0.009592279813016233
0.0009740763307469158
-0.02957930952064237
-0.0006820087653108671
-0.008999318203836716
0.002049222655469008
-0.013052380523027035
0.003928226023011382
0.028763400761725833
-0.004803963268659909
-0.005732522692768913
-0.002585221181068917
-0.009319962967538738
-0.0012069002287279202
0.028376521164455663
0.020274820551772623
0.027688668101349533
0.01746363824536143
-0.006745586424408017
-0.016605197150529452
0.01241736404245709
0.0007329386204883866
0.013518149594504878
-0.012742497432155967
-0.007343169643764384
-0.016571253633144996
-0.0142169866203559
-0.006945803449379321
-0.02456261400796234
-0.006496216811274616
0.005262507473937302
-0.008594732005906863
3.204293696965852e-147
1.403186197096142e-148
-0.008736394347921828
0.0001881932921386253
-0.01705863168035777
0.0012831556359973219
0.005217919146666581
-0.004841151700985532
-0.004902309029796875
0.0017913760447641122
-0.006262803209504831
0.013475185818262058
0.0015277372591157537
-0.008506718459005698
0.003953794075029577
0.022793215316723837
0.018108722369252164
0.01839950945034723
0.0037657744328103196
0.0077376177736847
-0.00792442885108342
-0.02007820361590098
0.00873443525434981
-0.01124333527058779
-0.01693267457034338
0.003039205794446179
0.004006629907378599
-0.02567394994579424
0.008330148273611416
-0.003949885640647061
-0.004499440520023946
0.006027930047026734
0.001165189105249726
-0.016744773648114688
-0.01588603649578014
-0.012523033073951858
0.003688940947487585
0.010502320432564514
-0.0020559425635056387
0.011722494494483518
-0.002451246905961528
0.03537054833653149
0.019484649930429542
0.010424700052243299
0.018108713990197856
0.004930013459641046
-0.011140186622401987
0.01504202613529375
-0.006208001690619967
0.016430903562300914
-0.01613856366160618
-0.0082527100034688
-0.015120566406498951
0.0007669177078957887
-0.006109055484273075
-0.013969753380287057
-0.022510798182763546
-0.016539795215081646
-0.009546063252393357
0.009182887465976938
-1.2439472748356622e-147
-5.6785578516305626e-148
-0.009403441750270813
0.00425761259868769
-0.019636931028660987
0.0003631709409729414
0.012773554528326984
-0.009090271786612675
0.006376843476027411
-0.014389270762241458
0.015532107470531758
0.018133789394683585
-0.0030768715705745604
-0.004456928619127213
0.0054958532947408465
0.004703355689240262
0.0010084467388886196
0.007118161984160995
0.019824202018557835
0.011512067937123492
0.012211624591009395
-0.004481618620212451
-0.006999018858949887
0.003314025504652779
-0.013218743336629327
-0.019956475959130297
-0.010806260722513996
0.018766000657575627
-0.0035354113292104744
-0.012088397313443987
-0.029937787506391363
-0.022068733255141623
-0.012132014911207856
-0.007670143529847654
-0.0012739317490200856
-0.008138931093565728
0.013841543150517508
0.00986471728885456
0.01082408420233175
0.007440056389893584
0.0175105448307184
0.019882413758324058
0.006516039382440449
0.013197963175640303
0.013990593331716868
-0.0020703093364167727
0.018189077116026933
0.0001288118029247244
0.00517386957880799
0.0014935564276070765
0.01727905766833223
-0.01092742884240027
0.013246202793041801
-0.009203154136823453
-0.012432184617078892
-0.009796444001603151
0.00041117553730841803
-0.010953157050634167
-0.004113200795860138
-0.007136953498756047
2.3554014729269684e-147
2.5273303496963323e-147
-0.02045020735680631
0.009259716425984162
-0.005425200151035516
-0.015714200877736756
0.012975244840518952
-0.01569181223224594
-0.0020373544476437917
0.00256432077484901
-0.009570880627185134
-0.008119563357258892
-0.01685222726550931
-0.0058815999294916255
-0.015211996478350068
0.0067002948059270455
0.021541302930361328
0.0064498272553024216
0.03740888666164862
-0.005957751033414947
0.004579423117854872
-0.006790325309600806
-0.004290050878155143
0.0036957501005062585
-0.008771827614344403
-0.013529540972458677
-0.027087686062845513
-0.016544473682078616
-0.004466775440431891
-0.004642535447217145
-0.013953465127776588
0.0033240701147758695
0.018729864142357503
-0.002595491536829742
-0.0029826127677497175
-0.0051243034767014285
0.023102796087844536
0.020589301021796794
0.014746680254284536
0.0044247410064979014
0.022312431758405794
0.006941351640496054
0.020839826604791323
0.01446986133901927
-0.0010413541993441477
-0.01330226008079209
0.002073575209717034
0.010375162448557245
-0.0302131166158714
0.018713095365682393
-0.018884621993521186
-0.015024538806859744
0.001227299708540961
-0.004222477757883666
-0.014439741124446908
-0.004846559607864788
-0.005081002857556441
-0.005462428363103554
-0.01714968082410695
-0.01431417966950316
-4.3813611230678084e-148
-2.578113975485978e-147
-1.8935338152060553e-05
-0.0009115011081355542
0.0017360002587583758
0.0005702838872213775
0.007997834690801522
0.0034734128091074394
-0.0035583822271286645
0.00819188862804771
-0.00871113019443157
0.008798701493726715
-0.006549415473014198
0.0072483259232863
-0.0061625986973485045
0.0015127181124495051
0.011923910155488701
0.00975026973998734
0.010593007769706685
0.0368621345598957
0.03243847590881339
0.0016059594301579278
-0.0020268888239508088
0.004546417947599051
-0.0030690846326776474
-0.024101418135167873
0.005534467314945791
-0.008366865770457437
-0.0035121041830762953
-0.026982592820976772
-0.014186404722066484
-0.013814540087461703
-0.005340990379019956
-0.01206787593563617
-0.022745882227691645
0.01883439115426198
-0.008511346055372895
-0.013440491273405478
-0.0034816913235490646
-0.03093512828973944
0.0046463238455952335
0.007753197163259275
-0.00042202089253632236
0.0071237265587587245
0.016810717168823895
-0.0117316177411693
0.009658477414368228
-0.019219678230061404
0.005469876354042844
0.01939174575214627
0.006064119369105812
0.0004107282698156998
-0.009602889102979824
-0.006946997061566518
-0.022346678973190374
0.004200309861898484
-0.0035139353962375525
0.00021437612451314638
-0.02210523828125807
-0.017096059403370143
-3.466372532844859e-148
2.0982056061919395e-148
-0.00934154920406803
0.008203843365433406
-0.0071222414992394775
-0.004051669405748254
-0.01862881428641336
-0.0025227905813216245
-0.0016153385924776921
0.009372574113221654
-0.012102038167933312
-0.004389997852956818
0.007960697632873354
0.018700871186546997
-0.002785268122158335
-0.028013896616885095
0.00536072147468271
0.007927329718690609
0.0032573505305447743
0.004520670790339346
0.014121793822881847
-0.0020555321964644884
0.004655173314411546
-0.02718594818275755
-0.007695092112093975
0.007334799669621179
-0.020907925768297943
-0.019170512912004407
-0.007810821947245575
-0.03357390699749907
-0.005166170901511229
-0.007501586667145408
-0.016584800479841864
-0.009719091960862297
-0.00943665102768559
-0.014270355606100021
-0.0017573836795234605
0.0018946844949958685
-0.023921535576025187
0.014095396377771244
0.011868673556036036
0.00019476891184562473
-0.011637855149320794
0.0002495726238803371
-0.03240303867541059
-0.014370410450861494
0.013111154017466677
-0.008619876365027115
-0.007937998219191273
0.015149996911781429
-0.028353006743721133
0.0043620763450021565
-0.002500728606762448
-0.021035931968101697
-0.013305001671889366
0.007680999651797872
-0.003986089482738718
-0.007787543242489559
-0.020941976185301216
-0.030155800531694064
2.3581629864221684e-147
-1.764233978685501e-147
0.0073630423692123284
0.002474204937435722
0.008254165062672836
0.0032549247894841952
0.0004375112618683723
-0.013839344444098928
0.015321716687480011
-0.010807038880961618
-0.0011770166460604574
0.023244119269230815
-0.019145674281401084
-0.007495108302928431
-0.015289031926732847
-0.00034377148722684485
-0.0016089401048268274
0.009810011169035517
0.010320646937273695
-0.010119575119725471
0.03596742582424039
-0.00464367525698386
0.004525411789855791
0.030237706760166676
-0.007084125862289904
0.005731832284914965
0.012235935422158197
-0.0058347271283312255
-0.009396166961015057
-0.02584393265069941
-0.008180336161256234
0.00024430025446957185
0.00014788886593659838
0.023167624948221423
-0.0011762309906457288
-0.0012627911022387306
-0.0035636632547704178
0.005150954719468407
0.007422436491551859
0.04263078636290328
-0.011838540671786295
0.0032117117464549546
-0.007757687827994275
0.010977513995747964
-0.018058602837164258
-0.0020992205043881885
-0.03096678126179289
-0.01312646828708739
-0.0007028528696817675
0.0030198677638282115
0.017565920482545277
0.002859428697803937
0.02180174171103164
-0.007292308171072734
-0.03470035079339418
-0.002554670088938915
0.0013461556984213988
-0.011590868281773848
-0.020179303789390025
-0.030931916087391882
-1.958073017848531e-148
-7.587330340967861e-148
-0.02662734428656709
-0.005920585720206418
-0.002861994786243988
-0.0015945994797442991
-0.00992181379916142
-0.020598916113024106
-0.02652412438725365
0.01923008986787407
0.006710266365838859
-0.0015753519949828663
-0.008930380727740644
-0.014627259017111406
-0.02406685571685712
-0.034212935849611936
0.01067634644697042
0.002408074071407524
0.0006791651749303319
0.0057766610704220785
0.04706029719099627
0.016446659784351694
-0.010648015888342337
0.012481152858776464
0.01920501620040524
-0.012868848258282417
-0.002701726228990864
0.005360273690536691
0.0021590511004799975
-0.002835669363885147
0.008209416068455303
0.011128629974334232
-0.0014813781822037141
0.008904268029926644
0.004391720054252107
0.006642733576825876
-0.02726774977613972
0.009008070733589687
0.027376964574837945
-0.004106215889884851
-0.0057301508752446335
-0.0005315111317288337
-0.018517791563363705
0.0049813868931221925
-0.012441048910461187
-0.007877766348752686
0.0066131138727463104
-0.018543906971060016
0.008995806672625116
0.02636282366389898
-0.002261478974671277
0.005944068688787393
0.01632865055373815
0.0030604291524962703
0.008066817853611382
0.0066419883754732035
0.0067856120902646515
-0.015426766258874923
-0.01844696717097187
-0.027401274331451897
-1.3884495555168345e-147
-3.0690429771403455e-147
-0.020049962499101598
0.0015131199753648289
0.0039915229657071834
0.007574262720276349
0.01983674440149416
0.01755378007366322
-0.009216584821093544
0.014280174179322532
0.008152153569527941
-0.0035356827064241623
-0.006423527366433668
0.019968042089067453
-0.000692636583538674
0.009958128847383665
-0.032197863581946665
-0.002732244272875483
-0.0012439074529986191
-0.00412425991155523
0.016552679559032814
0.0077499259070522965
0.0026822020532174884
0.009809798377818783
-0.0034788883230010997
0.0024264394545055316
0.023578795309731455
0.000854847007479403
0.004588477806416303
-0.0006271124150524671
0.009754918478092284
0.005320134428083294
0.009394902847462453
0.013053289613616945
-0.006922611284299409
-0.004436424459709724
0.0244458453106786
0.022873463448936385
0.004597131067675512
-0.0043217056990552324
0.009011572173883748
0.008574049613846056
-0.007023854701281532
-0.028705355518241882
0.005455487664116066
-0.007524841050335117
0.00028370197271917927
-0.0074184306210233085
0.01581497539391336
0.03017922322284973
-0.0015311159578865012
-0.0023979163639708955
0.003093212926845921
-0.0026488427899399682
0.008487970098668958
-0.005034285752625747
-0.019749251092418284
0.0027495150794316224
-0.015866100461729562
-0.004543143728562736
-3.925276420178922e-148
-5.506988504730061e-147
0.002630008971372035
-0.0032536107022546794
0.005833259292191303
-0.0034513332860857133
0.011913961102763925
0.007926173482792924
0.013554133644044862
-0.008945990812270552
0.013198561092937705
0.008524642226326049
-0.0021660700975732737
0.00018459334641266931
0.027181530977595465
-0.0009477044181822452
0.0037914923152209943
-0.01714223242319912
0.007673975335703482
-0.02546514227774639
-0.010441705889094972
0.0036644547306982182
-0.0037189033794433894
0.008960471252688547
0.030118957076349248
-0.0010134580656454486
0.007225075934342219
0.013358270596222334
0.013231077504804612
0.009311677423117403
0.02758533381356121
0.002176358345269316
0.012789158455173855
0.028466105895768257
-0.0007710125822544226
0.0013766518170924371
0.010294221244821912
-0.0018004775249020465
-0.009135327850017598
-0.0030886554758505123
0.0016439598412795
-0.008107860382145272
-0.0363680605645623
-0.015762054249122765
-0.005861677119052195
0.00018603305929225063
0.001133563373216705
-0.018614303661606022
-0.00516073031388144
0.010835021534840044
-0.015477418416485748
0.0008973271602795144
0.00943608931880255
0.010774370330828134
0.0009599113808634778
-0.0040772179914657985
0.012361177852898598
-0.015841879419694282
-0.003504997798119339
0.00577838118902323
-4.0531029766182915e-148
-3.114998107963905e-147
-0.011821631603932839
-0.00038368199977890173
0.017411747311200057
-0.007266348670268369
-0.006821792120501932
-0.007687680653688004
-0.01987805743518379
-0.012633556084855859
-0.0019594633626780766
0.012056474017374044
0.00904397442117557
0.013866605910266467
0.021391692866143116
0.0013052330987750722
0.005973613736580139
-0.007700079900831734
-0.025013385990555043
-0.00777913467887737
-0.004001221531164817
-0.008817263101989575
-0.0335921881432383
-0.028931637293533888
-0.025125656371491445
-0.017021404386351868
0.018674273474692474
-0.004485215616017517
0.006498602712535895
0.018161611059011786
0.02464839170738539
0.02099772113500698
0.02746126139461928
0.024321258044054217
0.0007790870596342172
0.016128937229147367
0.019960259663307122
0.016572625656511988
-0.008383365971414179
0.015024162797457273
0.004932207619551579
-0.005540636817283336
-0.023281392994846925
-0.01610566338290361
0.017942875183010805
0.02884377006256632
0.010886680472175128
-0.02746110088546967
-0.0012394972831489064
0.004671623990098611
-0.008897765981730667
-0.0030835944709277957
0.003113170754610409
0.014255827905992073
0.008975655539844111
-0.003835936414922668
0.00403315884332448
-0.03201729240651619
-0.005454341202172479
-0.007641998981620639
-3.25057801222978e-147
-3.182160416003728e-147
-0.0022139588746894383
0.0126236686194978
0.010455164028322167
0.011364952056063618
-0.009969340590133163
0.014606809553937877
-0.00412704483373237
-0.010082356965947392
-0.006823132794814358
0.004060775937154593
-0.010537125593163903
0.007424673722447273
0.014156084659897055
-0.01710539471785537
-0.0026703063666478565
0.00437118839362578
-0.004830524585882934
0.01665552420991224
0.006721673539059252
0.012141393660032952
-0.0002576199776447489
-0.010327336669040735
-0.005279339106316092
-0.028525507597263577
-0.020118098295426934
-0.01762415973627701
-0.03135825214760439
-0.015978780639946965
-0.0016532372952672437
-0.00933028558356456
-0.011603541499029313
-0.005022256061579943
-0.012094047473185699
0.0016653834442921004
-0.0014438842853264227
-0.01638305346522962
-0.008910790317442442
-0.010879004686579753
-0.012574608077076048
-0.03430883586209154
-0.01840584420796709
-0.02336000595749156
-0.0009988136430437132
0.005632426242345412
-0.023132834895232827
-9.85207285090643e-05
-0.010565830753949516
-0.01213428195871619
-0.02526255456947402
-0.029795737573126084
-0.030303573089577165
-0.009375990707683496
-0.03582463968731968
0.0174860639267711
0.004696946164189168
-0.004545057647120519
0.0007239499365923857
-0.002500213306699665
6.523674921808133e-148
-4.4521469490967207e-147
0.0024990906281202757
0.006784368985636065
-0.0006796302970142396
0.010382811251707046
0.019426575238961023
0.008968269715834747
0.022926668595615443
0.014079759251969966
0.002026870081987778
-0.01908637109436595
-0.0006176367949311125
-0.0015443463778363527
0.003355518497870081
-0.013566109130801373
-0.005144775092707206
-0.007269936198307556
-0.010295351876337094
-0.008396236711380175
0.0022770802210747465
-0.013291092658380927
0.027969440586319828
-0.0013888650023798404
0.002125023313316342
-0.016713200359291285
0.012705276572473286
0.00940381622046947
-0.013131882081247602
-0.006912791684636479
-0.00697017886895229
0.022374446190835357
-0.0021845115321523566
0.0022457075652450105
0.02318001617038414
-0.010602975208423657
-0.027313881629313443
-0.02628010216714274
-0.03298904824578992
0.004918763703771554
-0.02880933262934139
-0.015236511358567278
0.0008970769240073005
-0.000941058190583708
0.018945873607427017
-0.0019119235349823191
-0.0171087524679088
-0.019732427638634937
-0.01899027097000776
0.008636546154928053
-0.00950733132970821
-0.0033167975722223895
-0.00994788584446168
0.007698120608908764
-0.01254050454460331
0.012880511530977252
0.0008156327818128723
0.016519275677809538
0.011031776032076003
0.0023703414406416328
2.55192318299215e-147
-1.3384660215840082e-147
-0.00024451009962553685
0.011552591959541027
-0.0055735481512365825
0.012127269315604051
0.01093588048076885
0.008838370941972163
-0.011035729165372037
0.007729997014592551
0.01212065492495523
0.023882797271237256
0.006553536725432766
-0.00528890491183944
0.0043798704536869015
-0.012879017258256232
-0.016297728958366904
0.00946964759148027
0.0034890829070309878
0.019210563603969458
-0.014036112111380583
-0.017567562856605205
0.008759534374926058
-0.01960475568136308
-0.0037458037805455074
-0.018122674362356934
-0.022184197743919297
0.0011704834967304002
0.013133153536375704
0.014217530172801229
0.038459760541992065
0.017539517875880116
0.018349917414324114
0.0019630547667302055
0.011763056809770148
-0.025100089653087045
-0.025914147554325105
-0.019798859673100723
-0.004917899066571717
0.012900230964500983
-0.004695611927373136
-0.012555189985909213
0.019960070361966543
0.00704257530151687
0.016917660520428514
0.0037547265807174185
-0.01691619232412552
-0.008712077123263828
0.0020173332021893057
0.011617323285819145
-0.004662416008735165
-0.005029955093408837
0.011043792947777742
0.001586659781788737
-0.01053780643175891
-0.004496285923117972
-0.005460531925904563
-0.012475297911832307
0.005724536552743575
0.005454223305551804
6.784839455354215e-147
1.0404834652011727e-147
-0.0037462873708244485
-0.008198739035145052
-0.014296543843009558
-0.01613387199023256
-0.001289392832369246
-0.005035771821988049
-0.003402831570987477
-0.017293500073355686
0.009331530346621814
-0.014911965951351998
-0.003242812590272739
-0.010368011730124593
0.015526629481884017
-0.0053488364812613026
0.0065337682656381214
0.022273921991681368
-0.03132201949513218
0.016527431254145283
0.002975376482985405
-0.00852423634927672
0.0037806163403951757
-0.0024909568953756013
0.0020739271872660717
-0.0082072882721308
0.002452976661220182
-0.0027576838864920633
-0.019950777807175607
0.005150610360716417
0.000505679615406045
0.0006182622467102657
0.008074231538733156
-0.011123538674564674
-0.004552318114331226
-0.01230129033114473
-0.01457486141203777
-0.014491227617113675
-0.003374837765514945
-0.004919625505789392
-0.00881808272380989
-0.013727719566025004
-0.013122212814404335
0.01515503213079024
0.00019739119423566604
-0.012234328691408388
-0.016340449305016606
-0.009943128749280238
-0.009065604120015454
-0.015147265934320668
0.02262929668120147
-0.006370035863327136
-0.012430448346622894
0.007111136714371881
-0.007339804959315735
-0.000637597032708765
-0.0020964495083956283
-0.0143566324026279
0.0004985781282727527
0.0006855718908824038
-2.7327699535325663e-147
-3.9639388829173225e-148
0.005471861836563368
-0.000870856630897172
0.003577879711692501
0.02019548047555397
0.011210063450590401
-0.000539241820951101
0.0014564197376868307
-0.004373850598976004
-0.01938456039513441
-0.011371141796994303
-0.020321982551082876
-0.01242192472624647
-0.004626373116167474
-0.012522678584113463
-0.006430652687486022
-0.005673057624783457
-0.010681776755239264
0.006853615895569916
-0.0058835523176865604
0.0065315260025792694
-0.00953275359344483
-0.013000343364589094
-0.02100995921761663
-0.0037117141387788466
0.001367503079087585
-0.0008627314672506765
0.010613797562058745
-0.02747915138454448
-0.006553165880059039
-0.018389460797005062
-0.018080828845747562
-0.019887091883961486
-0.005029465071060851
-0.0113052284572282
-0.009284851596528977
-0.02776543245414215
0.0025182110539005475
0.0033204464226048586
0.010737418203586669
-0.0016668714599715497
0.021855694711587093
0.009650328674081667
-0.010345129878277595
0.007189277587792168
-0.027167630116102976
0.001596597358719068
0.002189519754694307
0.0019665439790334705
0.023546032174476643
-0.014359820584707713
-0.0026365991111154743
-0.010443297432173811
-0.026284401952225336
0.006487636693720528
0.007925756874472605
-0.01481686258216517
-0.018256872499835826
-0.009339080986925336
-2.8220063583099843e-148
-5.402764129354268e-147
0.026132820997458915
0.014029969660721323
-0.0015856563438641572
0.003090845491460909
0.0065750922345585005
-0.0011373250837296478
0.008996843134579614
0.00014972596229502298
0.005022917625840162
-0.003346827193307512
-0.026826443272138387
-0.002025475855980708
0.01581269167431121
-0.004871525132140778
0.0028659002801256547
-0.007314598987914832
-0.006384197230472528
0.014077632768616656
0.011863918331553914
-0.0027794193650685314
-0.007610505569958502
0.021078920886968052
-0.0002114560428018772
-0.0002675455273395234
0.009372069147322946
0.0029415488200157753
0.017949290246593825
-0.010988545068886682
-0.007730661808702244
0.005196531054222053
-0.006250501329409254
-0.007365416184693734
-0.004516947378240405
-0.000953055188719767
-0.0016400630320915067
-0.013391857673171033
-0.011904743655105285
-0.01757222908950799
-0.01405548885608535
-0.015569491114708097
0.030510316718915253
-0.01769619494628216
-0.0001999074402501644
-0.012779921704531518
-0.01575290129886193
-0.017884201968812623
-0.0001342385612350399
0.006651614393093528
-0.01946703847135799
-0.005726506401894725
-0.0009522273709803747
-0.00746702776389418
-0.011575145156965793
0.00917795614570118
-0.02496324489095186
-0.02332329866655321
0.00023471824706564962
-0.0016230738743877187
-1.089296416568326e-147
5.585684986469892e-147
0.002051840853293332
0.012551609588500098
0.008746854187267564
0.00034369361633767437
-0.0028114498321545173
0.001649409079178247
7.147470909952972e-05
-0.012635618856855609
-0.0028831396598063778
0.007336017399132794
-0.001812588668874059
-0.01346661714508643
-0.0038793373276843836
-0.004268929006568487
-0.003693242773704296
-0.007681145781129994
0.011172225837332066
0.007176020729759323
0.006006424892454873
-0.02174834099597961
-0.02340573566696489
0.0035314901580711976
0.0006623195470541294
-0.0035980518096634206
0.0008430199499374631
-0.024742273688319036
0.002155369097674449
-0.012236113966571469
-0.018260045002529184
-0.017818087513121954
-0.018506744177604034
-0.009645797196760716
-0.022173747964322414
-0.02881461291292565
-0.019124444897640556
-0.018847903448644322
-0.033758992546277476
-0.02031225875298543
-0.0005080771192633889
0.023477790671101315
-0.02160958652090497
-0.015432828006427533
-0.012657237907037508
-0.012647233678791687
-0.013519883146685572
-0.007675631456374775
-0.02201160523076037
-0.01852628838177831
-0.009137680755178568
-0.01767020814163331
-0.0019635110680154416
0.0010241153015930914
-0.010148122086272578
-0.013910679910390045
-0.0034304449953888095
0.010350822522174629
0.006232090495342486
-0.012882468920130131
-5.2652763486275866e-148
-4.97490682186926e-147
-0.002496805131597043
0.006654200512787039
-0.0009857028655569687
-0.009140039735997153
0.0032931871380002245
0.008129356401727949
-0.006817902468304853
0.006221725619673535
-0.00026193821217545854
-0.0019020895336169675
-0.002259363137683684
0.004031191603225787
-0.0022261069643599333
0.008842621825300198
-0.005103196744301891
0.0018502596133183535
-0.008128379645494063
0.011090539007801131
0.029623365207375883
-0.0008612124000624919
-0.018818679821182453
-0.02379056973078354
-0.013392386605091396
-0.02062320144156085
-0.02978825411637062
-0.00955136005193505
0.002214438457523432
-0.016729675977997436
-0.0003752033646426751
-0.01539757724828811
-0.01614012627754811
-0.004534113331816104
-0.02475040080996695
-0.004674497671485588
-0.018169519300067535
-0.012816184126077053
0.010061537655221704
-0.0212949763401661
0.009574622645160666
0.012403353724412015
-0.0033053771693437465
0.0026002396796828958
0.002686710868841759
-0.004203755314341107
-0.020763877020764664
-0.022051652185677412
-0.022822408399569855
-0.011107077256916748
-0.0006045889842752673
-0.009733035568685088
-0.009091270590762045
0.0009773226355682689
-0.006921464296629101
-0.005027220352946628
-0.004573656736328748
-0.012751699064315983
-0.018139732595206286
0.0018591568395862775
-2.731271181751841e-147
1.5165494522875905e-147
-0.015066844581319072
-0.004802888272190395
-0.018359636396513786
-0.014298535852414302
-0.013537843308402261
-0.004167155848864791
-0.019319264207482853
-0.015537913334712045
-0.024339446849698593
-0.010230055925911885
-0.018730186750013797
-0.014263401715259371
-0.0016104935259762445
-0.008309295122981905
-0.02917622161809541
-0.018692107581066063
-0.01613738900927891
0.009870445908554612
0.005476671572375469
-0.001807830311415591
-0.007082571682917054
-0.008920378626656764
-0.00022308638888575893
-0.0005324683861304668
0.00010256031620241559
-0.013268582241020371
0.01618986173929683
-0.010007911204560519
-0.0003989948433298031
0.006136995223573406
-0.0061740722563245086
0.007282686321890684
0.016582838698968844
0.008458509045872094
-0.010816486491411008
0.008291398138623287
0.0012825925306014646
0.011331570599094402
0.011054135407541457
0.00806196411435771
-0.03093494956726465
-0.01453379813919124
-0.028355410352651707
-0.02643928462288359
-0.03502606175310102
-0.01937090279940523
-0.004600775377437666
-0.010830250273563954
-0.0030528630423459968
-0.026342796246004496
-0.019526488881672136
0.003392005841811105
-0.011936620696468139
0.003656688364857306
-0.0031563507067578237
-0.002805341234882683
-0.0036113329947911428
-0.012588200542843563
2.643610818632064e-147
-4.315615420742868e-148
-1.6150053151437452e-147
-1.0061203767173408e-147
1.5492880447996204e-147
3.7769880534302396e-147
5.620566886370426e-147
-1.4086729658636637e-147
-3.2305187183971576e-147
8.25115606084109e-148
3.780930468626324e-147
-4.405630380728445e-147
-2.78278010503007e-148
9.699225571869499e-148
-4.321481232827288e-147
3.58424170970141e-148
-2.1902108041434847e-148
-2.2171809197934782e-147
2.1543204898733832e-148
1.8197561505456052e-147
5.40695848262594e-147
1.1261682172508945e-147
-5.5934325981285605e-148
-3.467136222721383e-147
-1.017971158450341e-147
1.5211191116751972e-147
2.3232008103329546e-147
6.60951685999353e-148
-5.17001924716305e-147
-4.0006744644246184e-147
4.7071232898294267e-147
-2.3846104693190326e-147
1.4767628414779632e-147
-1.9456347498518832e-147
-3.454373061088591e-147
-4.3102907701906886e-147
-5.16975055570051e-147
8.544731084714918e-148
1.2445385036598378e-147
3.3764407973450596e-147
-2.3505587881967877e-147
2.4048033496190596e-147
2.0945695631381395e-147
-1.989282533347456e-148
4.5844755671078356e-147
4.890294005448812e-147
-6.212212533090755e-147
3.9604482476909456e-148
9.741900121677755e-148
-4.444240362691428e-148
1.358928598484292e-147
-1.712306917849826e-147
-2.6559161985331283e-147
3.807898898699264e-148
2.7722431826388114e-147
-1.1983934414635901e-147
4.569373081758472e-147
2.333416009414691e-147
7.498149532623271e-148
-2.7176671715996767e-147
-1.3973854566722256e-147
-0.0014154242067137245